{"Gradient Norm":22761.459824544312,"Validation Accuracy":0.1075439453125,"gradients/conv2.linear.bias":{"values":[1,0,1,0,0,1,0,1,1,0,1,1,1,0,1,1,1,3,1,2,3,1,4,1,0,3,0,1,0,3,4,0,2,1,2,1,3,1,3,2,0,1,0,0,1,2,1,0,0,1,0,1,0,1,0,0,0,1,0,1,0,0,0,2],"bins":[-0.0018469865899533033,-0.0017349330009892583,-0.0016228794120252132,-0.00151082593947649,-0.001398772350512445,-0.0012867187615484,-0.0011746652889996767,-0.0010626117000356317,-0.0009505581110715866,-0.0008385045221075416,-0.0007264509913511574,-0.0006143974605947733,-0.0005023438716307282,-0.00039029031177051365,-0.00027823675191029906,-0.00016618319205008447,-5.412963218986988e-05,5.792392767034471e-05,0.0001699774875305593,0.0002820310473907739,0.0003940846072509885,0.0005061381962150335,0.0006181917269714177,0.0007302452577278018,0.0008422988466918468,0.0009543524356558919,0.001066406024619937,0.0011784594971686602,0.0012905130861327052,0.0014025666750967503,0.0015146201476454735,0.0016266737366095185,0.00173872709274292,0.001850780681706965,0.00196283427067101,0.0020748877432197332,0.0021869414485991,0.0022989949211478233,0.0024110483936965466,0.0025231020990759134,0.0026351555716246367,0.00274720904417336,0.0028592627495527267,0.00297131622210145,0.003083369694650173,0.00319542340002954,0.0033074768725782633,0.00341953057795763,0.0035315840505063534,0.0036436375230550766,0.0037556912284344435,0.0038677447009831667,0.003979798406362534,0.004091851878911257,0.00420390535145998,0.004315958824008703,0.0044280122965574265,0.004540066234767437,0.00465211970731616,0.004764173179864883,0.004876226652413607,0.00498828012496233,0.00510033406317234,0.005212387535721064,0.005324441008269787],"_type":"histogram"},"parameters/conv2.linear.bias":{"values":[1,0,0,0,1,0,0,0,1,2,2,0,2,0,0,1,0,1,1,1,2,1,1,1,1,1,2,3,3,3,3,0,1,2,2,3,1,1,1,1,1,3,3,0,1,1,2,1,0,0,1,0,1,0,0,1,0,0,0,1,0,0,1,1],"bins":[-0.6960051655769348,-0.6893495321273804,-0.6826938390731812,-0.6760382056236267,-0.6693825721740723,-0.662726879119873,-0.6560712456703186,-0.6494156122207642,-0.6427599191665649,-0.6361042857170105,-0.6294485926628113,-0.6227929592132568,-0.6161373257637024,-0.6094816327095032,-0.6028259992599487,-0.5961703658103943,-0.5895146727561951,-0.5828590393066406,-0.5762034058570862,-0.569547712802887,-0.5628920793533325,-0.5562364459037781,-0.5495807528495789,-0.5429251194000244,-0.53626948595047,-0.5296137928962708,-0.5229581594467163,-0.5163025259971619,-0.5096468329429626,-0.5029911994934082,-0.49633553624153137,-0.48967987298965454,-0.4830242395401001,-0.47636857628822327,-0.46971291303634644,-0.4630572497844696,-0.45640161633491516,-0.44974595308303833,-0.4430902898311615,-0.43643465638160706,-0.4297789931297302,-0.4231233298778534,-0.41646766662597656,-0.4098120331764221,-0.4031563699245453,-0.39650070667266846,-0.389845073223114,-0.3831894099712372,-0.37653374671936035,-0.3698781132698059,-0.3632224500179291,-0.35656678676605225,-0.3499111235141754,-0.34325549006462097,-0.33659982681274414,-0.3299441635608673,-0.32328853011131287,-0.31663286685943604,-0.3099772036075592,-0.30332157015800476,-0.29666590690612793,-0.2900102436542511,-0.28335458040237427,-0.2766989469528198,-0.270043283700943],"_type":"histogram"},"gradients/conv3.linear.bias":{"bins":[-0.010855546221137047,-0.010622340254485607,-0.010389134287834167,-0.010155929252505302,-0.009922723285853863,-0.009689517319202423,-0.009456312283873558,-0.009223106317222118,-0.008989900350570679,-0.008756694383919239,-0.0085234884172678,-0.008290283381938934,-0.008057077415287495,-0.007823871448636055,-0.007590665947645903,-0.00735746044665575,-0.007124254480004311,-0.006891048513352871,-0.006657843012362719,-0.006424637511372566,-0.0061914315447211266,-0.005958225578069687,-0.0057250200770795345,-0.005491814576089382,-0.0052586086094379425,-0.005025402642786503,-0.0047921971417963505,-0.004558991640806198,-0.0043257856741547585,-0.004092579707503319,-0.0038593742065131664,-0.0036261684726923704,-0.0033929632045328617,-0.0031597574707120657,-0.0029265517368912697,-0.0026933460030704737,-0.0024601402692496777,-0.0022269345354288816,-0.0019937288016080856,-0.0017605230677872896,-0.0015273173339664936,-0.0012941116001456976,-0.0010609058663249016,-0.0008277001325041056,-0.0005944943986833096,-0.00036128866486251354,-0.00012808293104171753,0.00010512280277907848,0.0003383285365998745,0.0005715342704206705,0.0008047400042414665,0.0010379457380622625,0.0012711514718830585,0.0015043572057038546,0.0017375629395246506,0.0019707686733454466,0.0022039744071662426,0.0024371801409870386,0.0026703858748078346,0.0029035916086286306,0.0031367973424494267,0.0033700030762702227,0.0036032088100910187,0.0038364145439118147,0.004069620277732611],"_type":"histogram","values":[1,0,0,0,0,0,0,0,0,0,0,0,0,0,0,0,0,0,0,0,0,0,0,0,0,0,0,1,0,0,1,1,0,0,0,1,0,1,1,1,2,2,1,1,3,1,6,3,5,6,7,4,4,2,1,3,2,1,1,0,0,0,0,1]},"gradients/conv3.linear.weight":{"_type":"histogram","values":[1,2,4,1,2,6,5,7,4,8,8,16,11,16,33,24,37,47,63,119,186,270,456,738,1619,6933,50190,2285,998,512,304,189,122,79,61,44,27,21,9,14,14,13,6,5,7,4,4,1,3,2,1,0,0,0,1,1,0,0,0,0,1,1,0,1],"bins":[-623.1427612304688,-599.3311157226562,-575.5194702148438,-551.7078247070312,-527.8961181640625,-504.0845031738281,-480.2728271484375,-456.461181640625,-432.6495361328125,-408.837890625,-385.0262451171875,-361.2145690917969,-337.4029235839844,-313.5912780761719,-289.77960205078125,-265.96795654296875,-242.15631103515625,-218.34466552734375,-194.5330047607422,-170.72134399414062,-146.90969848632812,-123.0980453491211,-99.28639221191406,-75.47473907470703,-51.6630859375,-27.85143280029297,-4.0397796630859375,19.771873474121094,43.583526611328125,67.39517974853516,91.20683288574219,115.01848602294922,138.8302001953125,162.641845703125,186.45350646972656,210.26516723632812,234.07681274414062,257.8884582519531,281.70013427734375,305.51177978515625,329.32342529296875,353.13507080078125,376.94671630859375,400.7583923339844,424.5700378417969,448.3816833496094,472.193359375,496.0050048828125,519.816650390625,543.6282958984375,567.43994140625,591.2515869140625,615.063232421875,638.8749389648438,662.6865844726562,686.4982299804688,710.3098754882812,734.1215209960938,757.9331665039062,781.7448120117188,805.5565185546875,829.3681640625,853.1798095703125,876.991455078125,900.8031005859375]},"gradients/fc.weight":{"bins":[-2070.61279296875,-2002.5391845703125,-1934.465576171875,-1866.3919677734375,-1798.318359375,-1730.2447509765625,-1662.171142578125,-1594.0975341796875,-1526.02392578125,-1457.9503173828125,-1389.876708984375,-1321.8031005859375,-1253.7294921875,-1185.6558837890625,-1117.582275390625,-1049.5086669921875,-981.43505859375,-913.3614501953125,-845.287841796875,-777.2142333984375,-709.140625,-641.0670166015625,-572.993408203125,-504.9197998046875,-436.84619140625,-368.7725830078125,-300.698974609375,-232.6253662109375,-164.5517578125,-96.4781494140625,-28.404541015625,39.6690673828125,107.742919921875,175.8165283203125,243.89013671875,311.9637451171875,380.037353515625,448.1109619140625,516.1845703125,584.2581787109375,652.331787109375,720.4053955078125,788.47900390625,856.5526123046875,924.626220703125,992.6998291015625,1060.7734375,1128.8470458984375,1196.920654296875,1264.9942626953125,1333.06787109375,1401.1414794921875,1469.215087890625,1537.2886962890625,1605.3623046875,1673.4359130859375,1741.509521484375,1809.5831298828125,1877.65673828125,1945.7303466796875,2013.803955078125,2081.87744140625,2149.951171875,2218.02490234375,2286.098388671875],"_type":"histogram","values":[2,1,0,1,1,1,0,0,2,0,0,3,1,1,3,3,4,1,9,2,6,6,6,6,16,31,50,47,37,78,134,9,12,19,27,21,20,16,10,4,5,1,6,5,6,3,2,0,7,3,2,2,0,1,0,1,0,1,1,0,1,0,2,1]},"Training Accuracy":0.10797275641025642,"gradients/conv1.linear.bias":{"bins":[-0.6117479801177979,-0.5895242691040039,-0.5673006176948547,-0.5450769066810608,-0.5228531956672668,-0.5006295442581177,-0.47840583324432373,-0.4561821222305298,-0.4339584410190582,-0.41173475980758667,-0.3895110487937927,-0.36728736758232117,-0.3450636863708496,-0.32283997535705566,-0.3006162941455841,-0.27839258313179016,-0.2561689019203186,-0.23394520580768585,-0.2117215096950531,-0.18949782848358154,-0.1672741323709488,-0.14505043625831604,-0.12282674759626389,-0.10060305893421173,-0.07837936282157898,-0.056155670434236526,-0.033931978046894073,-0.01170828565955162,0.010515406727790833,0.032739099115133286,0.05496279150247574,0.0771864801645279,0.09941011667251587,0.12163381278514862,0.14385750889778137,0.16608119010925293,0.18830488622188568,0.21052858233451843,0.23275226354599,0.25497597455978394,0.2771996557712555,0.29942333698272705,0.321647047996521,0.34387072920799255,0.3660944104194641,0.38831812143325806,0.4105418026447296,0.43276551365852356,0.4549891948699951,0.4772128760814667,0.4994365870952606,0.5216602683067322,0.5438839793205261,0.5661076307296753,0.5883313417434692,0.6105550527572632,0.6327787637710571,0.6550024151802063,0.6772261261940002,0.6994498372077942,0.7216734886169434,0.7438971996307373,0.7661209106445312,0.7883445620536804,0.8105682730674744],"_type":"histogram","values":[1,0,0,0,0,0,0,0,0,0,0,0,0,3,0,0,1,0,1,2,1,1,1,1,1,1,1,3,7,2,4,1,0,3,4,3,3,2,2,5,3,1,0,0,1,1,0,1,1,0,0,0,0,1,0,0,0,0,0,0,0,0,0,1]},"parameters/conv1.linear.bias":{"_type":"histogram","values":[2,0,0,1,1,2,0,0,0,2,0,0,1,0,0,0,0,0,0,1,1,4,4,4,1,1,4,3,0,4,4,3,3,0,0,3,3,3,1,1,0,0,0,1,0,0,0,2,0,1,1,0,1,0,0,0,0,0,0,0,0,0,0,1],"bins":[-0.3546799421310425,-0.35082411766052246,-0.34696826338768005,-0.34311243891716003,-0.33925661444664,-0.3354007601737976,-0.3315449357032776,-0.32768911123275757,-0.32383328676223755,-0.31997743248939514,-0.3161216080188751,-0.3122657835483551,-0.3084099292755127,-0.3045541048049927,-0.30069828033447266,-0.29684242606163025,-0.29298660159111023,-0.2891307771205902,-0.2852749228477478,-0.2814190983772278,-0.27756327390670776,-0.27370741963386536,-0.26985159516334534,-0.2659957706928253,-0.2621399164199829,-0.2582840919494629,-0.25442826747894287,-0.25057244300842285,-0.24671658873558044,-0.24286076426506042,-0.2390049248933792,-0.2351491004228592,-0.23129326105117798,-0.22743742167949677,-0.22358158230781555,-0.21972575783729553,-0.21586991846561432,-0.2120140790939331,-0.20815825462341309,-0.20430241525173187,-0.20044657588005066,-0.19659075140953064,-0.19273491203784943,-0.1888790875673294,-0.1850232481956482,-0.18116740882396698,-0.17731158435344696,-0.17345574498176575,-0.16959992051124573,-0.16574408113956451,-0.1618882417678833,-0.15803241729736328,-0.15417657792568207,-0.15032073855400085,-0.14646491408348083,-0.14260907471179962,-0.1387532353401184,-0.1348974108695984,-0.13104157149791718,-0.12718574702739716,-0.12332990765571594,-0.11947407573461533,-0.11561824381351471,-0.1117624044418335,-0.10790657252073288]},"Confusion Matrix Table":{"nrows":12,"_type":"table-file","sha256":"52e7e9a8b053775bd0dc0c82107612baa1ec0bc9e26a996b0d3c35dccfc50356","size":1205,"artifact_path":"wandb-client-artifact://jckqp349n0iiqhbvyrjwgtkx7scz6n5jl2xl82p6x7mq8ct4ze9kmnxhoy0jtrsafynfa5y2ym62dkh7psj2fck5z34dmvgxwdz2qm73mc6phcyqbulwiqn2h2yjw88p/Confusion Matrix Table.table.json","_latest_artifact_path":"wandb-client-artifact://n0ucb9adjxcj5xcyxlz3l77ezrd1jxanpsocuhwm30bh75vx0wm1sef63x128rxab332rshrv8ndvoy491cr084dk7pwhjd5eqjithq8bcnz40kg891muoiecg78tdjg:latest/Confusion Matrix Table.table.json","path":"media/table/Confusion Matrix Table_30_52e7e9a8b053775bd0dc.table.json","ncols":5},"parameters/conv1.linear.weight":{"_type":"histogram","values":[1,0,0,1,2,2,2,4,4,14,9,15,13,14,34,41,51,56,83,92,113,142,227,275,393,562,714,884,1007,1162,1203,1293,1281,1153,1174,1026,840,662,471,361,266,162,125,102,68,55,38,33,30,29,28,19,12,11,7,6,2,1,4,2,1,0,1,1],"bins":[-0.3305564522743225,-0.32019174098968506,-0.3098269999027252,-0.29946228861808777,-0.28909754753112793,-0.2787328362464905,-0.26836809515953064,-0.2580033838748932,-0.24763865768909454,-0.2372739315032959,-0.22690920531749725,-0.2165444791316986,-0.20617976784706116,-0.1958150416612625,-0.18545031547546387,-0.17508558928966522,-0.16472086310386658,-0.15435613691806793,-0.1439914107322693,-0.13362668454647064,-0.1232619658112526,-0.11289723962545395,-0.1025325208902359,-0.09216779470443726,-0.08180306851863861,-0.07143834233283997,-0.06107361987233162,-0.05070889741182327,-0.04034417122602463,-0.029979446902871132,-0.019614722579717636,-0.00924999825656414,0.0011147260665893555,0.011479450389742851,0.021844174712896347,0.032208897173404694,0.04257362335920334,0.052938349545001984,0.06330306828022003,0.07366779446601868,0.08403252065181732,0.09439724683761597,0.10476197302341461,0.11512669175863266,0.1254914104938507,0.13585613667964935,0.146220862865448,0.15658558905124664,0.1669503152370453,0.17731504142284393,0.18767976760864258,0.19804449379444122,0.20840921998023987,0.21877393126487732,0.22913865745067596,0.2395033836364746,0.24986810982227325,0.2602328360080719,0.27059754729270935,0.2809622883796692,0.29132699966430664,0.3016917407512665,0.31205645203590393,0.32242119312286377,0.3327859044075012]},"_runtime":136.065583231,"parameters/conv3.linear.weight":{"values":[1,0,0,3,3,5,7,15,14,32,34,53,75,103,169,218,314,436,497,624,878,1064,1297,1507,1865,2072,2313,2704,2913,3095,3396,3523,3517,3550,3522,3310,3177,2950,2741,2395,2122,1808,1566,1252,1030,813,616,467,386,299,212,164,133,81,79,32,33,13,9,11,8,3,5,2],"bins":[-0.13453763723373413,-0.13049426674842834,-0.12645089626312256,-0.12240751832723618,-0.11836414784193039,-0.1143207773566246,-0.11027739942073822,-0.10623402893543243,-0.10219065845012665,-0.09814728796482086,-0.09410391747951508,-0.09006053954362869,-0.0860171690583229,-0.08197379857301712,-0.07793042063713074,-0.07388705015182495,-0.06984367966651917,-0.06580030918121338,-0.061756934970617294,-0.05771356076002121,-0.053670190274715424,-0.04962681978940964,-0.04558344557881355,-0.04154007136821747,-0.03749670088291168,-0.033453330397605896,-0.02940995618700981,-0.025366583839058876,-0.02132321149110794,-0.017279839143157005,-0.01323646679520607,-0.009193094447255135,-0.005149707198143005,-0.00110633485019207,0.0029370374977588654,0.006980409845709801,0.011023782193660736,0.015067154541611671,0.019110526889562607,0.023153899237513542,0.027197271585464478,0.031240643933415413,0.03528401628136635,0.03932739049196243,0.04337076097726822,0.047414131462574005,0.05145750567317009,0.055500879883766174,0.05954425036907196,0.06358762085437775,0.06763099133968353,0.07167436927556992,0.0757177397608757,0.07976111024618149,0.08380448818206787,0.08784785866737366,0.09189122915267944,0.09593459963798523,0.09997797012329102,0.1040213480591774,0.10806471854448318,0.11210808902978897,0.11615146696567535,0.12019483745098114,0.12423820793628693],"_type":"histogram"},"parameters/conv2.linear.weight":{"bins":[-0.2622118294239044,-0.2535378932952881,-0.24486395716667175,-0.23619000613689423,-0.2275160700082779,-0.21884213387966156,-0.21016818284988403,-0.2014942467212677,-0.19282031059265137,-0.18414637446403503,-0.1754724383354187,-0.16679848730564117,-0.15812455117702484,-0.1494506150484085,-0.14077666401863098,-0.13210272789001465,-0.12342879176139832,-0.11475485563278198,-0.10608091205358505,-0.09740696847438812,-0.08873303234577179,-0.08005909621715546,-0.07138515263795853,-0.0627112090587616,-0.054037272930145264,-0.04536333307623863,-0.036689393222332,-0.02801545336842537,-0.019341513514518738,-0.010667573660612106,-0.001993633806705475,0.006680306047201157,0.015354245901107788,0.02402818575501442,0.03270212560892105,0.04137606546282768,0.050050005316734314,0.058723945170640945,0.06739788502454758,0.0760718286037445,0.08474576473236084,0.09341970086097717,0.1020936444401741,0.11076758801937103,0.11944152414798737,0.1281154602766037,0.13678941130638123,0.14546334743499756,0.1541372835636139,0.16281121969223022,0.17148515582084656,0.18015910685062408,0.18883304297924042,0.19750697910785675,0.20618093013763428,0.2148548662662506,0.22352880239486694,0.23220273852348328,0.2408766746520996,0.24955062568187714,0.2582245469093323,0.266898512840271,0.27557244896888733,0.28424638509750366,0.29292032122612],"_type":"histogram","values":[2,1,2,4,12,15,33,50,71,132,171,230,280,343,391,418,443,393,394,378,369,399,547,812,1450,2260,3743,5149,6624,7250,7266,6695,5574,4069,2547,1517,762,387,192,147,132,194,274,294,350,395,370,403,370,312,275,188,142,123,78,53,27,12,11,8,0,1,1,1]},"Training Loss":1293.619153145032,"Epoch":30,"Validation Loss":2322.8193969726562,"ROC-AUC Curve":{"height":600,"_type":"image-file","sha256":"ffa9fee54442a3b7e3ac9e2b80386f0d045138ebc2cf089f20eec8032d249363","size":138016,"path":"media/images/ROC-AUC Curve_30_ffa9fee54442a3b7e3ac.png","format":"png","width":800},"gradients/conv2.linear.weight":{"bins":[-697.0797119140625,-671.162841796875,-645.2460327148438,-619.3291625976562,-593.412353515625,-567.4954833984375,-541.57861328125,-515.6618041992188,-489.74493408203125,-463.8280944824219,-437.9112548828125,-411.994384765625,-386.0775451660156,-360.16070556640625,-334.24383544921875,-308.3269958496094,-282.41015625,-256.4933166503906,-230.5764617919922,-204.65960693359375,-178.74276733398438,-152.825927734375,-126.90907287597656,-100.99222564697266,-75.07537841796875,-49.158531188964844,-23.241683959960938,2.6751632690429688,28.592010498046875,54.50885772705078,80.42570495605469,106.3425521850586,132.25933837890625,158.17617797851562,184.09303283691406,210.0098876953125,235.92672729492188,261.84356689453125,287.76043701171875,313.6772766113281,339.5941162109375,365.5109558105469,391.42779541015625,417.34466552734375,443.2615051269531,469.1783447265625,495.09521484375,521.0120239257812,546.9288940429688,572.8457641601562,598.7625732421875,624.679443359375,650.5963134765625,676.5131225585938,702.4299926757812,728.3468017578125,754.263671875,780.1805419921875,806.0973510742188,832.0142211914062,857.9310302734375,883.847900390625,909.7647705078125,935.6815795898438,961.5984497070312],"_type":"histogram","values":[1,0,0,1,0,0,1,0,3,2,6,8,12,11,16,17,40,46,62,77,118,159,262,417,839,2099,49301,8594,1615,712,367,227,142,98,74,51,32,38,20,16,9,8,9,6,5,0,4,0,2,1,1,1,1,1,1,0,0,1,1,0,0,0,0,1]},"gradients/fc.bias":{"_type":"histogram","values":[2,0,1,0,0,0,0,0,0,0,0,2,1,1,0,1,0,0,0,0,0,0,0,0,0,0,0,0,0,0,0,0,0,0,0,0,0,0,0,0,0,0,0,0,0,0,0,0,1,0,0,0,0,0,0,0,0,0,0,0,0,0,0,1],"bins":[-0.03611971437931061,-0.034113749861717224,-0.03210778534412384,-0.030101820826530457,-0.028095856308937073,-0.02608988992869854,-0.024083925411105156,-0.022077960893511772,-0.02007199637591839,-0.018066031858325005,-0.01606006734073162,-0.014054101891815662,-0.012048137374222279,-0.010042172856628895,-0.008036207407712936,-0.006030242890119553,-0.004024278372526169,-0.0020183136221021414,-1.2348871678113937e-05,0.0019936158787459135,0.003999580629169941,0.006005545146763325,0.008011510595679283,0.010017475113272667,0.01202343963086605,0.014029404148459435,0.01603536866605282,0.018041333183646202,0.020047299563884735,0.02205326408147812,0.024059228599071503,0.026065193116664886,0.02807115763425827,0.030077122151851654,0.03208308666944504,0.03408905118703842,0.036095015704631805,0.03810098022222519,0.04010694473981857,0.04211290925741196,0.04411887377500534,0.04612484201788902,0.04813080653548241,0.05013677105307579,0.052142735570669174,0.05414870008826256,0.05615466460585594,0.058160629123449326,0.06016659364104271,0.06217255815863609,0.06417852640151978,0.06618449091911316,0.06819045543670654,0.07019641995429993,0.07220238447189331,0.0742083489894867,0.07621431350708008,0.07822027802467346,0.08022624254226685,0.08223220705986023,0.08423817157745361,0.086244136095047,0.08825010061264038,0.09025606513023376,0.09226202964782715]},"parameters/fc.bias":{"values":[1,0,0,0,0,0,0,0,0,0,0,0,0,0,0,0,0,0,0,0,0,1,0,0,0,0,0,0,0,0,0,0,0,0,0,0,0,0,1,0,0,0,0,0,0,0,0,0,0,1,0,0,1,0,1,0,0,1,1,0,0,0,0,2],"bins":[-0.23372843861579895,-0.227516770362854,-0.22130510210990906,-0.21509341895580292,-0.20888175070285797,-0.20267008244991302,-0.19645841419696808,-0.19024674594402313,-0.184035062789917,-0.17782339453697205,-0.1716117262840271,-0.16540005803108215,-0.1591883897781372,-0.15297672152519226,-0.14676503837108612,-0.14055337011814117,-0.13434170186519623,-0.12813003361225128,-0.12191835790872574,-0.11570668965578079,-0.10949501395225525,-0.1032833456993103,-0.09707167744636536,-0.09086000174283981,-0.08464833348989487,-0.07843666523694992,-0.07222498953342438,-0.06601332128047943,-0.059801649302244186,-0.05358997732400894,-0.047378309071063995,-0.04116663709282875,-0.0349549800157547,-0.028743308037519455,-0.02253163792192936,-0.016319967806339264,-0.01010829582810402,-0.003896624781191349,0.002315046265721321,0.008526717312633991,0.014738388359546661,0.020950060337781906,0.027161730453372,0.0333734005689621,0.03958507254719734,0.04579674452543259,0.05200841277837753,0.05822008475661278,0.06443175673484802,0.07064342498779297,0.07685510069131851,0.08306676894426346,0.089278444647789,0.09549011290073395,0.1017017811536789,0.10791345685720444,0.11412512511014938,0.12033679336309433,0.12654846906661987,0.13276013731956482,0.13897180557250977,0.1451834738254547,0.15139515697956085,0.1576068252325058,0.16381849348545074],"_type":"histogram"},"_timestamp":1.7450370549761946e+09,"GPU Memory Used (MB)":5584,"_step":30,"parameters/fc.weight":{"_type":"histogram","values":[3,1,1,3,1,3,6,2,7,8,7,15,7,11,10,13,14,16,10,15,19,8,15,9,14,17,16,8,20,12,11,17,9,9,11,11,6,10,10,13,18,7,14,15,16,10,10,9,13,8,12,12,17,10,13,10,4,7,7,11,7,4,5,3],"bins":[-0.11474577337503433,-0.11116718500852585,-0.10758860409259796,-0.10401001572608948,-0.100431427359581,-0.09685283899307251,-0.09327425062656403,-0.08969566971063614,-0.08611708134412766,-0.08253849297761917,-0.07895991206169128,-0.0753813236951828,-0.07180273532867432,-0.06822414696216583,-0.06464555859565735,-0.06106697767972946,-0.05748838931322098,-0.053909800946712494,-0.05033121630549431,-0.04675263166427612,-0.04317404329776764,-0.039595454931259155,-0.03601687029004097,-0.032438285648822784,-0.0288596972823143,-0.025281110778450966,-0.02170252427458763,-0.018123937770724297,-0.014545351266860962,-0.010966764762997627,-0.007388178259134293,-0.003809591755270958,-0.0002310052514076233,0.0033475812524557114,0.006926167756319046,0.01050475426018238,0.014083340764045715,0.01766192726790905,0.021240513771772385,0.02481910027563572,0.028397686779499054,0.03197627514600754,0.03555485978722572,0.03913344442844391,0.04271203279495239,0.046290621161460876,0.04986920580267906,0.05344779044389725,0.05702637881040573,0.060604967176914215,0.0641835480928421,0.06776213645935059,0.07134072482585907,0.07491931319236755,0.07849790155887604,0.08207648247480392,0.08565507084131241,0.08923365920782089,0.09281224012374878,0.09639082849025726,0.09996941685676575,0.10354800522327423,0.10712659358978271,0.1107051745057106,0.11428376287221909]},"parameters/conv3.linear.bias":{"_type":"histogram","values":[1,0,1,0,0,0,0,2,1,0,3,0,0,0,1,2,1,0,1,1,0,1,3,1,3,1,0,0,4,1,0,2,1,0,1,2,2,1,1,0,0,1,4,1,0,0,1,0,5,4,1,1,1,0,0,0,2,1,1,0,1,0,1,1],"bins":[-0.4160115122795105,-0.4075208902359009,-0.39903023838996887,-0.39053961634635925,-0.38204899430274963,-0.3735583424568176,-0.365067720413208,-0.3565770983695984,-0.34808647632598877,-0.33959582448005676,-0.33110520243644714,-0.3226145803928375,-0.3141239285469055,-0.3056333065032959,-0.2971426844596863,-0.2886520326137543,-0.28016141057014465,-0.27167078852653503,-0.263180136680603,-0.2546895146369934,-0.2461988925933838,-0.23770825564861298,-0.22921761870384216,-0.22072699666023254,-0.21223635971546173,-0.20374572277069092,-0.1952551007270813,-0.18676446378231049,-0.17827382683753967,-0.16978320479393005,-0.16129256784915924,-0.15280194580554962,-0.14431129395961761,-0.1358206570148468,-0.12733003497123718,-0.11883939802646637,-0.11034876853227615,-0.10185813903808594,-0.09336750209331512,-0.08487687259912491,-0.07638624310493469,-0.06789561361074448,-0.05940498039126396,-0.05091434717178345,-0.04242371767759323,-0.033933088183403015,-0.0254424549639225,-0.016951823607087135,-0.00846119225025177,2.9439106583595276e-05,0.00852007046341896,0.017010701820254326,0.02550133317708969,0.03399196267127991,0.04248259589076042,0.050973229110240936,0.05946385860443115,0.06795448809862137,0.07644511759281158,0.0849357545375824,0.09342638403177261,0.10191701352596283,0.11040765047073364,0.11889827996492386,0.12738890945911407]},"Confusion Matrix":{"_type":"image-file","sha256":"329709c92892314196a48c54072a5d7009826aad1ed056ee6bfcdd99e1688dce","size":104614,"path":"media/images/Confusion Matrix_30_329709c92892314196a4.png","format":"png","width":1500,"height":1500},"_wandb":{"runtime":136},"gradients/conv1.linear.weight":{"bins":[-3348.599365234375,-3238.515625,-3128.43212890625,-3018.348388671875,-2908.2646484375,-2798.180908203125,-2688.09716796875,-2578.013671875,-2467.929931640625,-2357.84619140625,-2247.7626953125,-2137.678955078125,-2027.59521484375,-1917.511474609375,-1807.4278564453125,-1697.34423828125,-1587.260498046875,-1477.1767578125,-1367.0931396484375,-1257.009521484375,-1146.92578125,-1036.842041015625,-926.7584228515625,-816.6747436523438,-706.591064453125,-596.5073852539062,-486.4237060546875,-376.34002685546875,-266.25634765625,-156.17266845703125,-46.0889892578125,63.99468994140625,174.07861328125,284.16229248046875,394.2459716796875,504.32965087890625,614.413330078125,724.4970092773438,834.5806884765625,944.6643676757812,1054.748046875,1164.831787109375,1274.9154052734375,1384.9990234375,1495.082763671875,1605.16650390625,1715.2501220703125,1825.333740234375,1935.41748046875,2045.501220703125,2155.5849609375,2265.66845703125,2375.752197265625,2485.8359375,2595.91943359375,2706.003173828125,2816.0869140625,2926.170654296875,3036.25439453125,3146.337890625,3256.421630859375,3366.50537109375,3476.5888671875,3586.672607421875,3696.75634765625],"_type":"histogram","values":[1,0,0,0,1,0,0,0,1,0,1,0,1,3,0,5,0,5,2,5,8,9,18,19,22,35,43,85,169,520,14649,409,139,71,44,28,11,23,14,6,7,6,4,2,3,5,5,1,1,0,0,1,1,0,0,0,0,0,0,0,0,0,0,1]}}