{"parameters/fc.weight":{"bins":[-0.01886768266558647,-0.016647517681121826,-0.014427351765334606,-0.012207185849547386,-0.00998702086508274,-0.007766855414956808,-0.005546689964830875,-0.0033265245147049427,-0.00110635906457901,0.0011138063855469227,0.0033339718356728554,0.005554137285798788,0.007774302735924721,0.009994467720389366,0.012214633636176586,0.014434799551963806,0.01665496453642845,0.018875129520893097,0.021095294505357742,0.023315461352467537,0.025535626336932182,0.027755791321396828,0.029975958168506622,0.03219612315297127,0.03441628813743591,0.03663645312190056,0.038856618106365204,0.04107678309082985,0.043296948075294495,0.04551711678504944,0.047737281769514084,0.04995744675397873,0.05217761546373367,0.05439778044819832,0.056617945432662964,0.05883811041712761,0.061058275401592255,0.0632784441113472,0.06549860537052155,0.06771877408027649,0.06993894279003143,0.07215910404920578,0.07437927275896072,0.07659943401813507,0.07881960272789001,0.08103976398706436,0.0832599326968193,0.08548009395599365,0.0877002626657486,0.08992043137550354,0.09214059263467789,0.09436076134443283,0.09658092260360718,0.09880109131336212,0.10102125257253647,0.10324142128229141,0.10546158254146576,0.1076817512512207,0.10990191996097565,0.11212208122015,0.11434224992990494,0.11656241118907928,0.11878257989883423,0.12100274115800858,0.12322290986776352],"_type":"histogram","values":[1,0,3,3,0,1,2,2,3,7,4,6,9,5,8,12,8,9,9,6,11,22,13,23,18,20,14,9,26,20,22,23,23,21,19,22,18,23,28,10,17,31,18,13,13,8,6,7,7,3,5,6,2,0,4,5,0,1,3,3,1,1,1,2]},"Confusion Matrix Table":{"ncols":5,"nrows":12,"_type":"table-file","sha256":"1bdaa1b5dd4620febac7a9175609ebaa1bcd434bf84c64594adfba1718585dfe","size":1298,"artifact_path":"wandb-client-artifact://d68jfc9xulwsnw8otb95wb9dc9dwcz45ylx9yju9jg9byv0ud1rhy3qg1c81juhvuch7n1h440v0b07ozlzp409selhqq5hq70e57logiju44rd40710mdp9lnrp35bc/Confusion Matrix Table.table.json","_latest_artifact_path":"wandb-client-artifact://e596y2bgrfjaf0vuluhc5cyfrn0e9lnzbbn0ch8a1qgg66ahjvz97qwbzj6d39v7ijgz8v4g5laammvrovqag24lfyy4lv5ghsjz35wvxbz0yht8spcy7sjs9xnyjefu:latest/Confusion Matrix Table.table.json","path":"media/table/Confusion Matrix Table_96_1bdaa1b5dd4620febac7.table.json"},"parameters/conv1.linear.weight":{"values":[2,6,21,28,39,54,39,48,43,42,55,74,63,56,59,70,72,63,39,31,53,53,64,61,53,111,212,314,713,1851,4802,3881,1360,503,237,148,73,71,78,71,53,35,31,32,41,47,50,59,53,48,29,25,23,27,28,29,26,31,28,29,18,15,8,6],"bins":[-2.191190004348755,-2.120164394378662,-2.0491385459899902,-1.9781129360198975,-1.9070873260498047,-1.8360615968704224,-1.76503586769104,-1.6940102577209473,-1.622984528541565,-1.5519587993621826,-1.4809331893920898,-1.4099074602127075,-1.3388817310333252,-1.2678561210632324,-1.19683039188385,-1.1258047819137573,-1.054779052734375,-0.9837533831596375,-0.9127277135848999,-0.8417019844055176,-0.77067631483078,-0.6996506452560425,-0.6286249160766602,-0.5575992465019226,-0.48657357692718506,-0.4155479073524475,-0.3445222079753876,-0.27349650859832764,-0.2024708390235901,-0.13144515454769135,-0.0604194700717926,0.01060621440410614,0.08163166046142578,0.15265734493732452,0.22368302941322327,0.2947087287902832,0.36573439836502075,0.4367600679397583,0.5077857971191406,0.5788114666938782,0.6498371362686157,0.7208628058433533,0.7918884754180908,0.8629142045974731,0.9339398741722107,1.0049655437469482,1.0759912729263306,1.1470168828964233,1.2180426120758057,1.289068341255188,1.3600939512252808,1.431119680404663,1.5021452903747559,1.5731710195541382,1.6441967487335205,1.7152223587036133,1.7862480878829956,1.857273817062378,1.9282994270324707,1.999325156211853,2.0703508853912354,2.141376495361328,2.212402105331421,2.2834279537200928,2.3544535636901855],"_type":"histogram"},"gradients/conv1.linear.weight":{"bins":[-5856.0517578125,-5650.9375,-5445.8232421875,-5240.70849609375,-5035.59423828125,-4830.47998046875,-4625.36572265625,-4420.25146484375,-4215.13671875,-4010.022705078125,-3804.908203125,-3599.7939453125,-3394.6796875,-3189.565185546875,-2984.450927734375,-2779.33642578125,-2574.22216796875,-2369.10791015625,-2163.993408203125,-1958.879150390625,-1753.7647705078125,-1548.650390625,-1343.5361328125,-1138.4217529296875,-933.307373046875,-728.1929931640625,-523.0786743164062,-317.9643249511719,-112.8499755859375,92.26437377929688,297.37872314453125,502.4930725097656,707.60791015625,912.7222900390625,1117.836669921875,1322.950927734375,1528.0653076171875,1733.1796875,1938.2939453125,2143.408447265625,2348.522705078125,2553.636962890625,2758.75146484375,2963.86572265625,3168.97998046875,3374.094482421875,3579.208740234375,3784.3232421875,3989.4375,4194.5517578125,4399.666015625,4604.78076171875,4809.89501953125,5015.00927734375,5220.12353515625,5425.23779296875,5630.3525390625,5835.466796875,6040.5810546875,6245.6953125,6450.8095703125,6655.923828125,6861.03857421875,7066.15283203125,7271.26708984375],"_type":"histogram","values":[1,1,0,1,0,2,0,0,1,0,1,2,2,5,4,3,6,5,9,9,21,8,25,25,41,83,148,499,14546,547,177,84,32,23,30,9,5,1,5,10,5,2,0,1,0,2,0,2,0,0,0,0,0,0,0,0,0,0,0,0,0,0,0,1]},"parameters/conv3.linear.weight":{"bins":[-1.9637796878814697,-1.9003369808197021,-1.8368942737579346,-1.7734516859054565,-1.710008978843689,-1.6465662717819214,-1.5831236839294434,-1.5196809768676758,-1.4562382698059082,-1.3927955627441406,-1.329352855682373,-1.265910267829895,-1.2024675607681274,-1.1390248537063599,-1.0755822658538818,-1.0121395587921143,-0.9486968517303467,-0.8852541446685791,-0.8218114972114563,-0.7583688497543335,-0.6949261426925659,-0.6314834356307983,-0.5680407881736755,-0.5045981407165527,-0.44115543365478516,-0.37771275639533997,-0.3142700791358948,-0.2508274018764496,-0.1873847246170044,-0.1239420473575592,-0.060499370098114014,0.0029433071613311768,0.06638598442077637,0.12982866168022156,0.19327133893966675,0.25671401619911194,0.32015669345855713,0.3835993707180023,0.4470420479774475,0.5104846954345703,0.5739274024963379,0.6373701095581055,0.7008127570152283,0.7642554044723511,0.8276981115341187,0.8911408185958862,0.954583466053009,1.0180261135101318,1.0814688205718994,1.144911527633667,1.2083542346954346,1.2717968225479126,1.3352395296096802,1.3986822366714478,1.4621248245239258,1.5255675315856934,1.589010238647461,1.6524529457092285,1.715895652770996,1.7793382406234741,1.8427809476852417,1.9062236547470093,1.9696662425994873,2.033108949661255,2.0965516567230225],"_type":"histogram","values":[5,7,39,92,193,404,562,739,761,907,910,992,1000,771,449,216,90,41,5,11,31,151,482,857,1085,840,531,722,1847,5250,14847,13711,4305,1612,1296,968,485,178,89,213,471,796,970,766,468,202,59,12,3,8,15,72,178,360,489,619,666,621,485,294,176,81,24,7]},"gradients/conv2.linear.bias":{"values":[1,0,0,0,2,3,0,0,0,2,3,2,2,2,0,1,1,1,1,2,4,3,2,2,3,1,1,0,2,2,1,1,1,0,2,1,2,3,0,2,1,0,0,1,0,0,1,0,1,0,0,0,0,1,0,1,0,0,0,0,1,0,0,1],"bins":[-0.0036962484009563923,-0.0035553332418203354,-0.0034144180826842785,-0.0032735029235482216,-0.0031325877644121647,-0.002991672605276108,-0.002850757446140051,-0.002709842287003994,-0.002568927127867937,-0.00242801196873188,-0.0022870968095958233,-0.0021461816504597664,-0.0020052664913237095,-0.0018643513321876526,-0.0017234361730515957,-0.0015825210139155388,-0.0014416058547794819,-0.001300690695643425,-0.001159775536507368,-0.0010188603773713112,-0.0008779452182352543,-0.0007370300590991974,-0.0005961148999631405,-0.0004551997408270836,-0.0003142845816910267,-0.0001733694225549698,-3.245426341891289e-05,0.00010846089571714401,0.0002493760548532009,0.0003902912139892578,0.0005312063731253147,0.0006721215322613716,0.0008130366913974285,0.0009539518505334854,0.0010948670096695423,0.0012357821688055992,0.0013766973279416561,0.001517612487077713,0.00165852764621377,0.0017994428053498268,0.0019403579644858837,0.0020812731236219406,0.0022221882827579975,0.0023631034418940544,0.0025040186010301113,0.002644933760166168,0.002785848919302225,0.002926764078438282,0.003067679237574339,0.003208594396710396,0.0033495095558464527,0.0034904247149825096,0.0036313398741185665,0.0037722550332546234,0.00391317019239068,0.004054085351526737,0.004195000510662794,0.004335915669798851,0.004476830828934908,0.004617745988070965,0.004758661147207022,0.004899576306343079,0.0050404914654791355,0.005181406624615192,0.005322321783751249],"_type":"histogram"},"GPU Memory Used (MB)":686,"Validation Accuracy":0.10647035256410256,"parameters/fc.bias":{"values":[1,0,0,0,0,0,0,0,0,0,0,0,0,0,0,0,0,0,0,0,0,0,0,0,0,0,0,0,0,0,0,0,0,0,1,0,0,0,0,0,0,0,0,0,0,0,0,0,0,0,0,0,1,0,1,0,0,1,0,3,1,0,0,1],"bins":[-0.45622721314430237,-0.44681552052497864,-0.4374037981033325,-0.4279921054840088,-0.41858041286468506,-0.40916869044303894,-0.3997569978237152,-0.3903453052043915,-0.38093358278274536,-0.37152189016342163,-0.3621101975440979,-0.3526984751224518,-0.34328678250312805,-0.3338750898838043,-0.3244633674621582,-0.3150516748428345,-0.30563998222351074,-0.2962282598018646,-0.2868165671825409,-0.2774048447608948,-0.26799315214157104,-0.2585814595222473,-0.2491697520017624,-0.23975804448127747,-0.23034635186195374,-0.2209346443414688,-0.2115229368209839,-0.20211122930049896,-0.19269953668117523,-0.1832878291606903,-0.17387612164020538,-0.16446442902088165,-0.15505273640155792,-0.145641028881073,-0.13622933626174927,-0.12681762874126434,-0.11740592122077942,-0.10799422115087509,-0.09858252108097076,-0.08917081356048584,-0.07975911349058151,-0.07034741342067719,-0.06093570590019226,-0.05152400583028793,-0.04211230203509331,-0.03270059823989868,-0.023288896307349205,-0.013877193443477154,-0.0044654905796051025,0.004946212284266949,0.014357915148139,0.023769617080688477,0.0331813208758831,0.04259302467107773,0.052004724740982056,0.06141642853617668,0.07082813233137131,0.08023983240127563,0.08965153992176056,0.09906323999166489,0.10847494006156921,0.11788664758205414,0.12729835510253906,0.1367100477218628,0.14612175524234772],"_type":"histogram"},"gradients/conv3.linear.bias":{"_type":"histogram","values":[1,0,0,1,0,0,0,0,1,4,3,6,6,1,5,3,5,6,4,4,5,0,1,0,1,0,1,0,0,0,0,2,0,0,0,0,0,0,1,0,0,0,0,0,0,0,1,0,0,0,0,0,1,0,0,0,0,0,0,0,0,0,0,1],"bins":[-0.00016553353634662926,-0.00015430519124493003,-0.00014307683159131557,-0.00013184848648961633,-0.00012062013411195949,-0.00010939178173430264,-9.816343663260341e-05,-8.693508425494656e-05,-7.570673187728971e-05,-6.447837949963287e-05,-5.3250030759954825e-05,-4.2021682020276785e-05,-3.079332964261994e-05,-1.9564979083952494e-05,-8.33662852528505e-06,2.8917220333823934e-06,1.4120072592049837e-05,2.534842315071728e-05,3.6576773709384724e-05,4.7805122449062765e-05,5.903347482671961e-05,7.026182720437646e-05,8.149017230607569e-05,9.271852468373254e-05,0.00010394687706138939,0.00011517522943904623,0.00012640358181670308,0.00013763192691840231,0.00014886027202010155,0.000160088631673716,0.00017131697677541524,0.0001825453364290297,0.0001937737106345594,0.00020500205573625863,0.0002162304153898731,0.00022745876049157232,0.00023868712014518678,0.000249915465246886,0.00026114381034858525,0.0002723721554502845,0.00028360052965581417,0.0002948288747575134,0.00030605721985921264,0.00031728556496091187,0.0003285139100626111,0.00033974225516431034,0.00035097062936984,0.00036219897447153926,0.0003734273195732385,0.0003846556646749377,0.00039588400977663696,0.00040711238398216665,0.0004183407290838659,0.0004295690741855651,0.00044079741928726435,0.0004520257643889636,0.0004632541094906628,0.0004744824836961925,0.00048571082879789174,0.000496939173899591,0.0005081675481051207,0.0005193958641029894,0.0005306242383085191,0.0005418525543063879,0.0005530809285119176]},"gradients/fc.weight":{"values":[1,0,0,0,0,1,2,2,0,1,0,0,0,1,0,2,1,4,2,7,7,7,6,2,14,13,18,40,73,360,13,2,2,7,8,1,3,5,2,3,0,4,3,2,3,1,2,1,1,2,1,2,1,0,0,2,1,3,0,0,0,0,0,1],"bins":[-6549.4306640625,-6325.37646484375,-6101.322265625,-5877.26806640625,-5653.2138671875,-5429.16015625,-5205.10595703125,-4981.0517578125,-4756.99755859375,-4532.943359375,-4308.88916015625,-4084.835205078125,-3860.781005859375,-3636.726806640625,-3412.6728515625,-3188.61865234375,-2964.564453125,-2740.51025390625,-2516.4560546875,-2292.402099609375,-2068.347900390625,-1844.293701171875,-1620.2396240234375,-1396.185546875,-1172.13134765625,-948.0772094726562,-724.0230712890625,-499.96893310546875,-275.914794921875,-51.86065673828125,172.1934814453125,396.24761962890625,620.3017578125,844.3558959960938,1068.4100341796875,1292.464111328125,1516.518310546875,1740.572509765625,1964.6265869140625,2188.6806640625,2412.73486328125,2636.7890625,2860.84326171875,3084.897216796875,3308.951416015625,3533.005615234375,3757.0595703125,3981.11376953125,4205.16796875,4429.22216796875,4653.2763671875,4877.33056640625,5101.384765625,5325.4384765625,5549.49267578125,5773.546875,5997.60107421875,6221.6552734375,6445.70947265625,6669.763671875,6893.8173828125,7117.87158203125,7341.92578125,7565.97998046875,7790.0341796875],"_type":"histogram"},"_runtime":845.932132523,"gradients/conv3.linear.weight":{"values":[1,1,0,0,0,1,2,1,3,2,2,5,2,10,5,6,15,12,20,14,19,25,24,24,50,50,68,91,99,151,191,283,523,918,2046,49507,7695,1550,756,397,270,172,134,85,73,54,35,33,21,14,20,11,8,9,8,3,5,2,3,4,1,0,0,2],"bins":[-740.2583618164062,-719.6212158203125,-698.9840698242188,-678.346923828125,-657.709716796875,-637.0725708007812,-616.4354248046875,-595.7982788085938,-575.1611328125,-554.5239868164062,-533.8868408203125,-513.2496948242188,-492.6125183105469,-471.9753723144531,-451.33819580078125,-430.7010498046875,-410.06390380859375,-389.4267578125,-368.78961181640625,-348.1524353027344,-327.5152893066406,-306.8781433105469,-286.240966796875,-265.60382080078125,-244.9666748046875,-224.32952880859375,-203.69236755371094,-183.05520629882812,-162.41806030273438,-141.78091430664062,-121.14375305175781,-100.50659942626953,-79.8695068359375,-59.23235321044922,-38.59519958496094,-17.958045959472656,2.679107666015625,23.316261291503906,43.95341491699219,64.59056854248047,85.22772216796875,105.86487579345703,126.50202941894531,147.13919067382812,167.77633666992188,188.41348266601562,209.05064392089844,229.68780517578125,250.324951171875,270.96209716796875,291.5992431640625,312.2364196777344,332.8735656738281,353.5107116699219,374.14788818359375,394.7850341796875,415.42218017578125,436.059326171875,456.69647216796875,477.3336486816406,497.9707946777344,518.6079711914062,539.2451171875,559.8822631835938,580.5194091796875],"_type":"histogram"},"Validation Loss":2823.531986957941,"Confusion Matrix":{"_type":"image-file","sha256":"874f96af77d951a44864a54acb34aa100d194c02e40ca1f064604866ffa7a686","size":95477,"path":"media/images/Confusion Matrix_96_874f96af77d951a44864.png","format":"png","width":1500,"height":1500},"gradients/conv1.linear.bias":{"_type":"histogram","values":[1,0,0,0,0,0,1,0,0,0,0,1,2,0,2,2,2,1,1,2,1,2,1,3,2,0,0,0,3,5,6,4,0,0,3,0,2,2,0,1,0,2,2,2,0,0,0,0,0,2,0,0,1,0,0,0,2,2,0,0,0,0,0,1],"bins":[-1.6115223169326782,-1.558488368988037,-1.5054543018341064,-1.4524203538894653,-1.3993862867355347,-1.3463523387908936,-1.293318271636963,-1.2402843236923218,-1.1872503757476807,-1.13421630859375,-1.0811823606491089,-1.0281482934951782,-0.9751143455505371,-0.9220803380012512,-0.8690463304519653,-0.8160123229026794,-0.7629783153533936,-0.7099443078041077,-0.6569103002548218,-0.6038762927055359,-0.55084228515625,-0.4978083074092865,-0.444774329662323,-0.3917403221130371,-0.3387063145637512,-0.28567230701446533,-0.23263831436634064,-0.17960432171821594,-0.12657031416893005,-0.07353631407022476,-0.02050231397151947,0.03253168612718582,0.08556556701660156,0.13859957456588745,0.19163356721401215,0.24466755986213684,0.29770156741142273,0.3507355749607086,0.4037695527076721,0.456803560256958,0.5098375678062439,0.5628715753555298,0.6159055829048157,0.6689395904541016,0.7219735383987427,0.7750075459480286,0.8280415534973145,0.8810755610466003,0.9341095685958862,0.9871435761451721,1.040177583694458,1.0932115316390991,1.1462455987930298,1.199279546737671,1.2523136138916016,1.3053475618362427,1.3583815097808838,1.4114155769348145,1.4644495248794556,1.5174835920333862,1.5705175399780273,1.623551607131958,1.6765855550765991,1.7296196222305298,1.782653570175171]},"Gradient Norm":1813.4205178058078,"_step":96,"ROC-AUC Curve":{"path":"media/images/ROC-AUC Curve_96_40fc0523dfbd4eccae78.png","format":"png","width":800,"height":600,"_type":"image-file","sha256":"40fc0523dfbd4eccae7851c501d8179ef912a010f3ec50502d1032ccbc542921","size":132658},"_wandb":{"runtime":846},"Training Loss":1004.4012376283988,"gradients/fc.bias":{"_type":"histogram","values":[1,1,0,0,0,0,1,0,0,0,0,0,0,0,0,0,0,0,0,0,0,1,0,1,0,0,1,0,0,0,0,0,1,0,0,0,0,0,0,0,0,2,0,0,0,0,0,0,0,0,0,0,0,0,0,0,0,0,0,0,0,0,0,1],"bins":[-0.03418419137597084,-0.03286503627896309,-0.03154587745666504,-0.030226722359657288,-0.028907567262649536,-0.027588410302996635,-0.026269253343343735,-0.024950098246335983,-0.023630941286683083,-0.022311784327030182,-0.02099262923002243,-0.01967347227036953,-0.01835431531071663,-0.017035160213708878,-0.015716003254055977,-0.01439684722572565,-0.013077691197395325,-0.011758535169064999,-0.010439379140734673,-0.009120222181081772,-0.007801066152751446,-0.00648191012442112,-0.005162753630429506,-0.0038435973692685366,-0.002524441108107567,-0.001205284846946597,0.00011387141421437263,0.0014330276753753424,0.002752183936536312,0.004071339964866638,0.005390496458858252,0.006709652952849865,0.00802881270647049,0.009347968734800816,0.010667124763131142,0.011986281722784042,0.013305437751114368,0.014624593779444695,0.015943750739097595,0.017262905836105347,0.018582062795758247,0.019901219755411148,0.0212203748524189,0.0225395318120718,0.0238586887717247,0.025177843868732452,0.026497000828385353,0.027816155925393105,0.029135312885046005,0.030454469844698906,0.03177362680435181,0.03309278190135956,0.03441193699836731,0.03573109582066536,0.03705025091767311,0.03836940601468086,0.03968856483697891,0.041007719933986664,0.042326875030994415,0.04364603012800217,0.04496518895030022,0.04628434404730797,0.04760349914431572,0.04892265796661377,0.05024181306362152]},"parameters/conv3.linear.bias":{"_type":"histogram","values":[2,0,0,1,1,0,0,0,0,0,0,0,0,0,1,0,0,0,1,0,0,0,0,0,0,1,0,0,0,1,0,0,0,1,0,1,1,1,0,1,2,0,5,1,7,0,4,6,2,2,3,4,1,2,1,2,0,2,1,1,0,1,2,2],"bins":[-19.590965270996094,-19.335121154785156,-19.07927703857422,-18.82343292236328,-18.567590713500977,-18.31174659729004,-18.0559024810791,-17.800058364868164,-17.544214248657227,-17.28837013244629,-17.032527923583984,-16.776683807373047,-16.52083969116211,-16.264995574951172,-16.009151458740234,-15.753308296203613,-15.497464179992676,-15.241620063781738,-14.985776901245117,-14.72993278503418,-14.474088668823242,-14.218245506286621,-13.962401390075684,-13.706557273864746,-13.450714111328125,-13.194869995117188,-12.93902587890625,-12.683181762695312,-12.427338600158691,-12.171494483947754,-11.915650367736816,-11.659807205200195,-11.403964042663574,-11.148119926452637,-10.8922758102417,-10.636432647705078,-10.38058853149414,-10.124744415283203,-9.868901252746582,-9.613057136535645,-9.357213020324707,-9.101369857788086,-8.845525741577148,-8.589681625366211,-8.333837509155273,-8.077994346618652,-7.822150230407715,-7.5663065910339355,-7.310462951660156,-7.054618835449219,-6.7987751960754395,-6.542931079864502,-6.287087440490723,-6.031243801116943,-5.775399684906006,-5.519556045532227,-5.263711929321289,-5.00786828994751,-4.7520246505737305,-4.496180534362793,-4.240336894989014,-3.9844930171966553,-3.728649139404297,-3.4728055000305176,-3.216961622238159]},"Training Accuracy":0.10195062099358974,"parameters/conv2.linear.bias":{"bins":[-5.6705641746521,-5.570370674133301,-5.470176696777344,-5.369983196258545,-5.269789695739746,-5.169595718383789,-5.06940221786499,-4.969208717346191,-4.869014739990234,-4.7688212394714355,-4.668627738952637,-4.56843376159668,-4.468240261077881,-4.368046760559082,-4.267852783203125,-4.167659282684326,-4.067465782165527,-3.9672718048095703,-3.8670783042907715,-3.7668845653533936,-3.6666908264160156,-3.566497325897217,-3.466303586959839,-3.366109848022461,-3.265916347503662,-3.165722608566284,-3.0655288696289062,-2.9653351306915283,-2.8651416301727295,-2.7649478912353516,-2.6647541522979736,-2.564560651779175,-2.464366912841797,-2.364173412322998,-2.26397967338562,-2.163785934448242,-2.0635924339294434,-1.9633986949920654,-1.863205075263977,-1.7630113363265991,-1.6628177165985107,-1.5626240968704224,-1.4624303579330444,-1.362236738204956,-1.2620429992675781,-1.1618493795394897,-1.0616557598114014,-0.9614620804786682,-0.8612684011459351,-0.7610747218132019,-0.6608810424804688,-0.5606874227523804,-0.4604937434196472,-0.36030006408691406,-0.2601064145565033,-0.15991275012493134,-0.059719085693359375,0.040474578738212585,0.14066824316978455,0.2408619076013565,0.34105557203292847,0.4412492513656616,0.54144287109375,0.6416365504264832,0.7418302297592163],"_type":"histogram","values":[2,0,0,0,0,0,0,1,1,4,2,1,2,1,1,5,1,6,3,4,0,5,2,3,0,2,1,0,2,0,1,1,3,0,0,0,1,1,0,0,0,1,0,0,0,0,0,1,0,0,1,0,0,0,0,2,0,1,0,0,0,1,0,1]},"Epoch":96,"_timestamp":1.7449946617779193e+09,"parameters/conv1.linear.bias":{"_type":"histogram","values":[1,0,0,0,1,0,2,1,1,1,0,0,1,2,0,2,1,1,1,0,0,3,1,2,2,1,1,1,1,4,0,1,2,2,0,0,3,3,3,2,2,1,1,1,0,2,1,1,1,1,3,0,0,0,0,0,0,0,0,1,0,1,0,1],"bins":[-3.262155532836914,-3.251262903213501,-3.240370273590088,-3.229477643966675,-3.2185850143432617,-3.2076923847198486,-3.1967997550964355,-3.1859071254730225,-3.1750144958496094,-3.1641221046447754,-3.1532294750213623,-3.142336845397949,-3.131444215774536,-3.120551586151123,-3.10965895652771,-3.098766326904297,-3.087873697280884,-3.0769810676574707,-3.0660884380340576,-3.0551958084106445,-3.0443031787872314,-3.0334105491638184,-3.0225179195404053,-3.011625289916992,-3.000732898712158,-2.989840269088745,-2.978947639465332,-2.968055009841919,-2.957162380218506,-2.9462697505950928,-2.9353771209716797,-2.9244844913482666,-2.9135918617248535,-2.9026992321014404,-2.8918066024780273,-2.8809139728546143,-2.870021343231201,-2.859128713607788,-2.848236083984375,-2.837343454360962,-2.826450824737549,-2.815558433532715,-2.8046658039093018,-2.7937731742858887,-2.7828805446624756,-2.7719879150390625,-2.7610952854156494,-2.7502026557922363,-2.7393100261688232,-2.72841739654541,-2.717524766921997,-2.706632137298584,-2.695739507675171,-2.684846878051758,-2.6739542484283447,-2.6630616188049316,-2.6521692276000977,-2.6412765979766846,-2.6303839683532715,-2.6194913387298584,-2.6085987091064453,-2.5977060794830322,-2.586813449859619,-2.575920820236206,-2.565028190612793]},"gradients/conv2.linear.weight":{"_type":"histogram","values":[1,0,0,1,0,0,0,1,0,0,2,0,3,2,5,4,3,4,8,8,10,12,17,15,26,41,54,73,93,138,174,327,578,1472,48443,11220,1408,544,292,163,103,75,61,33,31,20,15,11,10,7,5,6,3,3,1,2,1,1,2,2,0,0,1,1],"bins":[-878.6594848632812,-853.5228881835938,-828.38623046875,-803.2496337890625,-778.113037109375,-752.9764404296875,-727.83984375,-702.7031860351562,-677.5665893554688,-652.4299926757812,-627.2933349609375,-602.15673828125,-577.0201416015625,-551.883544921875,-526.7469482421875,-501.61029052734375,-476.47369384765625,-451.33709716796875,-426.2004699707031,-401.0638427734375,-375.92724609375,-350.7906494140625,-325.6540222167969,-300.51739501953125,-275.38079833984375,-250.2441864013672,-225.10757446289062,-199.97096252441406,-174.8343505859375,-149.69773864746094,-124.56112670898438,-99.42451477050781,-74.28790283203125,-49.15129089355469,-24.014678955078125,1.1219329833984375,26.258544921875,51.39515686035156,76.53176879882812,101.66838073730469,126.80499267578125,151.9416046142578,177.07821655273438,202.21482849121094,227.3514404296875,252.48805236816406,277.6246643066406,302.76129150390625,327.89788818359375,353.03448486328125,378.1711120605469,403.3077392578125,428.4443359375,453.5809326171875,478.7175598144531,503.85418701171875,528.9907836914062,554.1273803710938,579.2640380859375,604.400634765625,629.5372314453125,654.673828125,679.8104248046875,704.9470825195312,730.0836791992188]},"parameters/conv2.linear.weight":{"bins":[-1.5317625999450684,-1.4816073179244995,-1.4314521551132202,-1.3812968730926514,-1.3311415910720825,-1.2809864282608032,-1.2308311462402344,-1.1806758642196655,-1.1305205821990967,-1.0803654193878174,-1.0302101373672485,-0.9800549149513245,-0.9298996925354004,-0.8797444105148315,-0.8295891880989075,-0.7794339060783386,-0.7292786836624146,-0.6791234612464905,-0.6289681792259216,-0.5788129568099976,-0.5286576747894287,-0.47850245237350464,-0.42834722995758057,-0.3781919777393341,-0.32803672552108765,-0.2778814733028412,-0.22772623598575592,-0.17757099866867065,-0.1274157464504242,-0.07726050168275833,-0.027105256915092468,0.023049987852573395,0.07320511341094971,0.12336035817861557,0.17351560294628143,0.2236708402633667,0.27382609248161316,0.3239813446998596,0.3741365671157837,0.42429181933403015,0.4744470715522766,0.5246022939682007,0.5747575759887695,0.6249127984046936,0.6750680208206177,0.7252233028411865,0.7753785252571106,0.8255338072776794,0.8756890296936035,0.9258442521095276,0.9759995341300964,1.0261547565460205,1.0763100385665894,1.1264652013778687,1.1766204833984375,1.2267757654190063,1.2769310474395752,1.3270862102508545,1.3772414922714233,1.4273967742919922,1.4775519371032715,1.5277072191238403,1.5778625011444092,1.6280176639556885,1.6781729459762573],"_type":"histogram","values":[5,19,40,103,200,286,444,559,632,570,496,315,216,118,51,26,15,12,23,76,160,290,445,647,795,1022,1387,2261,4772,10325,14123,11076,5281,2366,1114,620,325,143,58,17,4,3,0,4,13,25,39,68,145,225,358,420,540,595,546,402,288,217,126,53,23,5,2,2]}}