{"parameters/fc.weight":{"_type":"histogram","values":[2,5,5,4,4,11,12,9,13,10,13,8,13,14,9,15,14,14,13,18,7,6,15,16,5,12,15,13,13,12,9,2,11,8,11,12,14,7,15,11,11,10,9,13,12,7,11,16,11,10,9,16,12,11,11,10,12,6,8,7,3,3,0,2],"bins":[-0.12238499522209167,-0.11846476048231125,-0.11454452574253082,-0.110624298453331,-0.10670406371355057,-0.10278382897377014,-0.09886360168457031,-0.09494336694478989,-0.09102313220500946,-0.08710289746522903,-0.08318266272544861,-0.07926243543624878,-0.07534220069646835,-0.07142196595668793,-0.0675017386674881,-0.06358150392770767,-0.059661269187927246,-0.05574103444814682,-0.05182080343365669,-0.047900572419166565,-0.04398033767938614,-0.04006010293960571,-0.036139871925115585,-0.03221964091062546,-0.028299406170845032,-0.024379173293709755,-0.020458940416574478,-0.0165387075394392,-0.012618474662303925,-0.008698241785168648,-0.004778008908033371,-0.0008577760308980942,0.0030624717473983765,0.006982704624533653,0.01090293750166893,0.014823170378804207,0.018743403255939484,0.02266363613307476,0.026583869010210037,0.030504101887345314,0.03442433476448059,0.03834456950426102,0.042264800518751144,0.04618503153324127,0.0501052662730217,0.054025501012802124,0.05794573202729225,0.06186596304178238,0.0657861977815628,0.06970643252134323,0.07362666726112366,0.07754689455032349,0.08146712929010391,0.08538736402988434,0.08930759131908417,0.0932278260588646,0.09714806079864502,0.10106829553842545,0.10498853027820587,0.1089087575674057,0.11282899230718613,0.11674922704696655,0.12066945433616638,0.12458968907594681,0.12850992381572723]},"gradients/fc.weight":{"bins":[-157.14256286621094,-152.50123596191406,-147.85989379882812,-143.21856689453125,-138.57723999023438,-133.93589782714844,-129.29457092285156,-124.65324401855469,-120.01190948486328,-115.37057495117188,-110.729248046875,-106.0879135131836,-101.44657897949219,-96.80525207519531,-92.1639175415039,-87.52259063720703,-82.88125610351562,-78.23992156982422,-73.59859466552734,-68.95726013183594,-64.31593322753906,-59.674598693847656,-55.03326416015625,-50.39193344116211,-45.75060272216797,-41.10927200317383,-36.46794128417969,-31.82660675048828,-27.18527603149414,-22.5439453125,-17.902612686157227,-13.26128101348877,-8.619964599609375,-3.978632926940918,0.6626987457275391,5.304030418395996,9.945362091064453,14.58669376373291,19.228025436401367,23.86935806274414,28.51068878173828,33.15201950073242,37.79335021972656,42.43468475341797,47.07601547241211,51.71734619140625,56.358680725097656,61.0000114440918,65.64134216308594,70.28267669677734,74.92400360107422,79.56533813476562,84.2066650390625,88.8479995727539,93.48933410644531,98.13066101074219,102.7719955444336,107.413330078125,112.05465698242188,116.69599151611328,121.33732604980469,125.97865295410156,130.61997985839844,135.26132202148438,139.90264892578125],"_type":"histogram","values":[1,0,0,0,0,0,1,0,0,1,1,0,2,4,3,2,0,4,2,3,3,5,4,3,2,6,5,5,8,20,41,39,32,76,160,65,31,35,13,12,6,4,4,4,4,5,2,2,3,2,0,2,7,0,1,2,0,1,1,0,0,0,0,1]},"Confusion Matrix":{"width":1500,"height":1500,"_type":"image-file","sha256":"297a09a02718a13947b8ffdbcf9e6eb412037ecc2000904f54cce194b18ad5de","size":113823,"path":"media/images/Confusion Matrix_26_297a09a02718a13947b8.png","format":"png"},"GPU Memory Used (MB)":6156,"gradients/conv1.linear.weight":{"_type":"histogram","values":[1,0,0,0,1,0,0,0,0,2,0,1,0,1,0,1,0,0,0,0,0,2,1,0,5,3,1,1,6,7,6,8,8,19,19,13,27,42,80,177,420,13800,1124,244,136,69,45,22,21,15,8,11,6,6,6,4,2,1,1,3,2,0,3,3],"bins":[-273.19268798828125,-266.65435791015625,-260.11602783203125,-253.57769775390625,-247.03936767578125,-240.50103759765625,-233.96270751953125,-227.42437744140625,-220.88604736328125,-214.34771728515625,-207.80938720703125,-201.27105712890625,-194.73272705078125,-188.19439697265625,-181.65606689453125,-175.11773681640625,-168.57940673828125,-162.0410614013672,-155.5027313232422,-148.9644012451172,-142.4260711669922,-135.8877410888672,-129.3494110107422,-122.81108856201172,-116.27275085449219,-109.73442077636719,-103.19609069824219,-96.65776062011719,-90.11943054199219,-83.58110046386719,-77.04277038574219,-70.50444030761719,-63.96611022949219,-57.42778015136719,-50.88945007324219,-44.35111999511719,-37.81278991699219,-31.274457931518555,-24.736125946044922,-18.197795867919922,-11.659465789794922,-5.121135234832764,1.4171953201293945,7.955525875091553,14.493856430053711,21.03218650817871,27.570518493652344,34.108848571777344,40.647178649902344,47.185508728027344,53.723838806152344,60.262168884277344,66.80049896240234,73.33882904052734,79.87715911865234,86.41548919677734,92.95382690429688,99.49215698242188,106.03048706054688,112.56881713867188,119.10714721679688,125.64547729492188,132.18380737304688,138.72213745117188,145.26046752929688]},"_runtime":123.924893729,"parameters/conv2.linear.bias":{"values":[1,0,0,0,0,1,0,0,0,1,0,0,1,0,0,0,0,0,1,0,1,0,2,1,4,2,1,1,1,1,2,3,3,2,2,1,0,0,2,5,2,1,3,2,2,4,1,0,1,1,2,2,1,0,0,0,1,0,1,0,0,0,0,1],"bins":[-0.28349581360816956,-0.2801651656627655,-0.27683448791503906,-0.273503839969635,-0.27017316222190857,-0.2668425142765045,-0.26351186633110046,-0.260181188583374,-0.25685054063796997,-0.25351986289024353,-0.2501892149448395,-0.24685855209827423,-0.24352788925170898,-0.24019722640514374,-0.23686657845973969,-0.23353591561317444,-0.2302052527666092,-0.22687458992004395,-0.2235439270734787,-0.22021327912807465,-0.2168826162815094,-0.21355195343494415,-0.2102212905883789,-0.20689062774181366,-0.2035599648952484,-0.20022931694984436,-0.1968986541032791,-0.19356799125671387,-0.19023732841014862,-0.18690666556358337,-0.18357601761817932,-0.18024535477161407,-0.17691469192504883,-0.17358404397964478,-0.17025338113307953,-0.16692271828651428,-0.16359205543994904,-0.1602613925933838,-0.15693074464797974,-0.1536000818014145,-0.15026941895484924,-0.146938756108284,-0.14360809326171875,-0.1402774453163147,-0.13694678246974945,-0.1336161196231842,-0.13028545677661896,-0.1269547939300537,-0.12362413853406906,-0.12029347568750381,-0.11696282029151917,-0.11363215744495392,-0.11030149459838867,-0.10697083920240402,-0.10364017635583878,-0.10030952095985413,-0.09697885811328888,-0.09364819526672363,-0.09031753987073898,-0.08698687702417374,-0.08365622162818909,-0.08032555878162384,-0.0769948959350586,-0.07366424053907394,-0.0703335776925087],"_type":"histogram"},"parameters/conv3.linear.bias":{"_type":"histogram","values":[1,0,1,0,1,0,1,0,0,2,0,2,1,0,3,1,2,1,0,0,3,3,0,0,0,3,0,1,1,1,0,0,1,2,1,1,0,3,13,0,2,2,0,0,1,2,0,0,0,1,0,0,1,1,0,1,0,0,1,0,1,0,1,1],"bins":[-0.1568068563938141,-0.15273457765579224,-0.14866229891777039,-0.14459003508090973,-0.14051775634288788,-0.13644547760486603,-0.13237319886684418,-0.12830093502998352,-0.12422865629196167,-0.12015637755393982,-0.11608409881591797,-0.11201182752847672,-0.10793954879045486,-0.10386727750301361,-0.09979499876499176,-0.0957227274775505,-0.09165044873952866,-0.0875781700015068,-0.08350589871406555,-0.0794336199760437,-0.07536134868860245,-0.0712890699505806,-0.06721679866313934,-0.06314451992511749,-0.05907224491238594,-0.05499996989965439,-0.050927694886922836,-0.046855419874191284,-0.042783141136169434,-0.03871086612343788,-0.03463859111070633,-0.030566316097974777,-0.026494033634662628,-0.022421758621931076,-0.018349483609199524,-0.014277206733822823,-0.01020493172109127,-0.006132656242698431,-0.0020603807643055916,0.002011894714087248,0.006084170192480087,0.01015644520521164,0.014228721149265766,0.018300997093319893,0.022373272106051445,0.026445547118782997,0.0305178239941597,0.03459009900689125,0.0386623740196228,0.042734649032354355,0.04680692404508591,0.05087919905781746,0.05495147407054901,0.05902375280857086,0.06309602409601212,0.06716830283403397,0.07124057412147522,0.07531285285949707,0.07938513159751892,0.08345740288496017,0.08752968162298203,0.09160195291042328,0.09567423164844513,0.09974650293588638,0.10381878167390823]},"ROC-AUC Curve":{"height":600,"_type":"image-file","sha256":"715e4ce6582f13223f38be34f4c7889e9525e5d88229cc7d502cdc394c767753","size":129524,"path":"media/images/ROC-AUC Curve_26_715e4ce6582f13223f38.png","format":"png","width":800},"parameters/conv1.linear.weight":{"_type":"histogram","values":[3,3,0,2,5,6,8,9,16,16,29,44,51,60,95,132,159,222,304,303,365,402,490,547,544,576,567,586,582,573,605,650,644,611,564,563,621,576,554,575,542,502,451,411,376,354,262,203,178,104,91,64,70,32,21,19,9,10,11,5,2,4,0,1],"bins":[-0.14618626236915588,-0.14169842004776,-0.13721057772636414,-0.13272273540496826,-0.1282348930835724,-0.12374704331159592,-0.11925919353961945,-0.11477135121822357,-0.1102835088968277,-0.10579566657543182,-0.10130782425403595,-0.09681997448205948,-0.0923321321606636,-0.08784428983926773,-0.08335644006729126,-0.07886859774589539,-0.07438075542449951,-0.06989291310310364,-0.06540507078170776,-0.06091722100973129,-0.05642937868833542,-0.051941536366939545,-0.04745369032025337,-0.0429658442735672,-0.038478001952171326,-0.03399015963077545,-0.02950231358408928,-0.025014469400048256,-0.020526625216007233,-0.01603878103196621,-0.011550936847925186,-0.007063092663884163,-0.0025752633810043335,0.0019125808030366898,0.006400424987077713,0.010888269171118736,0.01537611335515976,0.019863957539200783,0.024351801723241806,0.02883964590728283,0.03332749009132385,0.03781533241271973,0.0423031784594059,0.04679102450609207,0.051278866827487946,0.05576670914888382,0.06025455519556999,0.06474240124225616,0.06923024356365204,0.07371808588504791,0.07820592820644379,0.08269377797842026,0.08718162029981613,0.091669462621212,0.09615731239318848,0.10064515471458435,0.10513299703598022,0.1096208393573761,0.11410868167877197,0.11859653145074844,0.12308437377214432,0.1275722235441208,0.13206006586551666,0.13654790818691254,0.1410357505083084]},"gradients/fc.bias":{"bins":[-0.012213981710374355,-0.011792267672717571,-0.011370552703738213,-0.010948838666081429,-0.01052712369710207,-0.010105409659445286,-0.009683694690465927,-0.009261980652809143,-0.008840265683829784,-0.008418551646173,-0.007996836677193642,-0.007575122639536858,-0.007153408136218786,-0.006731693632900715,-0.0063099791295826435,-0.005888264626264572,-0.005466550122946501,-0.005044835619628429,-0.004623121116310358,-0.004201406612992287,-0.0037796921096742153,-0.0033579778391867876,-0.0029362633358687162,-0.002514548832550645,-0.0020928343292325735,-0.0016711198259145021,-0.0012494053225964308,-0.0008276909356936812,-0.0004059764323756099,1.5738041838631034e-05,0.00043745251605287194,0.0008591669611632824,0.0012808814644813538,0.0017025959677994251,0.0021243104711174965,0.002546024974435568,0.0029677394777536392,0.003389453748241067,0.0038111682515591383,0.004232882987707853,0.004654597491025925,0.005076311528682709,0.00549802603200078,0.0059197405353188515,0.006341455038636923,0.006763169541954994,0.007184884045273066,0.007606598548591137,0.008028313517570496,0.00845002755522728,0.008871741592884064,0.009293456561863422,0.009715170599520206,0.010136885568499565,0.01055859960615635,0.010980314575135708,0.011402028612792492,0.01182374358177185,0.012245457619428635,0.012667172588407993,0.013088886626064777,0.013510601595044136,0.01393231563270092,0.014354030601680279,0.014775744639337063],"_type":"histogram","values":[1,0,0,0,1,0,0,0,0,0,0,0,0,0,0,0,0,0,0,1,1,0,0,0,0,0,1,0,1,0,0,1,0,0,0,0,0,0,0,0,0,1,0,0,0,0,0,0,0,0,0,0,1,0,0,0,0,0,0,0,0,0,0,1]},"parameters/conv3.linear.weight":{"_type":"histogram","values":[1,1,0,1,3,4,10,9,17,36,45,74,89,142,216,282,396,477,658,876,1097,1267,1561,1760,1980,2099,2264,2468,2532,2573,2640,2630,2674,2644,2695,2713,2573,2579,2554,2357,2254,2246,2087,1770,1685,1423,1225,1007,741,605,472,307,214,161,116,75,51,46,26,12,8,5,2,1],"bins":[-0.08485443145036697,-0.08235685527324677,-0.07985927909612656,-0.07736170291900635,-0.07486412674188614,-0.07236655056476593,-0.06986897438764572,-0.06737139821052551,-0.0648738294839859,-0.062376249581575394,-0.059878673404455185,-0.057381097227334976,-0.054883524775505066,-0.05238594859838486,-0.04988837242126465,-0.04739079624414444,-0.04489322006702423,-0.04239564388990402,-0.039898067712783813,-0.037400491535663605,-0.034902915358543396,-0.032405342906713486,-0.029907766729593277,-0.027410190552473068,-0.02491261437535286,-0.02241503819823265,-0.019917462021112442,-0.017419887706637383,-0.014922311529517174,-0.012424735352396965,-0.009927160106599331,-0.0074295843951404095,-0.004932008683681488,-0.0024344329722225666,6.314273923635483e-05,0.0025607184506952763,0.005058294162154198,0.007555869873613119,0.01005344558507204,0.012551020830869675,0.015048597007989883,0.017546173185110092,0.0200437493622303,0.02254132367670536,0.02503889985382557,0.027536476030945778,0.030034050345420837,0.032531626522541046,0.035029202699661255,0.037526778876781464,0.04002435505390167,0.04252193123102188,0.04501950740814209,0.047517079859972,0.05001465603709221,0.05251223221421242,0.055009808391332626,0.057507384568452835,0.060004960745573044,0.06250253319740295,0.06500010937452316,0.06749768555164337,0.06999526172876358,0.07249283790588379,0.074990414083004]},"gradients/conv2.linear.weight":{"_type":"histogram","values":[1,2,1,1,0,1,0,1,3,3,2,0,7,2,7,9,9,13,14,32,30,39,53,53,85,123,199,287,493,880,2032,18075,38612,2045,907,478,300,202,140,104,66,60,31,30,28,14,10,8,10,4,7,5,2,6,4,1,0,0,0,1,0,1,1,2],"bins":[-91.58052062988281,-88.72063446044922,-85.86074829101562,-83.00086975097656,-80.14098358154297,-77.28109741210938,-74.42121124267578,-71.56132507324219,-68.70144653320312,-65.84156036376953,-62.98167419433594,-60.121788024902344,-57.26190185546875,-54.40201950073242,-51.54213333129883,-48.6822509765625,-45.822364807128906,-42.96247863769531,-40.102596282958984,-37.24271011352539,-34.38282775878906,-31.52294158935547,-28.663055419921875,-25.803171157836914,-22.943286895751953,-20.083402633666992,-17.22351837158203,-14.363632202148438,-11.503747940063477,-8.643863677978516,-5.783978462219238,-2.924093723297119,-0.064208984375,2.795675754547119,5.655560493469238,8.515445709228516,11.375329971313477,14.235214233398438,17.09510040283203,19.954984664916992,22.814868927001953,25.674753189086914,28.534637451171875,31.39452362060547,34.25440979003906,37.11429214477539,39.974178314208984,42.83406066894531,45.693946838378906,48.5538330078125,51.41371536254883,54.27360153198242,57.13348388671875,59.993370056152344,62.85325622558594,65.71314239501953,68.57302856445312,71.43290710449219,74.29279327392578,77.15267944335938,80.01256561279297,82.87245178222656,85.73233032226562,88.59221649169922,91.45210266113281]},"Confusion Matrix Table":{"nrows":12,"_type":"table-file","sha256":"3affc9d6579e65bf2511f60c961d4f8bb40d265840af8dee5bca808b98985a25","size":1241,"artifact_path":"wandb-client-artifact://mplem7hf7gqjk5v7uiuk4t6ab6xij2ft8fhpugm2lwrbc54w4ptz3myoopcrh7rhlc8x8u4jkbi2cbh2j2w25z7af6mg6gqlx11lqp0qqn4yw1xj8ol9rauy38h415yc/Confusion Matrix Table.table.json","_latest_artifact_path":"wandb-client-artifact://xkjqejnyjv4p8yuzjavv5fm885ks9yfn4sk4t1rehri7fnu6yv2iw8egcmntjt054eraiozgsbo68mftvx6bqsvr1tt3yii4kti9i27bt9dv4t7eywk9p727aml2p1ih:latest/Confusion Matrix Table.table.json","path":"media/table/Confusion Matrix Table_26_3affc9d6579e65bf2511.table.json","ncols":5},"parameters/conv2.linear.weight":{"_type":"histogram","values":[5,3,4,7,13,40,54,76,97,134,180,202,211,245,276,294,322,318,445,563,704,958,1473,2135,2913,3411,3800,3984,4028,3992,4129,3966,4022,3900,3613,3388,2797,2234,1407,890,586,471,369,277,280,264,284,295,249,256,243,189,143,131,89,63,42,25,22,11,5,3,4,2],"bins":[-0.1316574662923813,-0.12735460698604584,-0.12305174767971039,-0.11874888092279434,-0.11444602161645889,-0.11014316231012344,-0.1058402955532074,-0.10153743624687195,-0.0972345769405365,-0.09293171763420105,-0.0886288583278656,-0.08432599157094955,-0.0800231322646141,-0.07572027295827866,-0.07141740620136261,-0.06711454689502716,-0.06281168758869171,-0.05850882828235626,-0.054205965250730515,-0.04990310221910477,-0.04560024291276932,-0.04129738360643387,-0.03699452057480812,-0.03269165754318237,-0.028388798236846924,-0.024085937067866325,-0.019783075898885727,-0.015480214729905128,-0.01117735356092453,-0.006874492391943932,-0.002571631222963333,0.0017312299460172653,0.006034106016159058,0.010336967185139656,0.014639828354120255,0.018942689523100853,0.02324555069208145,0.02754841186106205,0.03185127303004265,0.036154136061668396,0.040456995368003845,0.044759854674339294,0.04906271770596504,0.05336558073759079,0.05766844004392624,0.06197129935026169,0.06627416610717773,0.07057702541351318,0.07487988471984863,0.07918274402618408,0.08348560333251953,0.08778847008943558,0.09209132939577103,0.09639418870210648,0.10069705545902252,0.10499991476535797,0.10930277407169342,0.11360563337802887,0.11790849268436432,0.12221135944128036,0.1265142261981964,0.13081708550453186,0.1351199448108673,0.13942280411720276,0.1437256634235382]},"_wandb":{"runtime":124},"gradients/conv3.linear.bias":{"bins":[-0.0007556119235232472,-0.0007010776898823678,-0.0006465434562414885,-0.0005920092226006091,-0.0005374749889597297,-0.0004829407553188503,-0.0004284065216779709,-0.0003738722880370915,-0.0003193380543962121,-0.0002648038207553327,-0.00021026958711445332,-0.00015573535347357392,-0.00010120111983269453,-4.666688619181514e-05,7.867347449064255e-06,6.240158108994365e-05,0.00011693581473082304,0.00017147004837170243,0.00022600428201258183,0.0002805385156534612,0.0003350727492943406,0.00038960698293522,0.0004441412165760994,0.0004986754502169788,0.0005532096838578582,0.0006077439174987376,0.000662278151139617,0.0007168123847804964,0.0007713466184213758,0.0008258808520622551,0.0008804150857031345,0.0009349493193440139,0.0009894836694002151,0.0010440179612487555,0.001098552136681974,0.0011530863121151924,0.0012076206039637327,0.001262154895812273,0.0013166890712454915,0.00137122324667871,0.0014257575385272503,0.0014802918303757906,0.001534826005809009,0.0015893601812422276,0.0016438944730907679,0.0016984287649393082,0.0017529629403725266,0.0018074971158057451,0.0018620314076542854,0.0019165656995028257,0.001971099991351366,0.0020256340503692627,0.002080168342217803,0.0021347026340663433,0.00218923669308424,0.0022437709849327803,0.0022983052767813206,0.002352839568629861,0.002407373860478401,0.002461907919496298,0.002516442211344838,0.0025709765031933784,0.002625510562211275,0.0026800448540598154,0.0027345791459083557],"_type":"histogram","values":[1,1,4,2,0,1,3,0,2,1,0,4,3,0,3,2,2,3,4,4,0,4,1,2,1,1,3,1,1,2,0,0,0,0,0,0,0,0,0,0,0,0,2,1,0,0,1,0,0,0,0,2,0,0,1,0,0,0,0,0,0,0,0,1]},"parameters/fc.bias":{"values":[1,0,0,0,0,0,0,0,0,0,0,0,0,0,0,0,0,0,0,0,0,0,0,1,0,0,0,1,0,0,0,0,0,0,0,0,0,0,0,0,0,0,0,0,1,0,0,0,0,0,0,2,0,0,0,0,0,1,0,1,0,1,0,1],"bins":[-0.1850648820400238,-0.18106433749198914,-0.17706379294395447,-0.1730632334947586,-0.16906268894672394,-0.16506214439868927,-0.1610615849494934,-0.15706104040145874,-0.15306049585342407,-0.1490599513053894,-0.14505940675735474,-0.14105884730815887,-0.1370583027601242,-0.13305775821208954,-0.12905719876289368,-0.125056654214859,-0.12105610966682434,-0.11705556511878967,-0.11305501312017441,-0.10905446112155914,-0.10505391657352448,-0.10105337202548981,-0.09705282002687454,-0.09305226802825928,-0.08905172348022461,-0.08505117893218994,-0.08105062693357468,-0.07705007493495941,-0.07304953038692474,-0.06904898583889008,-0.06504843384027481,-0.061047885566949844,-0.05704732984304428,-0.053046781569719315,-0.04904623329639435,-0.04504568502306938,-0.041045136749744415,-0.03704458847641945,-0.03304404020309448,-0.029043491929769516,-0.02504294365644455,-0.021042395383119583,-0.017041847109794617,-0.01304129883646965,-0.009040750563144684,-0.005040202289819717,-0.001039654016494751,0.0029608942568302155,0.006961442530155182,0.010961990803480148,0.014962539076805115,0.01896308735013008,0.022963635623455048,0.026964183896780014,0.03096473217010498,0.03496528044342995,0.03896582871675491,0.04296637699007988,0.046966925263404846,0.05096747353672981,0.05496802181005478,0.058968570083379745,0.06296911835670471,0.06696966290473938,0.07097021490335464],"_type":"histogram"},"gradients/conv3.linear.weight":{"values":[2,0,1,0,0,0,0,1,2,0,4,3,5,6,4,9,10,21,25,22,31,52,65,91,165,254,451,863,2277,52567,5735,1340,609,327,173,108,79,54,33,26,24,17,19,18,13,4,5,7,3,3,2,1,1,1,0,0,0,0,1,0,0,1,0,1],"bins":[-123.92261505126953,-119.759765625,-115.596923828125,-111.43407440185547,-107.27122497558594,-103.10838317871094,-98.9455337524414,-94.7826919555664,-90.61984252929688,-86.45699310302734,-82.29415130615234,-78.13130187988281,-73.96846008300781,-69.80561065673828,-65.64276123046875,-61.479915618896484,-57.31707000732422,-53.15422439575195,-48.99137878417969,-44.828529357910156,-40.66568374633789,-36.502838134765625,-32.339988708496094,-28.177143096923828,-24.014297485351562,-19.851451873779297,-15.688604354858398,-11.525757789611816,-7.362911224365234,-3.2000646591186523,0.9627819061279297,5.125628471374512,9.288482666015625,13.451329231262207,17.61417579650879,21.777023315429688,25.939868927001953,30.10271453857422,34.26556396484375,38.428409576416016,42.59125518798828,46.75410079956055,50.91694641113281,55.079795837402344,59.24264144897461,63.405487060546875,67.5683364868164,71.7311782836914,75.89402770996094,80.05687713623047,84.21971893310547,88.382568359375,92.54541015625,96.70825958251953,100.87110900878906,105.03395080566406,109.1968002319336,113.35964965820312,117.52249145507812,121.68534088134766,125.84819030761719,130.0110321044922,134.1738739013672,138.33673095703125,142.49957275390625],"_type":"histogram"},"_step":26,"_timestamp":1.7450382354778743e+09,"gradients/conv1.linear.bias":{"_type":"histogram","values":[1,0,0,0,0,0,1,0,0,2,0,1,1,2,4,4,0,0,4,4,2,5,3,5,2,1,0,3,4,4,2,2,4,0,0,1,0,0,0,0,0,0,1,0,0,0,0,0,0,0,0,0,0,0,0,0,0,0,0,0,0,0,0,1],"bins":[-0.058385126292705536,-0.05555085837841034,-0.052716586738824844,-0.04988231509923935,-0.04704804718494415,-0.044213779270648956,-0.04137950763106346,-0.038545235991477966,-0.03571096807718277,-0.03287670016288757,-0.030042428523302078,-0.027208158746361732,-0.024373888969421387,-0.02153961919248104,-0.018705349415540695,-0.01587107963860035,-0.013036809861660004,-0.010202540084719658,-0.007368270307779312,-0.004534000530838966,-0.0016997307538986206,0.0011345390230417252,0.003968808799982071,0.006803078576922417,0.009637348353862762,0.012471618130803108,0.015305887907743454,0.0181401576846838,0.020974427461624146,0.02380869723856449,0.026642967015504837,0.029477236792445183,0.03231150656938553,0.035145774483680725,0.03798004612326622,0.040814317762851715,0.04364858567714691,0.04648285359144211,0.0493171252310276,0.0521513968706131,0.054985664784908295,0.05781993269920349,0.060654204338788986,0.06348847597837448,0.06632274389266968,0.06915701180696487,0.07199127972126007,0.07482555508613586,0.07765982300043106,0.08049409091472626,0.08332836627960205,0.08616263419389725,0.08899690210819244,0.09183117002248764,0.09466543793678284,0.09749971330165863,0.10033398121595383,0.10316824913024902,0.10600252449512482,0.10883679240942001,0.11167106032371521,0.1145053282380104,0.1173395961523056,0.1201738715171814,0.12300813943147659]},"Validation Loss":444.4125671386719,"gradients/conv2.linear.bias":{"_type":"histogram","values":[1,0,1,2,0,0,0,0,0,0,0,0,0,0,0,1,1,0,3,0,1,1,3,3,0,1,3,2,2,0,1,2,1,2,0,3,0,1,0,1,2,2,1,1,2,0,3,0,3,2,2,1,2,0,1,0,0,0,2,1,2,0,0,1],"bins":[-0.0004852783458773047,-0.0004612180346157402,-0.00043715769425034523,-0.00041309738298878074,-0.00038903707172721624,-0.0003649767313618213,-0.0003409164201002568,-0.00031685607973486185,-0.00029279576847329736,-0.00026873545721173286,-0.0002446751168463379,-0.00022061480558477342,-0.0001965544797712937,-0.00017249415395781398,-0.00014843384269624949,-0.00012437351688276976,-0.00010031319106929004,-7.625286525581032e-05,-5.219254671828821e-05,-2.81322245427873e-05,-4.071902367286384e-06,1.998841980821453e-05,4.4048741983715445e-05,6.810906052123755e-05,9.216938633471727e-05,0.000116229712148197,0.00014029003796167672,0.0001643503492232412,0.00018841067503672093,0.00021247100085020065,0.00023653131211176515,0.0002605916524771601,0.00028465199284255505,0.00030871230410411954,0.0003327726444695145,0.000356832955731079,0.00038089329609647393,0.0004049536073580384,0.0004290139186196029,0.00045307425898499787,0.00047713457024656236,0.0005011949106119573,0.0005252552218735218,0.0005493155331350863,0.0005733758443966508,0.0005974361556582153,0.0006214965251274407,0.0006455568363890052,0.0006696171476505697,0.0006936774589121342,0.0007177377701736987,0.0007417981396429241,0.0007658584509044886,0.0007899187621660531,0.0008139790734276175,0.000838039384689182,0.0008620996959507465,0.0008861600654199719,0.0009102203766815364,0.0009342806879431009,0.0009583409992046654,0.00098240131046623,0.0010064616799354553,0.001030521932989359,0.0010545823024585843]},"Training Accuracy":0.12388209292763158,"Training Loss":16.11107013100072,"Epoch":26,"Validation Accuracy":0.0999755859375,"Gradient Norm":707.4029666743909,"parameters/conv1.linear.bias":{"values":[1,0,1,0,0,0,0,1,1,1,1,3,0,0,1,2,1,1,0,0,0,0,1,3,1,0,2,3,2,2,0,1,2,3,3,2,1,1,1,2,0,0,0,1,0,4,1,0,1,0,0,1,2,0,3,0,2,0,0,1,1,1,0,2],"bins":[-0.17014984786510468,-0.1674552708864212,-0.16476070880889893,-0.16206613183021545,-0.15937156975269318,-0.1566769927740097,-0.15398241579532623,-0.15128785371780396,-0.14859327673912048,-0.1458987146615982,-0.14320413768291473,-0.14050956070423126,-0.13781499862670898,-0.1351204216480255,-0.13242584466934204,-0.12973128259181976,-0.1270367056131363,-0.12434213608503342,-0.12164756655693054,-0.11895299702882767,-0.11625842750072479,-0.11356385052204132,-0.11086928099393845,-0.10817471146583557,-0.1054801419377327,-0.10278557240962982,-0.10009099543094635,-0.09739642590284348,-0.0947018563747406,-0.09200728684663773,-0.08931270986795425,-0.08661814033985138,-0.0839235708117485,-0.08122900128364563,-0.07853443175554276,-0.07583986222743988,-0.07314528524875641,-0.07045071572065353,-0.06775614619255066,-0.06506157666444778,-0.06236700341105461,-0.059672433882951736,-0.05697786062955856,-0.05428329110145569,-0.051588717848062515,-0.04889414831995964,-0.04619957506656647,-0.04350500553846359,-0.04081043601036072,-0.038115862756967545,-0.03542129322886467,-0.0327267199754715,-0.030032150447368622,-0.027337579056620598,-0.024643007665872574,-0.02194843627512455,-0.019253864884376526,-0.016559293493628502,-0.013864723034203053,-0.011170151643455029,-0.008475580252707005,-0.005781009327620268,-0.0030864381697028875,-0.0003918670117855072,0.002302704146131873],"_type":"histogram"}}