{"gradients/conv2.linear.weight":{"values":[1,0,1,0,0,0,1,0,0,2,0,0,1,0,0,0,0,0,0,0,2,1,7,4,14,15,12,31,33,76,105,177,366,1036,6598,54151,1683,561,229,158,89,56,25,21,18,15,15,7,4,6,4,2,1,2,0,1,1,2,0,1,0,0,0,1],"bins":[-71.03461456298828,-69.01544189453125,-66.99627685546875,-64.97710418701172,-62.95793914794922,-60.93877029418945,-58.91960144042969,-56.90043258666992,-54.881263732910156,-52.862091064453125,-50.84292221069336,-48.823753356933594,-46.80458450317383,-44.78541564941406,-42.7662467956543,-40.74707794189453,-38.727909088134766,-36.708740234375,-34.689571380615234,-32.67040252685547,-30.651233673095703,-28.632062911987305,-26.61289405822754,-24.593725204467773,-22.574556350708008,-20.555387496948242,-18.536218643188477,-16.51704978942871,-14.497879981994629,-12.478711128234863,-10.459541320800781,-8.440372467041016,-6.421207427978516,-4.40203857421875,-2.382869243621826,-0.36370015144348145,1.6554689407348633,3.674638032913208,5.693807125091553,7.712976455688477,9.732145309448242,11.751314163208008,13.770483016967773,15.789652824401855,17.808822631835938,19.827991485595703,21.84716033935547,23.866329193115234,25.885498046875,27.904666900634766,29.92383575439453,31.943004608154297,33.96217346191406,35.98134231567383,38.000511169433594,40.01968002319336,42.038848876953125,44.058021545410156,46.07719039916992,48.09635925292969,50.11552810668945,52.13469696044922,54.153865814208984,56.17303466796875,58.192203521728516],"_type":"histogram"},"parameters/fc.bias":{"_type":"histogram","values":[1,0,0,0,0,0,0,0,0,0,0,0,0,0,0,0,0,0,0,1,0,0,0,0,0,0,0,0,0,0,0,0,0,0,0,0,0,0,0,0,0,0,0,1,0,0,0,0,0,0,0,1,2,1,0,0,1,0,0,0,0,0,1,1],"bins":[-0.49298104643821716,-0.48154452443122864,-0.4701080024242401,-0.458671510219574,-0.44723498821258545,-0.4357984662055969,-0.4243619441986084,-0.4129254221916199,-0.40148890018463135,-0.3900524079799652,-0.3786158859729767,-0.36717936396598816,-0.35574284195899963,-0.3443063199520111,-0.33286982774734497,-0.32143330574035645,-0.3099967837333679,-0.2985602617263794,-0.28712373971939087,-0.27568724751472473,-0.2642507255077362,-0.2528142035007477,-0.24137768149375916,-0.22994117438793182,-0.2185046523809433,-0.20706813037395477,-0.19563162326812744,-0.18419510126113892,-0.1727585792541504,-0.16132207214832306,-0.14988555014133453,-0.1384490430355072,-0.12701250612735748,-0.11557599157094955,-0.10413947701454163,-0.0927029550075531,-0.08126644045114517,-0.06982992589473724,-0.05839340761303902,-0.04695688933134079,-0.03552037477493286,-0.024083858355879784,-0.012647341936826706,-0.0012108255177736282,0.01022569090127945,0.021662207320332527,0.033098723739385605,0.04453524202108383,0.05597175657749176,0.06740827113389969,0.07884478569030762,0.09028130769729614,0.10171782225370407,0.113154336810112,0.12459085881710052,0.13602736592292786,0.14746388792991638,0.1589004099369049,0.17033691704273224,0.18177343904972076,0.1932099461555481,0.20464646816253662,0.21608299016952515,0.22751949727535248,0.238956019282341]},"gradients/conv1.linear.bias":{"bins":[-0.22112779319286346,-0.21121728420257568,-0.2013067901134491,-0.19139628112316132,-0.18148577213287354,-0.17157527804374695,-0.16166476905345917,-0.1517542600631714,-0.1418437659740448,-0.13193325698375702,-0.12202274799346924,-0.11211224645376205,-0.10220174491405487,-0.09229123592376709,-0.0823807343840599,-0.07247022539377213,-0.06255972385406494,-0.05264921858906746,-0.04273871332406998,-0.03282821178436279,-0.02291770651936531,-0.013007202185690403,-0.0030966978520154953,0.006813806481659412,0.01672431081533432,0.026634816080331802,0.036545321345329285,0.04645582288503647,0.05636632815003395,0.06627683341503143,0.07618733495473862,0.0860978439450264,0.09600836038589478,0.10591886192560196,0.11582937091588974,0.12573987245559692,0.1356503814458847,0.1455608755350113,0.15547138452529907,0.16538189351558685,0.17529240250587463,0.18520289659500122,0.195113405585289,0.20502391457557678,0.21493440866470337,0.22484491765499115,0.23475542664527893,0.24466592073440552,0.2545764446258545,0.2644869387149811,0.27439743280410767,0.28430795669555664,0.2942184507846832,0.3041289448738098,0.3140394687652588,0.3239499628543854,0.33386045694351196,0.34377098083496094,0.3536814749240875,0.3635919690132141,0.3735024929046631,0.3834129869937897,0.39332348108291626,0.40323400497436523,0.4131444990634918],"_type":"histogram","values":[2,2,0,0,2,1,1,0,0,0,2,1,5,1,0,1,1,0,3,0,2,1,16,2,1,0,2,0,1,1,1,1,1,2,1,0,0,1,2,1,1,0,0,0,0,0,0,1,0,0,0,1,0,0,0,0,0,0,0,1,0,0,1,1]},"parameters/fc.weight":{"_type":"histogram","values":[1,0,0,0,1,0,0,0,1,2,1,0,3,4,3,5,3,6,7,8,11,14,11,25,14,13,19,23,24,20,21,25,23,26,33,28,19,20,26,17,12,14,23,23,12,17,16,9,9,7,7,6,6,6,2,3,4,4,1,0,0,0,0,2],"bins":[-0.029658949002623558,-0.026712002232670784,-0.02376505732536316,-0.020818110555410385,-0.01787116378545761,-0.014924218878149986,-0.011977272108197212,-0.009030326269567013,-0.006083380430936813,-0.0031364343594759703,-0.00018948828801512718,0.002757457783445716,0.005704403854906559,0.008651349693536758,0.011598296463489532,0.014545242302119732,0.01749218814074993,0.020439134910702705,0.02338607981801033,0.026333026587963104,0.02927997335791588,0.03222692012786865,0.03517386317253113,0.0381208099424839,0.041067756712436676,0.04401470348238945,0.046961650252342224,0.0499085932970047,0.052855540066957474,0.05580248683691025,0.05874943360686302,0.061696380376815796,0.06464333087205887,0.06759027391672134,0.07053722441196442,0.07348416745662689,0.07643111795186996,0.07937806099653244,0.08232500404119492,0.08527195453643799,0.08821889758110046,0.09116584807634354,0.09411279112100601,0.09705973416566849,0.10000668466091156,0.10295362770557404,0.10590057820081711,0.10884752124547958,0.11179447174072266,0.11474141478538513,0.11768835783004761,0.12063530832529068,0.12358225136995316,0.12652920186519623,0.1294761449098587,0.13242308795452118,0.13537003099918365,0.13831698894500732,0.1412639319896698,0.14421087503433228,0.14715781807899475,0.15010476112365723,0.1530517190694809,0.15599866211414337,0.15894560515880585]},"parameters/conv1.linear.bias":{"values":[3,0,0,1,1,1,2,0,1,2,0,1,0,0,1,0,3,2,1,1,0,0,1,2,1,1,0,2,0,1,1,3,0,1,2,2,1,1,3,3,0,1,3,1,2,3,1,1,1,0,0,0,0,0,1,2,0,0,0,1,1,0,0,1],"bins":[-3.368299961090088,-3.358978033065796,-3.349656105041504,-3.340334177017212,-3.33101224899292,-3.321690320968628,-3.312368392944336,-3.303046464920044,-3.293724536895752,-3.28440260887146,-3.275080680847168,-3.265758752822876,-3.256436824798584,-3.247114896774292,-3.23779296875,-3.228471040725708,-3.219149112701416,-3.209827423095703,-3.200505495071411,-3.191183567047119,-3.181861639022827,-3.172539710998535,-3.163217782974243,-3.153895854949951,-3.144573926925659,-3.135251998901367,-3.125930070877075,-3.116608142852783,-3.107286214828491,-3.097964286804199,-3.0886423587799072,-3.0793204307556152,-3.0699985027313232,-3.0606765747070312,-3.0513546466827393,-3.0420327186584473,-3.0327107906341553,-3.0233888626098633,-3.0140669345855713,-3.0047450065612793,-2.9954230785369873,-2.9861011505126953,-2.9767792224884033,-2.9674572944641113,-2.9581353664398193,-2.9488134384155273,-2.9394915103912354,-2.9301695823669434,-2.9208478927612305,-2.9115259647369385,-2.9022040367126465,-2.8928821086883545,-2.8835601806640625,-2.8742382526397705,-2.8649163246154785,-2.8555943965911865,-2.8462724685668945,-2.8369505405426025,-2.8276286125183105,-2.8183066844940186,-2.8089847564697266,-2.7996628284454346,-2.7903409004211426,-2.7810189723968506,-2.7716970443725586],"_type":"histogram"},"gradients/conv3.linear.bias":{"_type":"histogram","values":[1,0,0,3,0,0,0,1,1,2,4,7,3,4,3,5,5,4,5,2,0,4,3,2,0,1,1,0,0,0,0,0,0,0,0,0,1,0,0,0,0,0,1,0,0,0,0,0,0,0,0,0,0,0,0,0,0,0,0,0,0,0,0,1],"bins":[-0.00012102698383387178,-0.00011151717626489699,-0.00010200737597187981,-9.249757567886263e-05,-8.298776810988784e-05,-7.347796054091305e-05,-6.396816024789587e-05,-5.445835631689988e-05,-4.4948552385903895e-05,-3.543874845490791e-05,-2.5928944523911923e-05,-1.6419140592915937e-05,-6.9093366619199514e-06,2.6004672690760344e-06,1.211027120007202e-05,2.1620075131068006e-05,3.112987906206399e-05,4.063968299305998e-05,5.0149486924055964e-05,5.965929085505195e-05,6.916909478604794e-05,7.867890235502273e-05,8.818870264803991e-05,9.769850294105709e-05,0.00010720831051003188,0.00011671811807900667,0.00012622791109606624,0.00013573771866504103,0.00014524752623401582,0.00015475733380299062,0.0001642671413719654,0.00017377693438902497,0.00018328672740608454,0.00019279653497505933,0.00020230634254403412,0.0002118161355610937,0.00022132594313006848,0.00023083575069904327,0.00024034554371610284,0.00024985536583699286,0.0002593651588540524,0.000268874951871112,0.000278384773992002,0.0002878945670090616,0.00029740436002612114,0.00030691418214701116,0.0003164239751640707,0.00032593379728496075,0.0003354435903020203,0.0003449533833190799,0.0003544632054399699,0.00036397299845702946,0.0003734828205779195,0.00038299261359497905,0.0003925024066120386,0.00040201222873292863,0.0004115220217499882,0.00042103181476704776,0.0004305416368879378,0.00044005142990499735,0.0004495612229220569,0.00045907104504294693,0.0004685808380600065,0.0004780906601808965,0.0004876004531979561]},"gradients/fc.bias":{"_type":"histogram","values":[1,1,0,0,0,0,2,0,0,0,0,0,0,0,0,1,0,0,0,1,0,0,0,0,0,0,1,0,0,0,0,0,0,0,0,1,0,0,0,0,0,0,0,0,0,0,0,0,0,0,0,0,1,0,0,0,0,0,0,0,0,0,0,1],"bins":[-0.013886773958802223,-0.013273543678224087,-0.01266031339764595,-0.012047083117067814,-0.011433852836489677,-0.010820621624588966,-0.01020739134401083,-0.009594161063432693,-0.008980930782854557,-0.00836770050227642,-0.007754470221698284,-0.00714123947545886,-0.006528009194880724,-0.0059147789143025875,-0.005301548168063164,-0.004688317887485027,-0.004075087606906891,-0.0034618573263287544,-0.0028486268129199743,-0.0022353962995111942,-0.0016221660189330578,-0.0010089356219395995,-0.00039570522494614124,0.00021752517204731703,0.0008307555690407753,0.0014439859660342336,0.002057216363027692,0.002670446876436472,0.0032836771570146084,0.003896907437592745,0.004510138183832169,0.005123368464410305,0.005736600607633591,0.006349830888211727,0.006963061168789864,0.007576291915029287,0.008189521729946136,0.008802752941846848,0.009415983222424984,0.01002921350300312,0.010642443783581257,0.011255674064159393,0.01186890434473753,0.012482134625315666,0.013095365837216377,0.013708596117794514,0.01432182639837265,0.014935056678950787,0.015548286959528923,0.016161518171429634,0.016774747520685196,0.017387978732585907,0.01800120808184147,0.01861443929374218,0.01922766864299774,0.019840899854898453,0.020454131066799164,0.021067360416054726,0.021680591627955437,0.022293820977211,0.02290705218911171,0.02352028153836727,0.024133512750267982,0.024746742099523544,0.025359973311424255]},"Gradient Norm":2916.117733924858,"parameters/conv3.linear.weight":{"bins":[-2.1349880695343018,-2.065183401107788,-1.9953784942626953,-1.925573706626892,-1.8557689189910889,-1.7859642505645752,-1.716159462928772,-1.6463546752929688,-1.5765498876571655,-1.5067451000213623,-1.436940312385559,-1.3671355247497559,-1.2973308563232422,-1.227526068687439,-1.1577212810516357,-1.0879164934158325,-1.0181117057800293,-0.9483069181442261,-0.8785021305084229,-0.8086974024772644,-0.7388926148414612,-0.669087827205658,-0.5992830991744995,-0.5294783115386963,-0.45967352390289307,-0.38986873626708984,-0.320063978433609,-0.2502592206001282,-0.18045443296432495,-0.11064966022968292,-0.040844887495040894,0.028959885239601135,0.09876489639282227,0.1685696691274643,0.23837444186210632,0.30817919969558716,0.3779839873313904,0.4477887749671936,0.517593502998352,0.5873982906341553,0.6572030782699585,0.7270078659057617,0.7968126535415649,0.8666173815727234,0.9364221692085266,1.006226897239685,1.0760316848754883,1.1458364725112915,1.2156412601470947,1.285446047782898,1.3552508354187012,1.4250556230545044,1.4948604106903076,1.5646650791168213,1.6344698667526245,1.7042746543884277,1.774079442024231,1.8438842296600342,1.9136890172958374,1.9834938049316406,2.0532984733581543,2.123103380203247,2.1929080486297607,2.2627129554748535,2.332517623901367],"_type":"histogram","values":[5,18,42,107,204,351,569,724,835,900,979,1027,967,710,416,205,87,36,8,7,46,187,600,937,1062,785,493,990,2455,7851,18123,9521,2413,1364,1200,805,293,90,94,288,582,925,965,727,320,102,22,9,21,49,80,126,239,430,592,673,633,555,366,197,87,27,14,1]},"parameters/conv3.linear.bias":{"bins":[-23.86399269104004,-23.540224075317383,-23.21645736694336,-22.892688751220703,-22.568920135498047,-22.24515151977539,-21.921384811401367,-21.59761619567871,-21.273847579956055,-20.9500789642334,-20.626312255859375,-20.30254364013672,-19.978775024414062,-19.655006408691406,-19.331239700317383,-19.007471084594727,-18.68370246887207,-18.359935760498047,-18.03616714477539,-17.712398529052734,-17.388629913330078,-17.064863204956055,-16.7410945892334,-16.417325973510742,-16.093557357788086,-15.769789695739746,-15.446022033691406,-15.12225341796875,-14.79848575592041,-14.474717140197754,-14.150949478149414,-13.827180862426758,-13.503412246704102,-13.179644584655762,-12.855875968933105,-12.532108306884766,-12.20833969116211,-11.88457202911377,-11.560803413391113,-11.237035751342773,-10.913267135620117,-10.589499473571777,-10.265731811523438,-9.941963195800781,-9.618195533752441,-9.294426918029785,-8.970659255981445,-8.646890640258789,-8.32312297821045,-7.999354839324951,-7.675586700439453,-7.351818561553955,-7.028050422668457,-6.704282283782959,-6.380514144897461,-6.056746006011963,-5.732977867126465,-5.409209728240967,-5.085441589355469,-4.761673450469971,-4.437905311584473,-4.114137172698975,-3.7903692722320557,-3.4666011333465576,-3.1428329944610596],"_type":"histogram","values":[1,0,0,0,1,0,0,0,0,0,0,0,0,0,1,0,1,0,0,0,0,0,0,0,0,0,0,0,1,0,1,0,0,0,0,1,2,1,1,1,1,3,2,2,4,4,5,7,0,5,3,3,1,4,1,3,1,0,0,1,1,0,0,1]},"GPU Memory Used (MB)":798,"Validation Loss":3768.523578154735,"Confusion Matrix":{"height":1500,"_type":"image-file","sha256":"03d8cc10ce564e0df67fa08d8429945ec9a21f92fabb735aae4728e49cab3dea","size":97984,"path":"media/images/Confusion Matrix_111_03d8cc10ce564e0df67f.png","format":"png","width":1500},"gradients/conv3.linear.weight":{"_type":"histogram","values":[1,1,1,0,2,1,0,1,1,2,1,1,3,4,9,8,14,17,25,32,50,65,140,257,549,1279,7716,52258,1735,585,285,184,93,63,43,38,18,16,11,6,2,7,1,3,1,1,0,1,1,0,1,0,1,0,0,0,1,0,0,0,0,0,0,1],"bins":[-45.829341888427734,-44.14030075073242,-42.45125961303711,-40.7622184753418,-39.073177337646484,-37.38413619995117,-35.69509506225586,-34.00605392456055,-32.3170166015625,-30.627973556518555,-28.938932418823242,-27.24989128112793,-25.56085205078125,-23.871810913085938,-22.182769775390625,-20.493728637695312,-18.8046875,-17.115646362304688,-15.426605224609375,-13.737565040588379,-12.048523902893066,-10.359482765197754,-8.670442581176758,-6.981401443481445,-5.292360305786133,-3.6033194065093994,-1.914278507232666,-0.22523760795593262,1.4638032913208008,3.152844190597534,4.841885089874268,6.530925750732422,8.219970703125,9.909011840820312,11.598052978515625,13.287093162536621,14.976134300231934,16.66517448425293,18.354215621948242,20.043256759643555,21.732297897338867,23.42133903503418,25.110380172729492,26.799421310424805,28.488460540771484,30.177501678466797,31.86654281616211,33.55558395385742,35.244625091552734,36.93366622924805,38.62270736694336,40.31174850463867,42.000789642333984,43.6898307800293,45.37887191772461,47.06791305541992,48.75695037841797,50.44599151611328,52.135032653808594,53.824073791503906,55.51311492919922,57.20215606689453,58.891197204589844,60.580238342285156,62.26927947998047]},"_step":111,"_runtime":990.711068088,"Confusion Matrix Table":{"_type":"table-file","sha256":"5d3f502f432c144b3020b156a11a09d608bc9298f5763cd1dcce05509568ba15","size":1282,"artifact_path":"wandb-client-artifact://c6qbj6xh47lywwwmirn26dnt8e29p60i7vqflnwr1xmfotalfuhjqe5lw7ffc19ijmcafpcddnueac2hf739vfe3rcphlgtkoazvde0nbz5tgg3supc88ucw5xznb4mz/Confusion Matrix Table.table.json","_latest_artifact_path":"wandb-client-artifact://4d2vkzok19wd87ctknuizrpn7dvc1pcdc5qlriu6lzox90ulcgy6wjj7hqnpakxpf189x0hab2ic2tb9pc8z4vizy49gf77tfhow5pm4uookpcwh2wrhecztmjh97aa7:latest/Confusion Matrix Table.table.json","path":"media/table/Confusion Matrix Table_111_5d3f502f432c144b3020.table.json","ncols":5,"nrows":12},"parameters/conv1.linear.weight":{"_type":"histogram","values":[6,6,28,38,52,52,37,44,37,53,61,72,51,46,56,68,79,69,42,38,48,66,61,49,80,165,290,443,1116,3175,5273,2223,711,405,221,113,79,69,62,51,47,27,26,50,50,47,56,57,58,27,23,23,20,34,23,27,43,30,27,19,14,14,3,4],"bins":[-2.3008885383605957,-2.225045680999756,-2.149202823638916,-2.073359966278076,-1.9975171089172363,-1.921674370765686,-1.8458315134048462,-1.7699886560440063,-1.6941457986831665,-1.6183029413223267,-1.5424600839614868,-1.466617226600647,-1.3907744884490967,-1.3149316310882568,-1.239088773727417,-1.1632459163665771,-1.0874030590057373,-1.0115602016448975,-0.9357173442840576,-0.8598745465278625,-0.7840316891670227,-0.7081888318061829,-0.6323460340499878,-0.556503176689148,-0.4806603193283081,-0.40481746196746826,-0.3289746344089508,-0.25313180685043335,-0.1772889494895935,-0.10144610702991486,-0.025603264570236206,0.050239577889442444,0.126082181930542,0.20192502439022064,0.2777678668498993,0.35361069440841675,0.4294535517692566,0.5052964091300964,0.5811392068862915,0.6569820642471313,0.7328249216079712,0.808667778968811,0.8845106363296509,0.960353434085846,1.036196231842041,1.1120390892028809,1.1878819465637207,1.2637248039245605,1.3395676612854004,1.4154105186462402,1.49125337600708,1.56709623336792,1.6429390907287598,1.71878182888031,1.79462468624115,1.8704675436019897,1.9463104009628296,2.02215313911438,2.0979959964752197,2.1738388538360596,2.2496817111968994,2.3255245685577393,2.401367425918579,2.477210283279419,2.553053140640259]},"gradients/conv2.linear.bias":{"values":[1,0,0,0,0,0,0,0,1,0,0,0,0,1,1,0,1,1,2,0,2,1,2,1,3,2,5,2,0,2,3,4,0,0,1,1,0,2,1,4,0,2,1,3,1,3,1,0,0,0,0,1,2,1,2,0,1,1,0,0,0,0,0,1],"bins":[-0.0022601857781410217,-0.0021938453428447247,-0.0021275049075484276,-0.0020611644722521305,-0.0019948240369558334,-0.0019284834852442145,-0.0018621430499479175,-0.0017958026146516204,-0.0017294621793553233,-0.0016631217440590262,-0.0015967813087627292,-0.001530440873466432,-0.0014641003217548132,-0.0013977598864585161,-0.001331419451162219,-0.001265079015865922,-0.001198738580569625,-0.0011323981452733278,-0.0010660577099770308,-0.0009997172746807337,-0.0009333767811767757,-0.0008670363458804786,-0.0008006958523765206,-0.0007343554170802236,-0.0006680149817839265,-0.0006016745464876294,-0.0005353341111913323,-0.00046899361768737435,-0.0004026531823910773,-0.0003363127470947802,-0.0002699722826946527,-0.00020363183284644037,-0.00013729138299822807,-7.095093315001577e-05,-4.61048330180347e-06,6.172996654640883e-05,0.00012807041639462113,0.00019441086624283344,0.00026075131609104574,0.00032709178049117327,0.00039343221578747034,0.0004597726510837674,0.0005261130863800645,0.0005924535798840225,0.0006587940151803195,0.0007251344504766166,0.0007914749439805746,0.0008578153792768717,0.0009241558145731688,0.0009904962498694658,0.001056836685165763,0.00112317712046206,0.001189517555758357,0.001255858107469976,0.001322198542766273,0.00138853897806257,0.0014548794133588672,0.0015212198486551642,0.0015875602839514613,0.0016539007192477584,0.0017202412709593773,0.0017865817062556744,0.0018529221415519714,0.0019192625768482685,0.0019856030121445656],"_type":"histogram"},"gradients/conv1.linear.weight":{"bins":[-342.57147216796875,-332.2397766113281,-321.9080505371094,-311.57635498046875,-301.24462890625,-290.9129333496094,-280.5812072753906,-270.24951171875,-259.91778564453125,-249.58609008789062,-239.25437927246094,-228.92266845703125,-218.59097290039062,-208.25926208496094,-197.92755126953125,-187.59584045410156,-177.26412963867188,-166.9324188232422,-156.6007080078125,-146.2689971923828,-135.93728637695312,-125.60558319091797,-115.27388000488281,-104.94216918945312,-94.61045837402344,-84.27874755859375,-73.94703674316406,-63.615333557128906,-53.28362274169922,-42.95191192626953,-32.62020492553711,-22.288496017456055,-11.956817626953125,-1.6251087188720703,8.706600189208984,19.03830909729004,29.370018005371094,39.70172882080078,50.0334358215332,60.365142822265625,70.69685363769531,81.028564453125,91.36027526855469,101.69197845458984,112.02368927001953,122.35540008544922,132.68710327148438,143.01881408691406,153.35052490234375,163.68223571777344,174.01394653320312,184.3456573486328,194.6773681640625,205.00906372070312,215.3407745361328,225.6724853515625,236.0041961669922,246.33590698242188,256.6676025390625,266.99932861328125,277.3310241699219,287.6627502441406,297.99444580078125,308.326171875,318.6578674316406],"_type":"histogram","values":[1,0,0,0,0,0,0,0,0,1,0,0,1,1,2,2,0,1,2,2,2,1,3,4,10,9,25,25,37,73,133,268,1373,13611,398,155,83,50,31,27,19,10,6,2,3,0,3,1,1,2,0,1,1,0,0,0,0,0,0,2,0,1,0,1]},"Training Loss":1321.6966437919018,"parameters/conv2.linear.weight":{"_type":"histogram","values":[6,9,21,51,81,191,321,447,545,630,587,453,352,213,116,44,22,8,7,17,57,129,269,422,578,805,987,1344,2125,4431,9824,14503,11770,5448,2265,1151,675,310,161,51,7,5,2,0,0,0,3,23,51,148,250,348,494,573,549,526,412,294,213,104,65,30,10,3],"bins":[-1.7182080745697021,-1.6638412475585938,-1.6094744205474854,-1.555107593536377,-1.5007407665252686,-1.4463739395141602,-1.3920071125030518,-1.3376402854919434,-1.283273458480835,-1.2289066314697266,-1.1745398044586182,-1.1201729774475098,-1.0658061504364014,-1.011439323425293,-0.9570724368095398,-0.9027056097984314,-0.848338782787323,-0.7939719557762146,-0.7396051287651062,-0.6852383017539978,-0.6308714747428894,-0.576504647731781,-0.5221378207206726,-0.4677709639072418,-0.4134041368961334,-0.359037309885025,-0.3046704828739166,-0.2503036558628082,-0.19593681395053864,-0.14156998693943024,-0.08720315247774124,-0.032836321741342545,0.021530508995056152,0.07589733600616455,0.13026416301727295,0.18463100492954254,0.23899783194065094,0.29336467385292053,0.34773150086402893,0.40209832787513733,0.4564651548862457,0.5108320116996765,0.5651988387107849,0.6195656657218933,0.6739324927330017,0.7282993197441101,0.7826661467552185,0.8370329737663269,0.8913998007774353,0.9457666277885437,1.0001335144042969,1.0545003414154053,1.1088671684265137,1.163233995437622,1.2176008224487305,1.2719676494598389,1.3263344764709473,1.3807013034820557,1.435068130493164,1.4894349575042725,1.5438017845153809,1.5981686115264893,1.6525354385375977,1.706902265548706,1.7612690925598145]},"Validation Accuracy":0.09294871794871795,"gradients/fc.weight":{"_type":"histogram","values":[1,0,0,0,0,0,0,0,0,0,0,0,0,0,0,2,0,1,0,1,0,2,2,0,2,2,5,3,6,11,29,79,376,53,19,9,13,0,6,6,2,1,0,4,0,0,0,1,0,1,1,1,0,0,0,0,0,0,0,0,0,0,0,1],"bins":[-392.07708740234375,-380.0184326171875,-367.95977783203125,-355.901123046875,-343.84246826171875,-331.7838134765625,-319.72515869140625,-307.66650390625,-295.60784912109375,-283.5491638183594,-271.4905090332031,-259.4318542480469,-247.37319946289062,-235.31454467773438,-223.25588989257812,-211.19723510742188,-199.13858032226562,-187.07992553710938,-175.02127075195312,-162.96261596679688,-150.90396118164062,-138.8452911376953,-126.78663635253906,-114.72798156738281,-102.66932678222656,-90.61067199707031,-78.55201721191406,-66.49335479736328,-54.43470001220703,-42.37604522705078,-30.317386627197266,-18.258729934692383,-6.200042724609375,5.858613967895508,17.91727066040039,29.975927352905273,42.034584045410156,54.093238830566406,66.15190124511719,78.21055603027344,90.26921081542969,102.32786560058594,114.38652038574219,126.44518280029297,138.50384521484375,150.5625,162.62115478515625,174.6798095703125,186.73846435546875,198.797119140625,210.85577392578125,222.9144287109375,234.97308349609375,247.03175354003906,259.09039306640625,271.1490478515625,283.20770263671875,295.2663879394531,307.3250427246094,319.3836975097656,331.4423522949219,343.5010070800781,355.5596618652344,367.6183166503906,379.6769714355469]},"parameters/conv2.linear.bias":{"values":[1,0,2,0,0,1,1,1,0,1,2,1,3,2,2,5,4,0,1,4,4,0,1,3,2,3,2,1,0,1,4,0,1,0,0,0,0,1,0,0,0,0,2,1,0,0,0,1,2,1,1,0,0,0,0,1,0,0,0,0,0,0,0,1],"bins":[-6.435530185699463,-6.33524751663208,-6.234964847564697,-6.134682655334473,-6.03439998626709,-5.934117317199707,-5.833834648132324,-5.733551979064941,-5.633269309997559,-5.532987117767334,-5.432704448699951,-5.332421779632568,-5.2321391105651855,-5.131856441497803,-5.03157377243042,-4.931291580200195,-4.8310089111328125,-4.73072624206543,-4.630443572998047,-4.530160903930664,-4.429878234863281,-4.329596042633057,-4.229313373565674,-4.129030704498291,-4.028748035430908,-3.9284656047821045,-3.8281829357147217,-3.727900266647339,-3.627617835998535,-3.5273351669311523,-3.4270524978637695,-3.326770067214966,-3.226487398147583,-3.1262049674987793,-3.0259222984313965,-2.9256396293640137,-2.82535719871521,-2.725074529647827,-2.6247918605804443,-2.5245094299316406,-2.424226760864258,-2.323944091796875,-2.2236616611480713,-2.1233789920806885,-2.0230963230133057,-1.9228137731552124,-1.8225312232971191,-1.7222486734390259,-1.621966004371643,-1.5216834545135498,-1.4214009046554565,-1.3211183547973633,-1.2208356857299805,-1.1205531358718872,-1.020270586013794,-0.9199879169464111,-0.8197053670883179,-0.7194227576255798,-0.6191402077674866,-0.5188575983047485,-0.4185750186443329,-0.31829243898391724,-0.2180098295211792,-0.11772724986076355,-0.017444662749767303],"_type":"histogram"},"Training Accuracy":0.09698016826923077,"Epoch":111,"_wandb":{"runtime":991},"ROC-AUC Curve":{"sha256":"fc43f5b7793f0dc99c69c8d3228c01252d65eec609f7447e5e7f9c5431ef4cf9","size":135491,"path":"media/images/ROC-AUC Curve_111_fc43f5b7793f0dc99c69.png","format":"png","width":800,"height":600,"_type":"image-file"},"_timestamp":1.7449973708905613e+09}