{"ROC-AUC Curve":{"path":"media/images/ROC-AUC Curve_24_e687f7f943922cc424d4.png","format":"png","width":800,"height":600,"_type":"image-file","sha256":"e687f7f943922cc424d4825f32546b0672d0fa60755c0bd9c0f7ae849c8709dc","size":138528},"parameters/conv2.linear.weight":{"_type":"histogram","values":[1,4,3,15,24,49,113,201,347,453,571,556,589,474,323,204,97,48,27,34,42,97,195,349,448,718,992,1472,2543,4643,8511,11558,10920,7442,3897,1771,884,435,240,97,36,12,4,9,6,19,55,130,207,352,445,561,609,543,439,302,198,106,67,29,12,3,3,2],"bins":[-1.7939053773880005,-1.7375849485397339,-1.6812645196914673,-1.6249440908432007,-1.568623661994934,-1.5123032331466675,-1.4559826850891113,-1.3996622562408447,-1.3433418273925781,-1.2870213985443115,-1.230700969696045,-1.1743805408477783,-1.1180601119995117,-1.0617396831512451,-1.0054192543029785,-0.9490987658500671,-0.8927783370018005,-0.8364579081535339,-0.7801374793052673,-0.723816990852356,-0.6674965620040894,-0.6111761331558228,-0.5548557043075562,-0.49853524565696716,-0.44221481680870056,-0.38589438796043396,-0.32957392930984497,-0.27325350046157837,-0.21693305671215057,-0.16061261296272278,-0.10429217666387558,-0.04797173663973808,0.008348703384399414,0.06466914713382721,0.12098958343267441,0.1773100197315216,0.2336304634809494,0.2899509072303772,0.3462713360786438,0.4025917947292328,0.4589122235774994,0.5152326822280884,0.571553111076355,0.6278735399246216,0.6841939687728882,0.7405143976211548,0.7968348860740662,0.8531553149223328,0.9094757437705994,0.965796172618866,1.0221166610717773,1.078437089920044,1.1347575187683105,1.1910779476165771,1.2473983764648438,1.3037188053131104,1.360039234161377,1.4163596630096436,1.4726800918579102,1.5290006399154663,1.585321068763733,1.6416414976119995,1.6979619264602661,1.7542823553085327,1.8106027841567993]},"parameters/conv2.linear.bias":{"bins":[-5.276663780212402,-5.240761756896973,-5.204859733581543,-5.168957710266113,-5.133055686950684,-5.097153663635254,-5.061251640319824,-5.0253496170043945,-4.989447593688965,-4.953545570373535,-4.9176435470581055,-4.881741523742676,-4.845839500427246,-4.809937477111816,-4.774035453796387,-4.738133430480957,-4.702231407165527,-4.666329860687256,-4.630427837371826,-4.5945258140563965,-4.558623790740967,-4.522721767425537,-4.486819744110107,-4.450917720794678,-4.415015697479248,-4.379113674163818,-4.343211650848389,-4.307309627532959,-4.271407604217529,-4.2355055809021,-4.19960355758667,-4.16370153427124,-4.1277995109558105,-4.091897487640381,-4.055995464324951,-4.0200934410095215,-3.984191417694092,-3.948289394378662,-3.9123873710632324,-3.8764853477478027,-3.840583324432373,-3.8046815395355225,-3.7687795162200928,-3.732877492904663,-3.6969754695892334,-3.6610734462738037,-3.625171422958374,-3.5892693996429443,-3.5533673763275146,-3.517465353012085,-3.4815633296966553,-3.4456613063812256,-3.409759283065796,-3.373857259750366,-3.3379552364349365,-3.302053213119507,-3.2661514282226562,-3.2302494049072266,-3.194347381591797,-3.158445358276367,-3.1225433349609375,-3.086641311645508,-3.050739288330078,-3.0148372650146484,-2.9789352416992188],"_type":"histogram","values":[1,0,0,0,2,0,3,0,0,0,0,3,0,1,1,0,1,1,2,1,0,0,1,1,2,1,1,4,3,0,2,0,1,1,2,2,1,4,1,3,0,2,2,2,0,0,2,0,0,0,0,1,1,1,0,0,0,3,0,0,0,2,1,1]},"parameters/fc.bias":{"bins":[-0.26458480954170227,-0.250978022813797,-0.23737122118473053,-0.22376441955566406,-0.2101576328277588,-0.19655083119869232,-0.18294402956962585,-0.16933724284172058,-0.1557304412126541,-0.14212363958358765,-0.12851685285568237,-0.1149100512266159,-0.10130325704813004,-0.08769646286964417,-0.0740896612405777,-0.06048286706209183,-0.04687607288360596,-0.03326927870512009,-0.019662480801343918,-0.006055684760212898,0.007551111280918121,0.02115790732204914,0.03476470336318016,0.04837150126695633,0.0619782954454422,0.07558508962392807,0.08919188380241394,0.10279868543148041,0.11640547960996628,0.13001227378845215,0.14361907541751862,0.1572258621454239,0.17083269357681274,0.1844394952058792,0.19804628193378448,0.21165308356285095,0.22525987029075623,0.2388666719198227,0.25247347354888916,0.26608026027679443,0.2796870470046997,0.29329386353492737,0.30690065026283264,0.3205074369907379,0.3341142535209656,0.34772104024887085,0.3613278269767761,0.3749346435070038,0.38854143023490906,0.40214821696281433,0.415755033493042,0.42936182022094727,0.44296860694885254,0.4565754234790802,0.4701822102069855,0.48378899693489075,0.4973958134651184,0.5110026001930237,0.524609386920929,0.5382161736488342,0.5518229603767395,0.5654298067092896,0.5790365934371948,0.5926433801651001,0.6062501668930054],"_type":"histogram","values":[1,0,0,0,0,0,0,0,0,1,0,0,0,0,0,0,0,0,0,0,0,0,0,0,0,0,0,0,0,0,0,0,0,0,0,0,0,0,0,0,0,0,1,0,1,0,0,0,1,1,0,0,0,0,1,0,0,0,1,0,0,1,0,1]},"parameters/conv1.linear.weight":{"_type":"histogram","values":[1,3,6,7,17,36,38,46,41,52,46,59,60,64,64,71,60,78,57,65,49,52,57,64,68,105,170,361,786,1842,3659,3912,1910,843,390,169,106,76,67,70,53,35,39,32,42,51,50,64,39,41,33,42,24,29,31,33,40,28,17,16,10,4,2,2],"bins":[-2.143251895904541,-2.074244737625122,-2.0052378177642822,-1.9362306594848633,-1.8672236204147339,-1.798216462135315,-1.7292094230651855,-1.6602023839950562,-1.5911953449249268,-1.5221881866455078,-1.4531811475753784,-1.384174108505249,-1.31516695022583,-1.2461599111557007,-1.1771528720855713,-1.1081457138061523,-1.039138674736023,-0.9701315760612488,-0.9011245369911194,-0.8321174383163452,-0.7631103992462158,-0.6941033005714417,-0.6250962018966675,-0.5560891628265381,-0.4870820641517639,-0.41807499527931213,-0.34906792640686035,-0.2800608277320862,-0.2110537588596344,-0.14204668998718262,-0.07303960621356964,-0.004032529890537262,0.06497454643249512,0.1339816153049469,0.20298869907855988,0.27199578285217285,0.34100285172462463,0.4100099205970764,0.4790170192718506,0.54802405834198,0.6170311570167542,0.6860382556915283,0.7550452947616577,0.8240523934364319,0.893059492111206,0.9620665311813354,1.0310735702514648,1.1000807285308838,1.1690877676010132,1.2380948066711426,1.3071019649505615,1.376109004020691,1.4451160430908203,1.5141232013702393,1.5831302404403687,1.652137279510498,1.721144437789917,1.7901514768600464,1.8591585159301758,1.9281655550003052,1.9971727132797241,2.0661797523498535,2.1351869106292725,2.2041938304901123,2.2732009887695312]},"gradients/conv2.linear.bias":{"_type":"histogram","values":[1,0,1,0,0,0,0,2,1,0,1,2,2,2,3,5,5,6,4,7,3,6,6,1,2,0,0,1,0,1,0,0,1,0,0,0,0,0,0,0,0,0,0,0,0,0,0,0,0,0,0,0,0,0,0,0,0,0,0,0,0,0,0,1],"bins":[-0.0013169238809496164,-0.0012362994020804763,-0.0011556749232113361,-0.0010750503279268742,-0.000994425849057734,-0.0009138013701885939,-0.0008331768913194537,-0.0007525523542426527,-0.0006719278753735125,-0.0005913033965043724,-0.0005106788594275713,-0.00043005438055843115,-0.00034942987258546054,-0.00026880536461248994,-0.00018818087119143456,-0.00010755637049442157,-2.693186979740858e-05,5.369263089960441e-05,0.0001343171315966174,0.00021494162501767278,0.0002955661329906434,0.000376190640963614,0.00045681511983275414,0.0005374396569095552,0.0006180641357786953,0.0006986886146478355,0.0007793131517246366,0.0008599376305937767,0.0009405621094629169,0.001021186588332057,0.001101811183616519,0.0011824356624856591,0.0012630601413547993,0.0013436846202239394,0.0014243090990930796,0.0015049336943775415,0.0015855581732466817,0.0016661826521158218,0.001746807130984962,0.0018274316098541021,0.0019080562051385641,0.0019886805675923824,0.0020693051628768444,0.0021499297581613064,0.0022305541206151247,0.0023111787158995867,0.002391803078353405,0.002472427673637867,0.002553052268922329,0.0026336766313761473,0.0027143012266606092,0.0027949255891144276,0.0028755501843988895,0.002956174546852708,0.00303679914213717,0.003117423737421632,0.00319804809987545,0.003278672695159912,0.0033592970576137304,0.0034399216528981924,0.0035205462481826544,0.0036011706106364727,0.0036817952059209347,0.003762419568374753,0.003843044163659215]},"gradients/conv1.linear.weight":{"bins":[-355.4155578613281,-344.0201110839844,-332.62469482421875,-321.229248046875,-309.83380126953125,-298.4383850097656,-287.0429382324219,-275.64752197265625,-264.2520751953125,-252.8566436767578,-241.46121215820312,-230.06576538085938,-218.6703338623047,-207.27490234375,-195.87945556640625,-184.48402404785156,-173.08859252929688,-161.6931610107422,-150.2977294921875,-138.90228271484375,-127.50685119628906,-116.11141967773438,-104.71598052978516,-93.32054138183594,-81.92510986328125,-70.52967834472656,-59.134239196777344,-47.73880386352539,-36.34336853027344,-24.947933197021484,-13.552497863769531,-2.157062530517578,9.23834228515625,20.633777618408203,32.029212951660156,43.42464828491211,54.82008361816406,66.21551513671875,77.61095428466797,89.00639343261719,100.40182495117188,111.79725646972656,123.19269561767578,134.588134765625,145.9835662841797,157.37899780273438,168.77444458007812,180.1698760986328,191.5653076171875,202.9607391357422,214.35617065429688,225.75161743164062,237.1470489501953,248.54248046875,259.93792724609375,271.3333435058594,282.7287902832031,294.1242370605469,305.5196533203125,316.91510009765625,328.310546875,339.7059631347656,351.1014099121094,362.496826171875,373.89227294921875],"_type":"histogram","values":[1,0,2,1,0,0,0,1,0,5,3,1,3,3,6,9,6,9,8,9,15,17,20,32,40,41,62,98,153,250,1130,13441,406,167,105,68,65,49,31,29,15,17,18,8,7,2,2,7,2,2,1,1,2,4,1,0,2,2,3,0,0,0,0,2]},"gradients/conv3.linear.weight":{"values":[1,0,0,0,2,1,0,1,2,1,1,3,3,5,2,2,8,10,12,24,30,38,51,89,190,434,1232,55187,6766,832,288,112,80,41,29,14,11,8,6,6,3,3,2,0,1,1,0,1,0,0,2,0,0,0,0,0,0,0,0,0,0,0,0,1],"bins":[-59.600067138671875,-57.459800720214844,-55.31953811645508,-53.17927169799805,-51.03900909423828,-48.89874267578125,-46.75847625732422,-44.61821365356445,-42.47794723510742,-40.33768081665039,-38.197418212890625,-36.057151794433594,-33.91688537597656,-31.776622772216797,-29.636356353759766,-27.496091842651367,-25.35582733154297,-23.21556282043457,-21.075298309326172,-18.93503189086914,-16.794767379760742,-14.654502868652344,-12.514237403869629,-10.373971939086914,-8.233707427978516,-6.093442440032959,-3.9531774520874023,-1.8129124641418457,0.32735252380371094,2.4676175117492676,4.607882499694824,6.748147487640381,8.888412475585938,11.028676986694336,13.16894245147705,15.309207916259766,17.449472427368164,19.589736938476562,21.730003356933594,23.870267868041992,26.01053237915039,28.15079689025879,30.291061401367188,32.43132781982422,34.57159423828125,36.711856842041016,38.85212326049805,40.99238586425781,43.132652282714844,45.272918701171875,47.41318130493164,49.55344772338867,51.69371032714844,53.83397674560547,55.9742431640625,58.114505767822266,60.2547721862793,62.39503860473633,64.5353012084961,66.67556762695312,68.81583404541016,70.95610046386719,73.09635925292969,75.23662567138672,77.37689208984375],"_type":"histogram"},"Epoch":24,"gradients/conv2.linear.weight":{"bins":[-269.625,-263.1331481933594,-256.6413269042969,-250.14947509765625,-243.6576385498047,-237.16580200195312,-230.67396545410156,-224.18212890625,-217.69027709960938,-211.1984405517578,-204.70660400390625,-198.2147674560547,-191.72293090820312,-185.23109436035156,-178.73924255371094,-172.24740600585938,-165.7555694580078,-159.26373291015625,-152.7718963623047,-146.28004455566406,-139.7882080078125,-133.29637145996094,-126.80453491210938,-120.31269073486328,-113.82085418701172,-107.32901763916016,-100.83717346191406,-94.3453369140625,-87.85350036621094,-81.36165618896484,-74.86981964111328,-68.37797546386719,-61.88612365722656,-55.394283294677734,-48.902442932128906,-42.410606384277344,-35.918766021728516,-29.426925659179688,-22.935087203979492,-16.443248748779297,-9.951408386230469,-3.459568977355957,3.0322704315185547,9.524109840393066,16.015949249267578,22.507789611816406,28.9996280670166,35.4914665222168,41.983306884765625,48.47514724731445,54.96698760986328,61.458824157714844,67.95066833496094,74.4425048828125,80.93434143066406,87.42618560791016,93.91802215576172,100.40985870361328,106.90170288085938,113.39353942871094,119.8853759765625,126.3772201538086,132.8690643310547,139.36090087890625,145.8527374267578],"_type":"histogram","values":[1,0,0,0,1,0,0,0,0,1,0,0,1,1,0,0,0,1,1,0,1,0,0,4,3,1,2,4,1,5,5,9,9,18,12,27,51,84,129,379,1477,60696,1758,405,186,80,65,39,21,18,10,10,5,4,3,1,2,1,2,0,0,1,0,1]},"gradients/conv3.linear.bias":{"values":[1,0,1,0,1,0,0,1,0,1,0,2,1,1,3,2,0,0,1,3,0,1,2,2,2,3,4,0,0,2,2,1,1,3,1,0,1,1,2,0,3,1,1,1,4,0,0,1,0,0,1,0,0,0,2,0,0,0,0,0,2,0,1,1],"bins":[-0.0006247566197998822,-0.0005999230779707432,-0.0005750895361416042,-0.0005502559361048043,-0.0005254223942756653,-0.0005005888524465263,-0.0004757553106173873,-0.00045092173968441784,-0.00042608819785527885,-0.00040125465602613986,-0.0003764210850931704,-0.0003515875432640314,-0.0003267540014348924,-0.00030192043050192297,-0.00027708688867278397,-0.0002522533177398145,-0.00022741977591067553,-0.0002025862195296213,-0.00017775266314856708,-0.00015291912131942809,-0.00012808556493837386,-0.00010325200855731964,-7.841845945222303e-05,-5.358490670914762e-05,-2.8751353966072202e-05,-3.917801222996786e-06,2.091575152007863e-05,4.5749304263154045e-05,7.058285700622946e-05,9.541641338728368e-05,0.00012024996249238029,0.0001450835115974769,0.00016991706797853112,0.00019475062435958534,0.00021958418074063957,0.00024441772256977856,0.000269251293502748,0.000294084835331887,0.000318918377161026,0.00034375194809399545,0.00036858548992313445,0.00039341903175227344,0.0004182526026852429,0.0004430861445143819,0.0004679196863435209,0.0004927532281726599,0.0005175868282094598,0.0005424203700385988,0.0005672539118677378,0.0005920874536968768,0.0006169209955260158,0.0006417545955628157,0.0006665881373919547,0.0006914216792210937,0.0007162552210502326,0.0007410887628793716,0.0007659223629161716,0.0007907559047453105,0.0008155894465744495,0.0008404229884035885,0.0008652565302327275,0.0008900900720618665,0.0009149236720986664,0.0009397572139278054,0.0009645907557569444],"_type":"histogram"},"parameters/conv1.linear.bias":{"values":[1,0,0,0,0,2,1,0,1,0,1,0,2,2,3,0,3,0,0,3,0,3,0,3,0,5,2,1,4,0,3,4,1,2,1,2,1,1,2,3,2,0,1,0,1,0,1,0,0,1,0,0,0,0,0,0,0,0,0,0,0,0,0,1],"bins":[-3.067085027694702,-3.053760528564453,-3.040436267852783,-3.027111768722534,-3.0137875080108643,-3.0004630088806152,-2.9871387481689453,-2.9738142490386963,-2.9604897499084473,-2.9471654891967773,-2.9338409900665283,-2.9205167293548584,-2.9071922302246094,-2.8938679695129395,-2.8805434703826904,-2.8672192096710205,-2.8538947105407715,-2.8405702114105225,-2.8272459506988525,-2.8139214515686035,-2.8005971908569336,-2.7872726917266846,-2.7739484310150146,-2.7606239318847656,-2.7472996711730957,-2.7339751720428467,-2.7206506729125977,-2.7073264122009277,-2.6940019130706787,-2.680677652359009,-2.6673531532287598,-2.65402889251709,-2.640704393386841,-2.627379894256592,-2.614055633544922,-2.600731134414673,-2.587406873703003,-2.574082374572754,-2.560758113861084,-2.547433614730835,-2.534109115600586,-2.520784854888916,-2.507460355758667,-2.494136095046997,-2.480811595916748,-2.467487335205078,-2.454162836074829,-2.440838575363159,-2.42751407623291,-2.414189577102661,-2.400865316390991,-2.387540817260742,-2.3742165565490723,-2.3608920574188232,-2.3475677967071533,-2.3342432975769043,-2.3209190368652344,-2.3075945377349854,-2.2942700386047363,-2.2809457778930664,-2.2676212787628174,-2.2542970180511475,-2.2409725189208984,-2.2276482582092285,-2.2143237590789795],"_type":"histogram"},"Validation Accuracy":0.09344951923076923,"parameters/fc.weight":{"bins":[0.00208510784432292,0.005370590835809708,0.008656073361635208,0.011941555887460709,0.015227038413286209,0.01851252093911171,0.02179800346493721,0.02508348785340786,0.02836897037923336,0.03165445104241371,0.03493993729352951,0.03822541981935501,0.04151090234518051,0.04479638487100601,0.04808186739683151,0.05136734992265701,0.05465283244848251,0.057938314974308014,0.061223797500133514,0.06450928002595901,0.06779476255178452,0.07108024507761002,0.07436572760343552,0.07765121012926102,0.08093669265508652,0.08422217518091202,0.08750765770673752,0.09079314023256302,0.09407862275838852,0.09736410528421402,0.10064958781003952,0.10393507033586502,0.10722055286169052,0.11050603538751602,0.11379151791334152,0.11707700043916702,0.12036248296499252,0.12364796549081802,0.12693345546722412,0.13021893799304962,0.13350442051887512,0.13678990304470062,0.14007538557052612,0.14336086809635162,0.14664635062217712,0.14993183314800262,0.15321731567382812,0.15650279819965363,0.15978828072547913,0.16307376325130463,0.16635924577713013,0.16964472830295563,0.17293021082878113,0.17621569335460663,0.17950117588043213,0.18278665840625763,0.18607214093208313,0.18935762345790863,0.19264310598373413,0.19592858850955963,0.19921407103538513,0.20249955356121063,0.20578503608703613,0.20907051861286163,0.21235600113868713],"_type":"histogram","values":[2,1,0,0,1,0,2,0,1,1,2,7,6,5,6,9,5,7,9,10,18,9,13,19,21,18,19,26,25,29,22,27,28,28,25,35,25,20,16,18,18,14,14,13,8,10,5,9,9,7,5,2,4,1,1,0,3,0,1,0,0,0,0,1]},"gradients/conv1.linear.bias":{"_type":"histogram","values":[1,0,0,0,0,0,0,0,0,0,0,0,0,0,1,0,0,0,1,0,2,0,1,3,0,2,1,2,4,3,5,3,7,6,2,3,0,1,3,1,0,0,0,1,0,2,2,0,0,0,0,1,1,1,2,1,0,0,0,0,0,0,0,1],"bins":[-0.03168589621782303,-0.030663292855024338,-0.029640691354870796,-0.028618087992072105,-0.027595486491918564,-0.026572883129119873,-0.025550279766321182,-0.02452767826616764,-0.02350507490336895,-0.02248247154057026,-0.021459870040416718,-0.020437266677618027,-0.019414663314819336,-0.018392061814665794,-0.017369458451867104,-0.016346856951713562,-0.015324253588914871,-0.014301651157438755,-0.013279048725962639,-0.012256445363163948,-0.011233842931687832,-0.010211240500211716,-0.009188637137413025,-0.008166034705936909,-0.0071434322744607925,-0.006120829842984676,-0.005098226945847273,-0.004075624048709869,-0.003053021617233753,-0.0020304189529269934,-0.0010078162886202335,1.4786375686526299e-05,0.0010373853147029877,0.0020599879790097475,0.0030825906433165073,0.004105193540453911,0.005127795971930027,0.006150398403406143,0.007173001300543547,0.00819560419768095,0.009218206629157066,0.010240809060633183,0.011263411492109299,0.01228601485490799,0.013308617286384106,0.014331219717860222,0.015353823080658913,0.016376424580812454,0.017399027943611145,0.018421631306409836,0.019444232806563377,0.020466836169362068,0.02148943766951561,0.0225120410323143,0.02353464439511299,0.024557245895266533,0.025579849258065224,0.026602452620863914,0.027625054121017456,0.028647657483816147,0.029670260846614838,0.03069286234676838,0.03171546384692192,0.03273806720972061,0.0337606705725193]},"Confusion Matrix":{"format":"png","width":1500,"height":1500,"_type":"image-file","sha256":"c98c9fd5789623fc7f8f94e95b1a20edfae0818898ddfc42d0948792cb39fc8b","size":104123,"path":"media/images/Confusion Matrix_24_c98c9fd5789623fc7f8f.png"},"gradients/fc.bias":{"_type":"histogram","values":[1,0,0,0,0,0,0,0,0,0,0,0,0,0,0,0,0,0,0,0,0,0,0,0,0,0,1,0,0,0,0,0,0,0,0,0,0,0,0,0,1,0,3,0,0,0,0,0,0,0,0,0,1,0,0,0,0,1,0,0,0,0,1,1],"bins":[-0.14558610320091248,-0.1422138214111328,-0.13884155452251434,-0.13546927273273468,-0.1320970058441162,-0.12872472405433655,-0.12535245716571808,-0.12198018282651901,-0.11860790848731995,-0.11523562669754028,-0.11186335235834122,-0.10849107801914215,-0.10511880367994308,-0.10174652934074402,-0.09837425500154495,-0.09500198066234589,-0.09162970632314682,-0.08825743198394775,-0.08488515764474869,-0.08151288330554962,-0.07814060896635056,-0.07476833462715149,-0.07139606028795242,-0.06802378594875336,-0.0646515041589737,-0.061279233545064926,-0.05790695920586586,-0.054534684866666794,-0.05116240680217743,-0.04779013246297836,-0.0444178581237793,-0.04104558378458023,-0.03767331689596176,-0.034301042556762695,-0.03092876821756363,-0.027556492015719414,-0.024184217676520348,-0.02081194333732128,-0.017439667135477066,-0.014067392796278,-0.010695118457078934,-0.00732284365221858,-0.003950568847358227,-0.0005782940424978733,0.00279398076236248,0.006166255567222834,0.009538530372083187,0.012910805642604828,0.016283079981803894,0.01965535432100296,0.023027628660202026,0.026399904862046242,0.029772179201245308,0.03314445540308952,0.03651672974228859,0.039889004081487656,0.04326127842068672,0.04663355275988579,0.050005827099084854,0.05337810143828392,0.056750379502773285,0.06012265384197235,0.06349492818117142,0.06686720252037048,0.07023947685956955]},"Validation Loss":10443.891857831906,"_timestamp":1.7449911725584905e+09,"_step":24,"Gradient Norm":1.8343454833409886e+06,"Training Loss":18021.249294348647,"_runtime":1492.165256886,"GPU Memory Used (MB)":274,"_wandb":{"runtime":1492},"Confusion Matrix Table":{"_latest_artifact_path":"wandb-client-artifact://392872z9rawx5d2mjf6ils876dnc7hohgxvl20zs2a83a8xoshlr0gb7w16pn5vkt2oiqedvsm7t7mx20ohokohpag4z6yu82t43sp5zzg87o0v6ekrowb7i5lf8swh7:latest/Confusion Matrix Table.table.json","path":"media/table/Confusion Matrix Table_24_ccf1f3ecd018bcb47f49.table.json","ncols":5,"nrows":12,"_type":"table-file","sha256":"ccf1f3ecd018bcb47f4973d09b3f67856a7be555d404c5c813d6be4081cdeefa","size":1275,"artifact_path":"wandb-client-artifact://s5kg1tuty50ngs3064zi7agigc7smob2limyooj3xxyvvctox0p13vehq4b5hlo0mwg0zspy0nrw261m1yo0tdhkkhyidqeaf8zwqbzn9qh8x0h12pcw33pcl8gyikfa/Confusion Matrix Table.table.json"},"gradients/fc.weight":{"bins":[-393.2648010253906,-380.9483337402344,-368.6318664550781,-356.3153991699219,-343.9989318847656,-331.6824645996094,-319.3659973144531,-307.0495300292969,-294.7330627441406,-282.4165954589844,-270.1001281738281,-257.7836608886719,-245.46719360351562,-233.15072631835938,-220.83425903320312,-208.51779174804688,-196.20132446289062,-183.88485717773438,-171.56838989257812,-159.25192260742188,-146.93545532226562,-134.61898803710938,-122.30252075195312,-109.98605346679688,-97.66958618164062,-85.35311889648438,-73.03665161132812,-60.720184326171875,-48.403717041015625,-36.087249755859375,-23.770782470703125,-11.454315185546875,0.862152099609375,13.178619384765625,25.495086669921875,37.811553955078125,50.128021240234375,62.444488525390625,74.76095581054688,87.07742309570312,99.39389038085938,111.71035766601562,124.02682495117188,136.34329223632812,148.65975952148438,160.97622680664062,173.29269409179688,185.60916137695312,197.92562866210938,210.24209594726562,222.55856323242188,234.87503051757812,247.19149780273438,259.5079650878906,271.8244323730469,284.1408996582031,296.4573669433594,308.7738342285156,321.0903015136719,333.4067687988281,345.7232360839844,358.0397033691406,370.3561706542969,382.6726379394531,394.9891052246094],"_type":"histogram","values":[3,1,0,0,0,1,0,1,0,1,0,1,0,0,1,4,4,0,1,3,5,2,4,3,3,6,10,5,14,13,21,399,34,15,14,11,5,12,3,3,5,4,3,2,3,2,0,6,2,2,0,0,0,0,1,0,1,1,1,0,0,0,1,3]},"Training Accuracy":0.09566326530612244,"parameters/conv3.linear.bias":{"_type":"histogram","values":[1,1,0,0,1,0,0,1,0,0,0,0,0,0,0,2,1,1,1,0,2,1,2,0,2,2,1,0,2,1,0,3,2,2,2,4,1,2,3,4,0,0,3,2,1,3,1,1,3,1,0,1,0,0,0,0,0,2,0,0,0,0,0,1],"bins":[-28.20322608947754,-27.792556762695312,-27.381885528564453,-26.971216201782227,-26.560544967651367,-26.14987564086914,-25.73920440673828,-25.328535079956055,-24.917865753173828,-24.50719451904297,-24.096525192260742,-23.685853958129883,-23.275184631347656,-22.864513397216797,-22.45384407043457,-22.04317283630371,-21.632503509521484,-21.221834182739258,-20.8111629486084,-20.400493621826172,-19.989822387695312,-19.579153060913086,-19.168481826782227,-18.7578125,-18.34714126586914,-17.936471939086914,-17.525802612304688,-17.115131378173828,-16.7044620513916,-16.293790817260742,-15.883121490478516,-15.472451210021973,-15.06178092956543,-14.651111602783203,-14.24044132232666,-13.829771041870117,-13.419100761413574,-13.008430480957031,-12.597760200500488,-12.187089920043945,-11.776420593261719,-11.365750312805176,-10.955080032348633,-10.54440975189209,-10.133739471435547,-9.723069190979004,-9.312398910522461,-8.901728630065918,-8.491058349609375,-8.080389022827148,-7.6697187423706055,-7.2590484619140625,-6.8483781814575195,-6.437707901000977,-6.027037620544434,-5.616367816925049,-5.205697536468506,-4.795027256011963,-4.384357452392578,-3.973687171936035,-3.563016891479492,-3.152346611022949,-2.7416765689849854,-2.3310065269470215,-1.9203362464904785]},"parameters/conv3.linear.weight":{"values":[2,3,18,54,132,261,435,615,667,728,792,950,946,913,723,511,266,115,45,32,83,227,489,822,872,856,860,1294,3024,7598,12818,10626,4829,1968,1187,838,515,279,293,451,706,868,788,535,259,111,28,12,34,71,165,271,461,550,607,631,591,358,207,98,37,9,1,1],"bins":[-2.0922040939331055,-2.0241875648498535,-1.9561710357666016,-1.88815438747406,-1.820137858390808,-1.7521213293075562,-1.6841048002243042,-1.6160882711410522,-1.5480716228485107,-1.4800550937652588,-1.4120385646820068,-1.3440220355987549,-1.276005506515503,-1.207988977432251,-1.1399723291397095,-1.0719558000564575,-1.0039392709732056,-0.9359227418899536,-0.8679061532020569,-0.7998896241188049,-0.7318730354309082,-0.6638565063476562,-0.5958399772644043,-0.5278233885765076,-0.4598068594932556,-0.3917903006076813,-0.32377374172210693,-0.255757212638855,-0.18774065375328064,-0.1197241023182869,-0.05170755088329315,0.016309000551700592,0.08432555198669434,0.15234211087226868,0.22035865485668182,0.28837519884109497,0.3563917577266693,0.42440831661224365,0.4924248456954956,0.5604414343833923,0.6284579634666443,0.6964744925498962,0.764491081237793,0.8325076103210449,0.9005241394042969,0.9685407280921936,1.0365573167800903,1.1045738458633423,1.1725903749465942,1.2406069040298462,1.3086234331130981,1.3766400814056396,1.4446566104888916,1.5126731395721436,1.5806896686553955,1.6487061977386475,1.7167227268218994,1.784739375114441,1.8527559041976929,1.9207724332809448,1.9887889623641968,2.0568056106567383,2.1248221397399902,2.192838668823242,2.260855197906494],"_type":"histogram"}}