{"parameters/conv2.linear.weight":{"_type":"histogram","values":[2,3,9,24,48,90,158,272,426,503,576,570,511,388,256,149,72,37,28,58,110,208,376,565,678,805,1022,1490,2709,5478,9739,12309,10068,5887,2742,1348,822,477,250,109,46,19,3,4,5,19,26,74,142,241,338,460,504,561,525,419,323,207,133,64,27,18,4,2],"bins":[-1.0566390752792358,-1.0231364965438843,-0.9896339774131775,-0.9561314582824707,-0.9226288795471191,-0.8891263008117676,-0.8556237816810608,-0.822121262550354,-0.7886186838150024,-0.7551161050796509,-0.7216135859489441,-0.6881110668182373,-0.6546084880828857,-0.6211059093475342,-0.5876033902168274,-0.5541008710861206,-0.520598292350769,-0.48709574341773987,-0.4535931944847107,-0.4200906455516815,-0.38658809661865234,-0.35308554768562317,-0.319582998752594,-0.2860804498195648,-0.25257790088653564,-0.21907535195350647,-0.1855728030204773,-0.15207025408744812,-0.11856770515441895,-0.08506515622138977,-0.051562607288360596,-0.01806005835533142,0.015442371368408203,0.04894492030143738,0.08244746923446655,0.11595001816749573,0.1494525671005249,0.18295511603355408,0.21645766496658325,0.24996021389961243,0.2834627628326416,0.3169653117656708,0.35046786069869995,0.3839704096317291,0.4174729585647583,0.4509755074977875,0.48447805643081665,0.5179805755615234,0.551483154296875,0.5849857330322266,0.6184882521629333,0.6519907712936401,0.6854933500289917,0.7189959287643433,0.75249844789505,0.7860009670257568,0.8195035457611084,0.85300612449646,0.8865086436271667,0.9200111627578735,0.9535137414932251,0.9870163202285767,1.0205187797546387,1.0540213584899902,1.0875239372253418]},"gradients/conv1.linear.bias":{"_type":"histogram","values":[1,0,0,1,0,0,0,0,0,0,0,1,1,0,0,1,1,1,1,0,0,2,1,0,1,4,2,2,2,6,2,2,1,2,0,0,2,0,0,7,1,2,2,0,1,2,0,2,0,1,1,0,0,1,1,2,1,0,0,2,0,0,0,1],"bins":[-0.020729253068566322,-0.02014104835689068,-0.019552845507860184,-0.01896464079618454,-0.018376436084508896,-0.0177882332354784,-0.017200028523802757,-0.016611823812127113,-0.01602362096309662,-0.015435416251420975,-0.01484721153974533,-0.014259007759392262,-0.013670803979039192,-0.013082599267363548,-0.012494395487010479,-0.011906190775334835,-0.011317986994981766,-0.010729783214628696,-0.010141578502953053,-0.009553374722599983,-0.00896517001092434,-0.00837696623057127,-0.007788762450218201,-0.007200558204203844,-0.0066123539581894875,-0.006024149712175131,-0.005435945466160774,-0.004847741685807705,-0.004259537439793348,-0.0036713331937789917,-0.0030831291805952787,-0.0024949251674115658,-0.0019067227840423584,-0.0013185186544433236,-0.0007303145248442888,-0.00014211039524525404,0.00044609373435378075,0.0010342978639528155,0.0016225019935518503,0.0022107060067355633,0.00279891025274992,0.0033871144987642765,0.003975318744778633,0.004563522525131702,0.005151726771146059,0.005739931017160416,0.006328134797513485,0.006916339043527842,0.007504543289542198,0.008092747069895267,0.008680951781570911,0.00926915556192398,0.009857360273599625,0.010445564053952694,0.011033767834305763,0.011621972545981407,0.012210176326334476,0.012798380106687546,0.01338658481836319,0.013974788598716259,0.014562992379069328,0.015151197090744972,0.015739401802420616,0.01632760465145111,0.016915809363126755]},"gradients/fc.bias":{"values":[1,0,0,0,0,0,0,0,0,0,0,1,0,0,0,0,0,0,0,1,1,0,0,0,0,0,0,1,0,0,0,0,0,0,1,0,0,0,0,0,0,1,0,0,0,0,0,0,1,0,0,0,0,0,0,1,0,0,0,0,0,0,0,1],"bins":[-0.0641070306301117,-0.06211598962545395,-0.060124948620796204,-0.05813391134142876,-0.05614287033677101,-0.054151829332113266,-0.05216078832745552,-0.050169747322797775,-0.04817871004343033,-0.04618766903877258,-0.04419662803411484,-0.04220558702945709,-0.04021454602479935,-0.0382235050201416,-0.036232467740774155,-0.03424142673611641,-0.032250385731458664,-0.03025934472680092,-0.028268305584788322,-0.026277264580130577,-0.02428622543811798,-0.022295184433460236,-0.02030414342880249,-0.018313104286789894,-0.01632206328213215,-0.014331023208796978,-0.012339983135461807,-0.010348942130804062,-0.008357902057468891,-0.00636686198413372,-0.004375821445137262,-0.002384781138971448,-0.00039374083280563354,0.0015972994733601809,0.0035883397795259953,0.005579380318522453,0.007570420391857624,0.009561460465192795,0.01155250146985054,0.013543541543185711,0.015534581616520882,0.017525622621178627,0.019516661763191223,0.02150770276784897,0.023498743772506714,0.02548978291451931,0.027480823919177055,0.02947186306118965,0.0314629040658474,0.03345394507050514,0.03544498607516289,0.037436023354530334,0.03942706435918808,0.041418105363845825,0.04340914636850357,0.045400187373161316,0.04739122837781906,0.04938226565718651,0.051373306661844254,0.053364347666502,0.055355388671159744,0.05734642967581749,0.059337466955184937,0.06132850795984268,0.06331954896450043],"_type":"histogram"},"GPU Memory Used (MB)":412,"gradients/fc.weight":{"bins":[-113.82501220703125,-110.47453308105469,-107.1240463256836,-103.77356719970703,-100.42308044433594,-97.07260131835938,-93.72211456298828,-90.37163543701172,-87.02114868164062,-83.67066955566406,-80.3201904296875,-76.9697036743164,-73.61922454833984,-70.26873779296875,-66.91825866699219,-63.56777572631836,-60.21729278564453,-56.8668098449707,-53.516326904296875,-50.16584396362305,-46.81536102294922,-43.464881896972656,-40.11439895629883,-36.763916015625,-33.41343307495117,-30.062950134277344,-26.712467193603516,-23.36198616027832,-20.011503219604492,-16.661020278930664,-13.310538291931152,-9.96005630493164,-6.609580993652344,-3.259098529815674,0.0913839340209961,3.441866397857666,6.792348861694336,10.142831802368164,13.493313789367676,16.843795776367188,20.194278717041016,23.544761657714844,26.895244598388672,30.245725631713867,33.59620666503906,36.94668960571289,40.29717254638672,43.64765548706055,46.998138427734375,50.3486213684082,53.69910430908203,57.04958724975586,60.40007019042969,63.75054931640625,67.10103607177734,70.4515151977539,73.802001953125,77.15248107910156,80.50296020507812,83.85344696044922,87.20392608642578,90.55441284179688,93.90489196777344,97.25537872314453,100.6058578491211],"_type":"histogram","values":[1,0,0,0,1,0,0,0,1,1,1,0,0,1,0,1,1,3,5,4,0,2,2,3,1,2,4,6,5,10,7,8,18,391,55,18,8,11,16,9,8,5,7,3,5,4,3,1,2,2,0,0,0,0,0,0,0,0,0,1,2,0,0,1]},"gradients/conv1.linear.weight":{"_type":"histogram","values":[2,0,1,1,0,1,1,0,0,2,3,6,6,8,10,5,15,27,32,42,67,79,167,350,1314,13186,521,208,114,65,36,30,26,13,10,7,5,3,1,6,2,2,1,1,2,1,0,1,0,1,0,0,0,0,0,0,0,0,0,0,2,0,0,1],"bins":[-65.04242706298828,-62.462215423583984,-59.88200378417969,-57.301795959472656,-54.72158432006836,-52.14137268066406,-49.56116485595703,-46.980953216552734,-44.40074157714844,-41.82052993774414,-39.240318298339844,-36.66011047363281,-34.079898834228516,-31.49968719482422,-28.919477462768555,-26.33926773071289,-23.759056091308594,-21.178844451904297,-18.598634719848633,-16.01842498779297,-13.438213348388672,-10.858002662658691,-8.277791976928711,-5.6975812911987305,-3.11737060546875,-0.5371599197387695,2.043050765991211,4.623261451721191,7.203472137451172,9.783682823181152,12.363893508911133,14.944104194641113,17.524322509765625,20.104534149169922,22.684743881225586,25.26495361328125,27.845165252685547,30.425376892089844,33.005584716796875,35.58579635620117,38.16600799560547,40.746219635009766,43.32643127441406,45.906639099121094,48.48685073852539,51.06706237792969,53.64727020263672,56.227481842041016,58.80769348144531,61.38790512084961,63.968116760253906,66.54832458496094,69.1285400390625,71.70874786376953,74.28895568847656,76.86917114257812,79.44937896728516,82.02958679199219,84.60980224609375,87.19001007080078,89.77021789550781,92.35043334960938,94.9306411743164,97.51085662841797,100.091064453125]},"gradients/conv3.linear.weight":{"values":[1,1,1,1,2,2,3,2,4,5,9,9,12,11,20,17,26,23,27,45,92,140,266,542,1285,17465,42887,1396,504,249,148,83,57,51,40,18,14,10,10,4,3,7,3,5,5,4,5,2,2,6,1,1,2,1,0,4,0,1,0,1,0,0,0,1],"bins":[-10.054465293884277,-9.668013572692871,-9.281561851501465,-8.895110130310059,-8.508657455444336,-8.12220573425293,-7.735754013061523,-7.349302291870117,-6.962850570678711,-6.576398849487305,-6.189947128295898,-5.803494930267334,-5.417043209075928,-5.0305914878845215,-4.644139289855957,-4.257687568664551,-3.8712358474731445,-3.4847841262817383,-3.098332166671753,-2.7118802070617676,-2.3254284858703613,-1.9389766454696655,-1.5525248050689697,-1.166072964668274,-0.7796211242675781,-0.3931692838668823,-0.0067174434661865234,0.3797343969345093,0.7661862373352051,1.1526380777359009,1.5390899181365967,1.9255417585372925,2.311992645263672,2.698444366455078,3.0848963260650635,3.471348285675049,3.857800006866455,4.244251728057861,4.630703926086426,5.017155647277832,5.403607368469238,5.7900590896606445,6.176510810852051,6.562963008880615,6.9494147300720215,7.335866451263428,7.722318649291992,8.108770370483398,8.495222091674805,8.881673812866211,9.268125534057617,9.654577255249023,10.04102897644043,10.427481651306152,10.813933372497559,11.200385093688965,11.586836814880371,11.973288536071777,12.359740257263184,12.74619197845459,13.132644653320312,13.519096374511719,13.905548095703125,14.291999816894531,14.678451538085938],"_type":"histogram"},"parameters/conv3.linear.bias":{"bins":[-7.491940021514893,-7.375106334686279,-7.258272171020508,-7.1414384841918945,-7.024604320526123,-6.90777063369751,-6.790936470031738,-6.674102783203125,-6.5572686195373535,-6.44043493270874,-6.323600769042969,-6.2067670822143555,-6.089932918548584,-5.973099231719971,-5.856265068054199,-5.739431381225586,-5.622597694396973,-5.505763530731201,-5.388929843902588,-5.272095680236816,-5.155261993408203,-5.038427829742432,-4.921594142913818,-4.804759979248047,-4.687926292419434,-4.571092128753662,-4.454258441925049,-4.337424278259277,-4.220590591430664,-4.103756427764893,-3.9869227409362793,-3.870088815689087,-3.7532551288604736,-3.6364212036132812,-3.519587278366089,-3.4027533531188965,-3.285919427871704,-3.1690855026245117,-3.0522515773773193,-2.935417652130127,-2.8185837268829346,-2.701749801635742,-2.58491587638855,-2.4680819511413574,-2.351248025894165,-2.2344141006469727,-2.1175804138183594,-2.000746488571167,-1.883912444114685,-1.7670785188674927,-1.6502447128295898,-1.5334107875823975,-1.416576862335205,-1.2997429370880127,-1.1829090118408203,-1.066075086593628,-0.9492412209510803,-0.8324072957038879,-0.7155733704566956,-0.5987394452095032,-0.4819055497646332,-0.3650716543197632,-0.2482377290725708,-0.1314038187265396,-0.014569912105798721],"_type":"histogram","values":[3,0,1,2,0,1,1,0,0,0,0,2,0,0,0,1,0,0,2,1,0,1,0,2,1,2,2,1,0,0,0,1,1,2,4,0,2,0,2,1,1,1,2,0,1,3,1,1,0,1,0,1,1,1,2,1,2,1,0,0,1,2,0,5]},"parameters/conv3.linear.weight":{"values":[3,2,3,14,15,40,58,82,120,183,233,386,535,690,759,882,963,909,758,607,486,361,318,376,495,707,1021,1713,3216,5977,9380,10115,7714,4293,2021,1182,897,740,748,642,600,485,368,274,240,272,335,413,495,447,489,388,376,238,161,98,63,67,33,25,12,7,4,2],"bins":[-0.9926109910011292,-0.960853099822998,-0.9290952086448669,-0.8973373174667358,-0.86557936668396,-0.8338214755058289,-0.8020635843276978,-0.7703056931495667,-0.7385478019714355,-0.7067899107933044,-0.6750320196151733,-0.6432741284370422,-0.6115162372589111,-0.5797582864761353,-0.5480003952980042,-0.516242504119873,-0.48448461294174194,-0.45272672176361084,-0.42096883058547974,-0.38921090960502625,-0.35745301842689514,-0.32569512724876404,-0.29393720626831055,-0.26217931509017944,-0.23042142391204834,-0.19866353273391724,-0.16690562665462494,-0.13514772057533264,-0.10338982939720154,-0.07163193076848984,-0.03987403213977814,-0.008116133511066437,0.02364182472229004,0.05539972335100174,0.08715762197971344,0.11891552060842514,0.15067341923713684,0.18243131041526794,0.21418921649456024,0.24594712257385254,0.27770501375198364,0.30946290493011475,0.34122079610824585,0.37297871708869934,0.40473660826683044,0.43649449944496155,0.46825242042541504,0.5000103116035461,0.5317682027816772,0.5635260939598083,0.5952839851379395,0.6270418763160706,0.6587997674942017,0.6905577182769775,0.7223156094551086,0.7540735006332397,0.7858313918113708,0.817589282989502,0.8493471741676331,0.8811050653457642,0.91286301612854,0.9446209073066711,0.9763787984848022,1.0081366300582886,1.0398945808410645],"_type":"histogram"},"ROC-AUC Curve":{"height":600,"_type":"image-file","sha256":"4381d6aa6d3527c8f3f4ebfa35e3d79cf215afa13d7e69223880d1b66dbeef6b","size":144145,"path":"media/images/ROC-AUC Curve_22_4381d6aa6d3527c8f3f4.png","format":"png","width":800},"_wandb":{"runtime":368},"Training Accuracy":0.10354066506410256,"parameters/conv2.linear.bias":{"_type":"histogram","values":[1,0,0,0,0,0,0,0,1,0,0,0,1,0,1,0,0,0,2,0,1,1,2,3,3,0,2,0,1,2,1,0,4,4,3,3,1,0,3,2,0,2,3,1,3,1,3,3,0,0,0,0,1,1,0,2,0,0,0,0,1,0,0,1],"bins":[-4.126000881195068,-4.100020408630371,-4.074039459228516,-4.048058986663818,-4.022078514099121,-3.9960978031158447,-3.9701170921325684,-3.944136381149292,-3.9181556701660156,-3.8921751976013184,-3.866194486618042,-3.8402137756347656,-3.8142333030700684,-3.788252592086792,-3.7622718811035156,-3.7362914085388184,-3.710310697555542,-3.6843299865722656,-3.6583495140075684,-3.632368803024292,-3.6063880920410156,-3.5804076194763184,-3.554426908493042,-3.5284461975097656,-3.5024657249450684,-3.476485013961792,-3.4505043029785156,-3.4245235919952393,-3.398543119430542,-3.3725624084472656,-3.3465816974639893,-3.320601224899292,-3.2946205139160156,-3.2686398029327393,-3.242659330368042,-3.2166786193847656,-3.1906979084014893,-3.164717435836792,-3.1387367248535156,-3.1127560138702393,-3.086775302886963,-3.0607948303222656,-3.0348141193389893,-3.008833408355713,-2.9828529357910156,-2.9568722248077393,-2.930891513824463,-2.9049110412597656,-2.8789303302764893,-2.852949619293213,-2.8269691467285156,-2.8009884357452393,-2.775007724761963,-2.7490272521972656,-2.7230465412139893,-2.697065830230713,-2.6710853576660156,-2.6451046466827393,-2.619123935699463,-2.5931432247161865,-2.5671627521514893,-2.541182041168213,-2.5152013301849365,-2.4892208576202393,-2.463240146636963]},"parameters/conv1.linear.weight":{"_type":"histogram","values":[5,10,7,15,35,30,37,44,43,42,61,60,49,62,60,88,75,67,56,43,51,41,66,79,123,188,331,650,1206,2154,3072,2842,1831,922,526,267,145,97,79,58,46,52,50,36,41,49,42,51,48,49,33,39,36,33,30,29,24,16,23,13,9,6,5,7],"bins":[-1.0726698637008667,-1.0378940105438232,-1.0031182765960693,-0.9683424830436707,-0.933566689491272,-0.8987908959388733,-0.8640151023864746,-0.8292393088340759,-0.7944635152816772,-0.7596877217292786,-0.7249119281768799,-0.6901361346244812,-0.6553603410720825,-0.6205845475196838,-0.5858087539672852,-0.5510329604148865,-0.5162571668624878,-0.4814813733100891,-0.44670557975769043,-0.41192978620529175,-0.37715399265289307,-0.3423781991004944,-0.3076024055480957,-0.272826611995697,-0.23805081844329834,-0.20327502489089966,-0.16849923133850098,-0.1337234377861023,-0.09894764423370361,-0.06417185068130493,-0.02939605712890625,0.005379736423492432,0.040155649185180664,0.07493144273757935,0.10970723628997803,0.1444830298423767,0.1792588233947754,0.21403461694717407,0.24881041049957275,0.28358620405197144,0.3183619976043701,0.3531377911567688,0.3879135847091675,0.42268937826156616,0.45746517181396484,0.4922409653663635,0.5270167589187622,0.5617925524711609,0.5965683460235596,0.6313441395759583,0.6661199331283569,0.7008957266807556,0.7356715202331543,0.770447313785553,0.8052231073379517,0.8399989008903503,0.874774694442749,0.9095504879951477,0.9443262815475464,0.9791020750999451,1.0138778686523438,1.0486536026000977,1.0834294557571411,1.1182053089141846,1.1529810428619385]},"_step":22,"gradients/conv3.linear.bias":{"_type":"histogram","values":[1,0,0,0,0,0,0,2,2,2,3,1,0,1,0,1,2,0,2,2,2,2,1,1,3,3,1,3,1,1,1,3,0,2,3,1,2,1,2,3,0,1,0,1,0,0,2,2,0,1,0,1,0,0,0,0,0,0,0,0,0,0,0,1],"bins":[-0.00027334538754075766,-0.00026133196661248803,-0.0002493185456842184,-0.00023730509565211833,-0.0002252916747238487,-0.00021327825379557908,-0.00020126481831539422,-0.00018925138283520937,-0.00017723796190693974,-0.00016522454097867012,-0.00015321110549848527,-0.00014119767001830041,-0.0001291842490900308,-0.00011717082088580355,-0.00010515739268157631,-9.314396447734907e-05,-8.113053627312183e-05,-6.91171080688946e-05,-5.7103679864667356e-05,-4.509025166044012e-05,-3.307682345621288e-05,-2.106339525198564e-05,-9.0499670477584e-06,2.9634611564688385e-06,1.4976889360696077e-05,2.6990317564923316e-05,3.9003745769150555e-05,5.1017173973377794e-05,6.303060217760503e-05,7.504403038183227e-05,8.705745858605951e-05,9.907088679028675e-05,0.00011108431499451399,0.0001230977359227836,0.00013511117140296847,0.00014712460688315332,0.00015913802781142294,0.00017115144873969257,0.00018316488421987742,0.00019517831970006227,0.0002071917406283319,0.00021920516155660152,0.00023121859703678638,0.00024323203251697123,0.00025524545344524086,0.0002672588743735105,0.00027927232440561056,0.0002912857453338802,0.0003032991662621498,0.00031531258719041944,0.00032732600811868906,0.00033933945815078914,0.00035135287907905877,0.0003633663000073284,0.00037537975003942847,0.0003873931709676981,0.0003994065918959677,0.00041142001282423735,0.00042343343375250697,0.00043544688378460705,0.0004474603047128767,0.0004594737256411463,0.0004714871756732464,0.000483500596601516,0.0004955140175297856]},"_runtime":367.713837258,"gradients/conv2.linear.bias":{"values":[2,0,0,0,1,0,0,1,0,0,0,0,1,0,0,0,1,0,0,0,0,1,0,4,2,2,3,2,3,1,5,4,5,2,4,2,0,1,2,0,0,1,1,1,2,0,1,0,3,0,2,0,0,0,0,0,0,1,1,0,1,0,0,1],"bins":[-0.0009427617769688368,-0.0009099881281144917,-0.0008772144792601466,-0.0008444408886134624,-0.0008116672397591174,-0.0007788935909047723,-0.0007461200002580881,-0.000713346351403743,-0.0006805727025493979,-0.0006477990536950529,-0.0006150254048407078,-0.0005822518141940236,-0.0005494781653396785,-0.0005167045164853334,-0.0004839308967348188,-0.0004511572769843042,-0.0004183836281299591,-0.000385609979275614,-0.0003528363595250994,-0.00032006273977458477,-0.0002872890909202397,-0.0002545154420658946,-0.00022174182231537998,-0.00018896818801295012,-0.00015619455371052027,-0.0001234209194080904,-9.064728510566056e-05,-5.78736508032307e-05,-2.5100016500800848e-05,7.673617801629007e-06,4.044725210405886e-05,7.322088640648872e-05,0.0001059946371242404,0.00013876827142667025,0.0001715419057291001,0.00020431554003152996,0.00023708917433395982,0.0002698628231883049,0.00030263644293881953,0.00033541006268933415,0.00036818371154367924,0.0004009573603980243,0.00043373098014853895,0.0004665045998990536,0.0004992782487533987,0.0005320518976077437,0.0005648254882544279,0.000597599137108773,0.0006303727859631181,0.0006631464348174632,0.0006959200836718082,0.0007286936743184924,0.0007614673231728375,0.0007942409720271826,0.0008270145626738667,0.0008597882115282118,0.0008925618603825569,0.000925335509236902,0.0009581091580912471,0.0009908827487379313,0.0010236564557999372,0.0010564300464466214,0.0010892036370933056,0.0011219773441553116,0.0011547509348019958],"_type":"histogram"},"Validation Accuracy":0.09905849358974358,"parameters/fc.weight":{"values":[1,0,0,0,2,1,0,0,0,2,0,5,3,4,5,3,5,4,10,6,9,17,6,13,18,18,22,29,17,22,27,29,37,31,31,21,23,24,16,30,19,15,20,18,12,10,11,7,4,3,4,2,2,9,4,2,2,0,1,2,1,0,0,1],"bins":[-0.05555018410086632,-0.052889835089445114,-0.05022948607802391,-0.04756913706660271,-0.0449087880551815,-0.0422484390437603,-0.039588090032339096,-0.03692774102091789,-0.03426739573478699,-0.031607046723365784,-0.02894669584929943,-0.026286346837878227,-0.023625999689102173,-0.02096565067768097,-0.018305301666259766,-0.015644952654838562,-0.012984603643417358,-0.010324254631996155,-0.0076639060862362385,-0.005003557540476322,-0.0023432085290551186,0.0003171402495354414,0.0029774890281260014,0.005637837573885918,0.008298186585307121,0.010958535596728325,0.013618884608149529,0.016279233619570732,0.018939580768346786,0.02159992977976799,0.024260278791189194,0.026920627802610397,0.0295809805393219,0.0322413295507431,0.03490167856216431,0.03756202757358551,0.040222376585006714,0.04288272559642792,0.04554307460784912,0.048203423619270325,0.05086377263069153,0.053524117916822433,0.05618446692824364,0.05884481593966484,0.061505164951086044,0.06416551768779755,0.06682586669921875,0.06948621571063995,0.07214656472206116,0.07480690628290176,0.07746725529432297,0.08012760430574417,0.08278795331716537,0.08544830232858658,0.08810865134000778,0.09076900035142899,0.09342934936285019,0.09608969837427139,0.0987500473856926,0.1014103963971138,0.104070745408535,0.10673109441995621,0.10939144343137741,0.11205179244279861,0.11471214145421982],"_type":"histogram"},"Validation Loss":3109.249291481116,"parameters/fc.bias":{"values":[1,0,0,0,0,0,0,0,0,0,0,0,0,0,0,0,0,0,0,0,0,0,0,0,0,0,0,0,0,0,0,0,0,0,0,0,1,0,0,0,0,0,0,0,0,0,0,0,0,0,0,0,0,2,0,0,0,1,0,0,1,0,3,1],"bins":[-0.5460715293884277,-0.5340650081634521,-0.5220584869384766,-0.5100519061088562,-0.4980453848838806,-0.48603886365890503,-0.47403231263160706,-0.4620257616043091,-0.4500192403793335,-0.4380127191543579,-0.42600616812705994,-0.41399961709976196,-0.4019930958747864,-0.3899865746498108,-0.3779800236225128,-0.36597347259521484,-0.35396695137023926,-0.34196043014526367,-0.3299538791179657,-0.3179473280906677,-0.30594080686569214,-0.29393428564071655,-0.2819277346134186,-0.2699211835861206,-0.257914662361145,-0.24590812623500824,-0.23390159010887146,-0.22189505398273468,-0.2098885178565979,-0.19788198173046112,-0.18587544560432434,-0.17386890947818756,-0.16186237335205078,-0.149855837225914,-0.13784930109977722,-0.12584276497364044,-0.11383622884750366,-0.10182969272136688,-0.0898231565952301,-0.07781662046909332,-0.06581008434295654,-0.05380354821681976,-0.04179701209068298,-0.029790475964546204,-0.017783939838409424,-0.005777403712272644,0.006229132413864136,0.018235668540000916,0.030242204666137695,0.042248740792274475,0.054255276918411255,0.06626181304454803,0.07826834917068481,0.0902748852968216,0.10228142142295837,0.11428795754909515,0.12629449367523193,0.1383010298013687,0.1503075659275055,0.16231410205364227,0.17432063817977905,0.18632717430591583,0.1983337104320526,0.2103402465581894,0.22234678268432617],"_type":"histogram"},"parameters/conv1.linear.bias":{"_type":"histogram","values":[1,0,2,0,0,1,0,1,1,0,0,1,3,1,1,2,0,1,3,3,1,1,2,2,3,4,0,2,2,2,0,3,2,2,0,0,1,2,0,3,0,1,1,0,0,0,2,1,0,0,2,1,0,0,0,1,1,0,0,0,0,0,0,1],"bins":[-1.5813201665878296,-1.574074625968933,-1.5668292045593262,-1.5595836639404297,-1.5523381233215332,-1.5450925827026367,-1.5378471612930298,-1.5306016206741333,-1.5233560800552368,-1.5161106586456299,-1.5088651180267334,-1.501619577407837,-1.49437415599823,-1.4871286153793335,-1.479883074760437,-1.4726375341415405,-1.4653921127319336,-1.458146572113037,-1.4509010314941406,-1.4436556100845337,-1.4364100694656372,-1.4291645288467407,-1.4219191074371338,-1.4146735668182373,-1.4074280261993408,-1.4001824855804443,-1.3929370641708374,-1.385691523551941,-1.3784459829330444,-1.3712005615234375,-1.363955020904541,-1.3567094802856445,-1.349463939666748,-1.3422185182571411,-1.3349729776382446,-1.3277274370193481,-1.3204820156097412,-1.3132364749908447,-1.3059909343719482,-1.2987455129623413,-1.2914999723434448,-1.2842544317245483,-1.2770088911056519,-1.269763469696045,-1.2625179290771484,-1.255272388458252,-1.248026967048645,-1.2407814264297485,-1.233535885810852,-1.2262904644012451,-1.2190449237823486,-1.2117993831634521,-1.2045538425445557,-1.1973084211349487,-1.1900628805160522,-1.1828173398971558,-1.1755719184875488,-1.1683263778686523,-1.1610808372497559,-1.153835415840149,-1.1465898752212524,-1.139344334602356,-1.1320987939834595,-1.1248533725738525,-1.117607831954956]},"Gradient Norm":1.0885447372710095e+06,"Training Loss":1961.987955382237,"Epoch":22,"Confusion Matrix":{"path":"media/images/Confusion Matrix_22_5c05c1bae983cd417475.png","format":"png","width":1500,"height":1500,"_type":"image-file","sha256":"5c05c1bae983cd41747532c7c52411ff697bc681ae4ea44f238ddba4fb863b12","size":99794},"Confusion Matrix Table":{"_type":"table-file","sha256":"cdbf3175d361ea444601a773fedbd170ce37a1b6a6c1aac3fbb4d4d750e01530","size":1292,"artifact_path":"wandb-client-artifact://xzln4p0rgac1d5lsq8x1qrlgkj1fe6hgoaz7k2q2diz1f4po6adrbi3lcbjb93v4l59cdm46t0brttco6lyczrqt2vfafw4saoe59e1ie109j0gpd5fto2ust615nq6e/Confusion Matrix Table.table.json","_latest_artifact_path":"wandb-client-artifact://ofpacqrpz1vmv9qen64vppzy2sy4r1hc4vt5j18yfpq1smcujaozy1wyqxgt0x9fixmkvqfqodf68cva4crsbd50dvef9h783utx6tmst3b504vwkftghdsj1gxjhbxr:latest/Confusion Matrix Table.table.json","path":"media/table/Confusion Matrix Table_22_cdbf3175d361ea444601.table.json","ncols":5,"nrows":12},"gradients/conv2.linear.weight":{"bins":[-21.602811813354492,-20.901321411132812,-20.199831008911133,-19.498340606689453,-18.796850204467773,-18.095359802246094,-17.393869400024414,-16.692378997802734,-15.990889549255371,-15.289399147033691,-14.587908744812012,-13.886418342590332,-13.184928894042969,-12.483438491821289,-11.78194808959961,-11.08045768737793,-10.37896728515625,-9.67747688293457,-8.97598648071289,-8.274496078491211,-7.5730061531066895,-6.87151575088501,-6.170025825500488,-5.468535423278809,-4.767045021057129,-4.065554618835449,-3.3640644550323486,-2.662574291229248,-1.9610838890075684,-1.2595936059951782,-0.5581033229827881,0.14338696002960205,0.8448753356933594,1.5463656187057495,2.2478559017181396,2.9493460655212402,3.65083646774292,4.3523268699646,5.053816795349121,5.755307197570801,6.4567975997924805,7.15828800201416,7.85977840423584,8.56126880645752,9.262758255004883,9.964248657226562,10.665739059448242,11.367229461669922,12.068719863891602,12.770210266113281,13.471700668334961,14.17319107055664,14.87468147277832,15.576170921325684,16.27766227722168,16.97915267944336,17.680641174316406,18.382131576538086,19.083621978759766,19.785112380981445,20.486602783203125,21.188093185424805,21.889583587646484,22.591073989868164,23.292564392089844],"_type":"histogram","values":[1,0,1,0,1,1,1,1,0,2,1,1,3,2,5,6,4,11,10,16,18,31,44,73,88,161,213,397,849,2389,50740,7635,1332,652,324,187,106,70,37,35,27,13,11,7,3,10,5,2,3,1,1,1,0,2,0,0,0,0,0,0,0,0,0,2]},"_timestamp":1.744993611020686e+09}