{"Training Loss":106.66648126259828,"parameters/conv1.linear.bias":{"bins":[-0.6375462412834167,-0.6320304870605469,-0.6265146732330322,-0.6209989190101624,-0.6154831647872925,-0.6099674105644226,-0.604451596736908,-0.5989358425140381,-0.5934200882911682,-0.5879043340682983,-0.5823885202407837,-0.5768727660179138,-0.571357011795044,-0.5658412575721741,-0.5603254437446594,-0.5548096895217896,-0.5492939352989197,-0.5437781810760498,-0.5382623672485352,-0.5327466130256653,-0.5272308588027954,-0.5217151045799255,-0.5161992907524109,-0.510683536529541,-0.5051677823066711,-0.4996519982814789,-0.494136244058609,-0.48862046003341675,-0.4831047058105469,-0.4775889217853546,-0.47207316756248474,-0.4665573835372925,-0.4610416293144226,-0.45552584528923035,-0.4500100612640381,-0.4444943070411682,-0.43897852301597595,-0.4334627687931061,-0.4279469847679138,-0.42243123054504395,-0.4169154465198517,-0.4113996922969818,-0.40588390827178955,-0.4003681540489197,-0.3948523700237274,-0.38933661580085754,-0.3838208317756653,-0.3783050775527954,-0.37278929352760315,-0.3672735393047333,-0.361757755279541,-0.35624200105667114,-0.3507262170314789,-0.345210462808609,-0.33969467878341675,-0.3341789245605469,-0.3286631405353546,-0.32314738631248474,-0.3176316022872925,-0.3121158480644226,-0.30660006403923035,-0.3010843098163605,-0.2955685257911682,-0.29005277156829834,-0.2845369875431061],"_type":"histogram","values":[1,0,0,0,0,1,0,0,0,2,0,0,0,3,1,0,0,2,1,1,0,1,1,3,2,3,0,0,0,1,2,2,2,1,4,1,4,2,6,0,2,2,1,1,1,1,1,3,1,0,1,0,0,1,1,0,0,0,0,0,0,0,0,1]},"gradients/conv1.linear.weight":{"values":[1,0,0,0,1,0,0,0,0,0,0,0,1,2,0,0,1,2,1,2,0,2,2,5,8,10,13,20,30,27,30,60,90,121,344,13453,1497,246,138,79,41,32,26,18,16,8,7,15,7,5,4,6,2,2,1,2,1,0,2,0,1,0,0,2],"bins":[-900.160400390625,-875.0725708007812,-849.9846801757812,-824.8968505859375,-799.8089599609375,-774.7211303710938,-749.63330078125,-724.54541015625,-699.4575805664062,-674.3697509765625,-649.2818603515625,-624.1940307617188,-599.106201171875,-574.018310546875,-548.9304809570312,-523.8425903320312,-498.7547607421875,-473.6669006347656,-448.57904052734375,-423.4912109375,-398.4033508300781,-373.31549072265625,-348.2276611328125,-323.1398010253906,-298.05194091796875,-272.9640808105469,-247.87623596191406,-222.78839111328125,-197.70053100585938,-172.6126708984375,-147.5248260498047,-122.43697357177734,-97.34906005859375,-72.2612075805664,-47.17335510253906,-22.08550262451172,3.002349853515625,28.09020233154297,53.17805480957031,78.26590728759766,103.353759765625,128.44161987304688,153.5294647216797,178.6173095703125,203.70516967773438,228.79302978515625,253.88087463378906,278.9687194824219,304.05657958984375,329.1444396972656,354.2322998046875,379.32012939453125,404.4079895019531,429.495849609375,454.58367919921875,479.6715393066406,504.7593994140625,529.8472290039062,554.9351196289062,580.02294921875,605.11083984375,630.1986694335938,655.2864990234375,680.3743896484375,705.4622192382812],"_type":"histogram"},"gradients/conv3.linear.bias":{"bins":[-0.0008311327546834946,-0.0008080202387645841,-0.0007849076646380126,-0.0007617951487191021,-0.0007386825745925307,-0.0007155700586736202,-0.0006924574845470488,-0.0006693449686281383,-0.0006462323945015669,-0.0006231198785826564,-0.0006000073626637459,-0.0005768947885371745,-0.000553782272618264,-0.0005306696984916925,-0.000507557182572782,-0.0004844446375500411,-0.0004613320925273001,-0.00043821954750455916,-0.0004151070024818182,-0.00039199445745907724,-0.0003688819124363363,-0.0003457693965174258,-0.0003226568514946848,-0.00029954430647194386,-0.0002764317614492029,-0.00025331921642646194,-0.00023020667140372097,-0.00020709414093289524,-0.00018398159591015428,-0.00016086905088741332,-0.0001377565204165876,-0.00011464397539384663,-9.153148857876658e-05,-6.841894355602562e-05,-4.530640580924228e-05,-2.2193864424480125e-05,9.186769602820277e-07,2.403121834504418e-05,4.7143759729806334e-05,7.025629747658968e-05,9.336884249933064e-05,0.0001164813875220716,0.00013959393254481256,0.0001627064630156383,0.00018581900803837925,0.0002089315530611202,0.00023204408353194594,0.0002551566285546869,0.00027826917357742786,0.0003013817186001688,0.0003244942636229098,0.00034760680864565074,0.0003707193536683917,0.0003938318695873022,0.00041694441461004317,0.00044005695963278413,0.0004631695046555251,0.00048628204967826605,0.0005093945655971766,0.000532507139723748,0.0005556196556426585,0.0005787322297692299,0.0006018447456881404,0.0006249573198147118,0.0006480698357336223],"_type":"histogram","values":[1,0,0,0,0,0,0,0,0,0,0,0,0,0,0,0,0,0,1,0,0,0,0,0,0,1,0,0,1,2,3,1,2,3,7,1,4,8,5,6,5,3,1,3,1,1,0,1,0,1,0,0,1,0,0,0,0,0,0,0,0,0,0,1]},"_wandb":{"runtime":171},"gradients/conv2.linear.weight":{"bins":[-223.74581909179688,-215.50082397460938,-207.25582885742188,-199.01083374023438,-190.76583862304688,-182.52084350585938,-174.27584838867188,-166.03085327148438,-157.78585815429688,-149.54086303710938,-141.29586791992188,-133.05087280273438,-124.80587768554688,-116.56088256835938,-108.31588745117188,-100.07089233398438,-91.82589721679688,-83.58090209960938,-75.33590698242188,-67.09091186523438,-58.845916748046875,-50.600921630859375,-42.355926513671875,-34.110931396484375,-25.865936279296875,-17.620941162109375,-9.375946044921875,-1.130950927734375,7.114044189453125,15.359039306640625,23.604034423828125,31.849029541015625,40.093994140625,48.3389892578125,56.583984375,64.8289794921875,73.073974609375,81.3189697265625,89.56396484375,97.8089599609375,106.053955078125,114.2989501953125,122.5439453125,130.7889404296875,139.033935546875,147.2789306640625,155.52392578125,163.7689208984375,172.013916015625,180.2589111328125,188.50390625,196.7489013671875,204.993896484375,213.2388916015625,221.48388671875,229.7288818359375,237.973876953125,246.2188720703125,254.4638671875,262.7088623046875,270.953857421875,279.1988525390625,287.44384765625,295.6888427734375,303.933837890625],"_type":"histogram","values":[1,0,1,0,1,0,3,2,3,4,3,4,9,6,11,20,14,44,59,69,130,185,325,540,955,1906,8845,47122,2607,1102,612,335,216,148,89,46,37,18,16,10,8,8,6,2,1,4,2,1,2,0,0,3,0,0,0,0,0,0,0,0,0,0,0,1]},"gradients/fc.weight":{"values":[1,0,0,0,0,0,1,1,1,2,2,0,3,1,3,4,2,4,6,3,5,3,5,0,6,4,6,5,13,9,21,20,21,20,198,75,33,30,16,18,12,9,13,9,7,4,6,4,5,5,3,1,5,4,2,1,2,0,0,2,0,1,2,1],"bins":[-851.49609375,-827.1427001953125,-802.7893676757812,-778.4359741210938,-754.0826416015625,-729.729248046875,-705.3759155273438,-681.0225219726562,-656.669189453125,-632.3157958984375,-607.96240234375,-583.6090698242188,-559.2556762695312,-534.90234375,-510.5489501953125,-486.1955871582031,-461.84222412109375,-437.4888610839844,-413.135498046875,-388.7821350097656,-364.42877197265625,-340.07537841796875,-315.7220153808594,-291.36865234375,-267.0152893066406,-242.66192626953125,-218.30856323242188,-193.95518493652344,-169.60182189941406,-145.2484588623047,-120.89508819580078,-96.54171752929688,-72.1883544921875,-47.83498764038086,-23.48162078857422,0.8717460632324219,25.225112915039062,49.5784797668457,73.93184661865234,98.28521728515625,122.63858032226562,146.991943359375,171.34530639648438,195.6986846923828,220.0520477294922,244.40541076660156,268.7587890625,293.1121520996094,317.46551513671875,341.8188781738281,366.1722412109375,390.5256042480469,414.87896728515625,439.23236083984375,463.5857238769531,487.9390869140625,512.29248046875,536.6458129882812,560.9992065429688,585.3525390625,609.7059326171875,634.0592651367188,658.4126586914062,682.7659912109375,707.119384765625],"_type":"histogram"},"Confusion Matrix":{"height":1500,"_type":"image-file","sha256":"b301b4a5a4bbf6a5f5fb592cceae70ab8228baec0c84cdc5e373ce2865bc4546","size":103977,"path":"media/images/Confusion Matrix_35_b301b4a5a4bbf6a5f5fb.png","format":"png","width":1500},"Epoch":35,"Gradient Norm":4825.959331067111,"parameters/conv1.linear.weight":{"_type":"histogram","values":[1,1,1,2,1,4,10,14,17,11,29,40,39,44,51,60,63,68,72,88,97,103,134,183,247,435,591,818,1095,1417,1606,1702,1673,1457,1135,840,576,410,262,192,106,91,64,68,53,56,59,39,43,44,35,29,23,26,16,12,6,8,7,4,1,2,1,2],"bins":[-0.4800982177257538,-0.4649004638195038,-0.4497027099132538,-0.4345049262046814,-0.4193071722984314,-0.4041094183921814,-0.3889116644859314,-0.3737139105796814,-0.3585161566734314,-0.343318372964859,-0.328120619058609,-0.312922865152359,-0.297725111246109,-0.282527357339859,-0.2673295736312866,-0.2521318197250366,-0.23693406581878662,-0.22173631191253662,-0.20653854310512543,-0.19134078919887543,-0.17614302039146423,-0.16094526648521423,-0.14574751257896423,-0.13054974377155304,-0.11535198986530304,-0.10015422850847244,-0.08495646715164185,-0.06975871324539185,-0.05456095188856125,-0.03936319053173065,-0.024165432900190353,-0.008967673406004906,0.006230086088180542,0.02142784558236599,0.03662560507655144,0.051823362708091736,0.06702112406492233,0.08221888542175293,0.09741663932800293,0.11261440068483353,0.12781216204166412,0.14300991594791412,0.15820768475532532,0.17340543866157532,0.18860319256782532,0.2038009613752365,0.2189987152814865,0.2341964840888977,0.2493942379951477,0.2645919919013977,0.2797897458076477,0.2949875295162201,0.3101852834224701,0.3253830373287201,0.3405807912349701,0.3557785451412201,0.3709763288497925,0.3861740827560425,0.4013718366622925,0.4165695905685425,0.4317673444747925,0.4469650983810425,0.46216288208961487,0.47736063599586487,0.49255838990211487]},"Confusion Matrix Table":{"sha256":"172ebdc74bd2ae88bec9adbcdc50893dd02b80d529faa2686f8dc8c51d0a41e3","size":1296,"artifact_path":"wandb-client-artifact://pjkydxe6l24kes2jgei8db87a3yzjim4wf703d17ixkqkh0py3giux53123f2fiieqbibre3j8a8sjwmpohunex6erj3yp8d70sdvla6t4v5xlaksm0cbj45za6jv6hw/Confusion Matrix Table.table.json","_latest_artifact_path":"wandb-client-artifact://dq1ui4zbvyuj3jq07wg5ci37pgfpp8xwrmn3g4dwuuwl4gexa8cgquwih5neyru7msz0dczytnos6ixhdykk8zo20omxs44oenstfjwr8m0ibexzvvywazeloo6r852z:latest/Confusion Matrix Table.table.json","path":"media/table/Confusion Matrix Table_35_172ebdc74bd2ae88bec9.table.json","ncols":5,"nrows":12,"_type":"table-file"},"parameters/conv3.linear.bias":{"_type":"histogram","values":[2,0,1,1,0,0,1,0,2,1,0,1,0,2,0,1,1,1,0,1,1,1,2,1,1,1,2,1,1,1,0,3,1,2,1,1,1,0,1,1,1,0,2,1,0,17,2,0,0,2,0,0,0,0,0,0,0,0,0,0,0,0,0,1],"bins":[-0.9372658133506775,-0.9168571829795837,-0.8964484930038452,-0.8760398626327515,-0.8556312322616577,-0.835222601890564,-0.8148139715194702,-0.7944052815437317,-0.7739966511726379,-0.7535880208015442,-0.7331793308258057,-0.7127707004547119,-0.6923620700836182,-0.6719534397125244,-0.6515448093414307,-0.6311361193656921,-0.6107274889945984,-0.5903188586235046,-0.5699101686477661,-0.5495015382766724,-0.5290929079055786,-0.5086842775344849,-0.4882756173610687,-0.4678669571876526,-0.44745832681655884,-0.4270496964454651,-0.40664103627204895,-0.3862323760986328,-0.36582374572753906,-0.3454151153564453,-0.3250064551830292,-0.30459779500961304,-0.2841891944408417,-0.26378053426742554,-0.2433719038963318,-0.22296325862407684,-0.2025546133518219,-0.18214596807956696,-0.161737322807312,-0.14132867753505707,-0.12092003226280212,-0.10051138699054718,-0.08010274171829224,-0.05969409644603729,-0.03928545117378235,-0.018876805901527405,0.001531839370727539,0.021940484642982483,0.04234912991523743,0.06275777518749237,0.08316642045974731,0.10357506573200226,0.1239837110042572,0.14439235627651215,0.1648010015487671,0.18520964682102203,0.20561829209327698,0.22602693736553192,0.24643558263778687,0.2668442130088806,0.28725287318229675,0.3076615333557129,0.32807016372680664,0.3484787940979004,0.36888745427131653]},"_runtime":171.137339159,"GPU Memory Used (MB)":2134,"parameters/conv2.linear.bias":{"values":[1,0,0,0,1,0,0,1,1,1,0,0,0,1,0,1,1,5,1,1,3,3,4,1,1,2,1,1,0,1,2,0,4,3,0,1,1,0,2,2,1,1,0,0,0,2,0,1,0,2,0,1,1,2,0,1,0,0,0,1,1,0,2,1],"bins":[-1.3879458904266357,-1.3798704147338867,-1.3717950582504272,-1.3637195825576782,-1.3556442260742188,-1.3475687503814697,-1.3394933938980103,-1.3314179182052612,-1.3233425617218018,-1.3152670860290527,-1.3071917295455933,-1.2991162538528442,-1.2910408973693848,-1.2829654216766357,-1.2748900651931763,-1.2668145895004272,-1.2587392330169678,-1.2506637573242188,-1.2425884008407593,-1.2345129251480103,-1.2264375686645508,-1.2183620929718018,-1.2102867364883423,-1.2022112607955933,-1.1941359043121338,-1.1860604286193848,-1.1779850721359253,-1.1699095964431763,-1.1618342399597168,-1.1537587642669678,-1.1456834077835083,-1.1376079320907593,-1.1295325756072998,-1.1214570999145508,-1.1133816242218018,-1.1053062677383423,-1.0972307920455933,-1.0891554355621338,-1.0810799598693848,-1.0730046033859253,-1.0649291276931763,-1.0568537712097168,-1.0487782955169678,-1.0407029390335083,-1.0326274633407593,-1.0245521068572998,-1.0164766311645508,-1.0084012746810913,-1.0003257989883423,-0.992250382900238,-0.9841749668121338,-0.9760995507240295,-0.9680241346359253,-0.959948718547821,-0.9518733024597168,-0.9437978863716125,-0.9357224702835083,-0.927647054195404,-0.9195716381072998,-0.9114962220191956,-0.9034208059310913,-0.8953453898429871,-0.8872699737548828,-0.8791945576667786,-0.8711191415786743],"_type":"histogram"},"gradients/conv2.linear.bias":{"_type":"histogram","values":[1,0,0,0,0,0,0,0,2,2,0,1,0,1,1,1,0,0,1,1,2,1,3,0,4,1,4,2,3,3,1,2,5,3,2,0,0,2,1,1,1,0,1,0,0,1,2,0,0,1,0,1,3,2,0,0,0,0,0,0,0,0,0,1],"bins":[-0.001430794596672058,-0.0013653155183419585,-0.0012998363235965371,-0.0012343572452664375,-0.0011688780505210161,-0.0011033989721909165,-0.0010379197774454951,-0.0009724406991153955,-0.000906961562577635,-0.0008414824260398746,-0.0007760032895021141,-0.0007105241529643536,-0.000645045074634254,-0.0005795659380964935,-0.000514086801558733,-0.0004486076650209725,-0.000383128528483212,-0.0003176493919454515,-0.000252170255407691,-0.00018669114797376096,-0.00012121201143600047,-5.5732882174197584e-05,9.746247087605298e-06,7.522537634940818e-05,0.00014070450561121106,0.00020618364214897156,0.00027166277868673205,0.0003371418861206621,0.0004026210226584226,0.0004681001591961831,0.0005335792666301131,0.0005990584031678736,0.0006645375397056341,0.0007300166762433946,0.0007954958127811551,0.0008609749493189156,0.0009264540858566761,0.0009919331641867757,0.001057412358932197,0.0011228914372622967,0.001188370632007718,0.0012538497103378177,0.0013193287886679173,0.0013848079834133387,0.0014502870617434382,0.0015157662564888597,0.0015812453348189592,0.0016467245295643806,0.0017122036078944802,0.0017776826862245798,0.0018431618809700012,0.0019086409593001008,0.0019741200376302004,0.002039599232375622,0.002105078427121043,0.0021705576218664646,0.0022360365837812424,0.0023015157785266638,0.002366994973272085,0.002432473935186863,0.0024979531299322844,0.0025634323246777058,0.002628911519423127,0.002694390481337905,0.0027598696760833263]},"gradients/conv3.linear.weight":{"_type":"histogram","values":[2,0,0,0,0,0,0,0,0,0,0,2,3,1,2,7,7,6,6,7,18,34,43,54,72,98,166,228,399,611,1191,2828,49584,6335,1769,800,438,306,167,100,89,49,27,29,13,12,8,9,6,4,2,0,0,0,0,0,0,2,0,1,0,0,0,1],"bins":[-240.90786743164062,-233.55258178710938,-226.19729614257812,-218.84201049804688,-211.48672485351562,-204.1314239501953,-196.77613830566406,-189.4208526611328,-182.06556701660156,-174.7102813720703,-167.35499572753906,-159.9997100830078,-152.6444091796875,-145.28912353515625,-137.933837890625,-130.57855224609375,-123.2232666015625,-115.86798095703125,-108.5126953125,-101.15740203857422,-93.80211639404297,-86.44683074951172,-79.09153747558594,-71.73625183105469,-64.38096618652344,-57.02568054199219,-49.67039108276367,-42.315101623535156,-34.959815979003906,-27.604528427124023,-20.24924087524414,-12.893953323364258,-5.5386505126953125,1.8166370391845703,9.171924591064453,16.527212142944336,23.88249969482422,31.2377872467041,38.593074798583984,45.9483642578125,53.30364990234375,60.658935546875,68.01422119140625,75.36951446533203,82.72480010986328,90.08008575439453,97.43537902832031,104.79066467285156,112.14595031738281,119.50123596191406,126.85652160644531,134.21180725097656,141.56710815429688,148.92239379882812,156.27767944335938,163.63296508789062,170.98825073242188,178.34353637695312,185.69882202148438,193.05410766601562,200.40939331054688,207.7646942138672,215.11997985839844,222.4752655029297,229.83055114746094]},"gradients/conv1.linear.bias":{"values":[1,0,0,0,0,0,0,0,0,0,0,0,0,0,1,0,0,1,2,1,1,0,0,0,2,1,5,1,3,5,1,2,0,3,2,2,1,4,2,5,1,1,3,1,0,1,1,3,3,1,1,0,0,1,0,0,0,0,0,0,0,0,0,1],"bins":[-0.29052743315696716,-0.28147536516189575,-0.27242329716682434,-0.26337122917175293,-0.2543191611766815,-0.2452671080827713,-0.2362150400876999,-0.22716297209262848,-0.21811090409755707,-0.20905883610248566,-0.20000676810741425,-0.19095470011234283,-0.18190264701843262,-0.1728505790233612,-0.1637985110282898,-0.15474644303321838,-0.14569437503814697,-0.13664230704307556,-0.12759023904800415,-0.11853817850351334,-0.10948611050844193,-0.10043404251337051,-0.0913819819688797,-0.08232991397380829,-0.07327784597873688,-0.06422577798366547,-0.055173713713884354,-0.04612164944410324,-0.03706958144903183,-0.028017515316605568,-0.018965449184179306,-0.009913383051753044,-0.0008613467216491699,0.008190719410777092,0.017242785543203354,0.026294851675629616,0.03534691780805588,0.04439898580312729,0.0534510500729084,0.06250311434268951,0.07155518233776093,0.08060725033283234,0.08965931832790375,0.09871137887239456,0.10776344686746597,0.11681551486253738,0.1258675754070282,0.1349196434020996,0.14397171139717102,0.15302377939224243,0.16207584738731384,0.17112791538238525,0.18017998337745667,0.18923203647136688,0.1982841044664383,0.2073361724615097,0.21638824045658112,0.22544030845165253,0.23449237644672394,0.24354444444179535,0.25259649753570557,0.261648565530777,0.2707006335258484,0.2797527015209198,0.2888047695159912],"_type":"histogram"},"Validation Accuracy":0.1005859375,"parameters/conv3.linear.weight":{"_type":"histogram","values":[1,0,3,3,2,7,1,14,23,35,58,88,117,153,230,347,390,468,572,649,776,941,980,1331,1673,2124,2704,3350,3979,4611,4961,5093,5084,4706,4102,3451,2677,2120,1571,1170,879,702,593,469,394,401,292,278,243,172,149,126,91,63,49,28,19,9,7,3,0,3,0,1],"bins":[-0.23109233379364014,-0.22379063069820404,-0.21648892760276794,-0.20918722450733185,-0.20188552141189575,-0.19458381831645966,-0.18728211522102356,-0.17998041212558746,-0.17267870903015137,-0.16537700593471527,-0.15807530283927917,-0.15077359974384308,-0.14347189664840698,-0.1361701935529709,-0.1288684904575348,-0.1215667873620987,-0.1142650842666626,-0.1069633811712265,-0.0996616780757904,-0.09235997498035431,-0.08505827188491821,-0.07775656878948212,-0.07045486569404602,-0.06315316259860992,-0.05585145950317383,-0.04854975640773773,-0.041248053312301636,-0.03394635021686554,-0.026644647121429443,-0.019342944025993347,-0.012041240930557251,-0.004739537835121155,0.0025621652603149414,0.009863868355751038,0.017165571451187134,0.02446727454662323,0.031768977642059326,0.03907068073749542,0.04637238383293152,0.053674086928367615,0.06097579002380371,0.06827749311923981,0.0755791962146759,0.082880899310112,0.0901826024055481,0.09748430550098419,0.10478600859642029,0.11208771169185638,0.11938941478729248,0.12669111788272858,0.13399282097816467,0.14129452407360077,0.14859622716903687,0.15589793026447296,0.16319963335990906,0.17050133645534515,0.17780303955078125,0.18510474264621735,0.19240644574165344,0.19970814883708954,0.20700985193252563,0.21431155502796173,0.22161325812339783,0.22891496121883392,0.23621666431427002]},"parameters/fc.bias":{"_type":"histogram","values":[1,0,0,0,0,0,0,0,0,0,1,0,0,0,0,0,0,0,0,0,0,0,0,0,0,0,0,0,0,0,0,0,0,0,0,0,0,0,0,0,0,0,1,0,0,1,0,0,0,1,1,0,0,1,0,0,0,0,0,1,0,0,0,2],"bins":[-0.1761176735162735,-0.17099696397781372,-0.16587626934051514,-0.16075557470321655,-0.15563486516475677,-0.150514155626297,-0.1453934609889984,-0.14027276635169983,-0.13515205681324005,-0.13003134727478027,-0.12491065263748169,-0.11978995054960251,-0.11466924846172333,-0.10954854637384415,-0.10442784428596497,-0.09930714219808578,-0.0941864401102066,-0.08906573802232742,-0.08394503593444824,-0.07882433384656906,-0.07370363175868988,-0.0685829296708107,-0.06346222758293152,-0.05834152549505234,-0.05322082340717316,-0.048100121319293976,-0.042979419231414795,-0.037858717143535614,-0.03273801505565643,-0.027617312967777252,-0.02249661087989807,-0.01737590879201889,-0.012255191802978516,-0.007134489715099335,-0.002013787627220154,0.003106914460659027,0.008227616548538208,0.013348318636417389,0.01846902072429657,0.02358972281217575,0.02871042490005493,0.03383112698793411,0.03895182907581329,0.044072531163692474,0.049193233251571655,0.054313935339450836,0.05943463742733002,0.0645553395152092,0.06967604160308838,0.07479674369096756,0.07991744577884674,0.08503814786672592,0.0901588499546051,0.09527955204248428,0.10040025413036346,0.10552095621824265,0.11064165830612183,0.11576236039400101,0.12088306248188019,0.12600377202033997,0.13112446665763855,0.13624516129493713,0.1413658708333969,0.1464865803718567,0.15160727500915527]},"parameters/conv2.linear.weight":{"_type":"histogram","values":[8,6,14,23,39,75,95,169,225,293,356,466,475,463,406,365,298,232,228,254,328,406,550,777,1073,1725,3160,5474,8118,9742,9269,7216,4409,2372,1134,600,298,154,80,54,40,51,76,127,171,286,330,415,429,454,382,391,320,227,155,106,67,45,18,8,3,3,1,2],"bins":[-0.40530383586883545,-0.39170265197753906,-0.37810149788856506,-0.3645003139972687,-0.3508991301059723,-0.3372979760169983,-0.3236967921257019,-0.3100956082344055,-0.29649442434310913,-0.28289327025413513,-0.26929208636283875,-0.25569090247154236,-0.24208974838256836,-0.22848856449127197,-0.21488739550113678,-0.2012862116098404,-0.1876850426197052,-0.17408387362957,-0.16048268973827362,-0.14688152074813843,-0.13328033685684204,-0.11967916786670685,-0.10607799887657166,-0.09247682243585587,-0.07887564599514008,-0.06527446955442429,-0.051673296838998795,-0.0380721241235733,-0.024470947682857513,-0.010869773104786873,0.0027314014732837677,0.016332576051354408,0.02993375062942505,0.04353492707014084,0.05713609978556633,0.07073727250099182,0.08433844894170761,0.0979396253824234,0.1115407943725586,0.12514197826385498,0.13874314725399017,0.15234431624412537,0.16594550013542175,0.17954666912555695,0.19314783811569214,0.20674902200698853,0.22035019099712372,0.2339513748884201,0.2475525438785553,0.2611537277698517,0.2747548818588257,0.28835606575012207,0.30195724964141846,0.31555840373039246,0.32915958762168884,0.34276077151298523,0.35636192560195923,0.3699631094932556,0.383564293384552,0.3971654772758484,0.4107666313648224,0.4243678152561188,0.43796899914741516,0.45157015323638916,0.46517133712768555]},"_timestamp":1.7450389048388312e+09,"gradients/fc.bias":{"bins":[-0.01127520203590393,-0.010773693211376667,-0.010272183455526829,-0.009770674630999565,-0.009269165806472301,-0.008767656050622463,-0.0082661472260952,-0.007764638401567936,-0.007263129111379385,-0.006761619821190834,-0.00626011099666357,-0.0057586017064750195,-0.0052570924162864685,-0.004755583591759205,-0.004254074301570654,-0.0037525652442127466,-0.0032510561868548393,-0.002749547129496932,-0.0022480380721390247,-0.0017465287819504738,-0.0012450197245925665,-0.0007435106090269983,-0.00024200149346143007,0.00025950762210413814,0.0007610167376697063,0.0012625257950276136,0.0017640349688008428,0.002265544142574072,0.002767053199931979,0.0032685622572898865,0.0037700715474784374,0.004271580372005701,0.004773089662194252,0.005274598952382803,0.005776107776910067,0.0062776170670986176,0.006779125891625881,0.007280635181814432,0.007782144472002983,0.008283653296530247,0.00878516212105751,0.009286671876907349,0.009788180701434612,0.010289689525961876,0.010791199281811714,0.011292708106338978,0.011794216930866241,0.01229572668671608,0.012797235511243343,0.013298744335770607,0.013800254091620445,0.014301762916147709,0.014803271740674973,0.01530478149652481,0.0158062893897295,0.016307799145579338,0.016809308901429176,0.017310816794633865,0.017812326550483704,0.018313836306333542,0.01881534419953823,0.01931685395538807,0.019818363711237907,0.020319871604442596,0.020821381360292435],"_type":"histogram","values":[1,0,0,2,0,0,0,0,0,0,0,0,1,0,1,0,0,0,0,0,0,0,1,0,0,0,1,0,0,0,0,0,0,0,1,0,0,0,0,0,0,0,0,1,0,0,0,0,0,0,0,0,0,0,0,0,0,0,0,0,0,0,0,1]},"Validation Loss":644.7926703559028,"parameters/fc.weight":{"bins":[-0.07927598804235458,-0.07646138966083527,-0.07364679127931595,-0.07083219289779663,-0.06801759451627731,-0.065202996134758,-0.06238839775323868,-0.05957379937171936,-0.05675920099020004,-0.053944602608680725,-0.05113000422716141,-0.04831540584564209,-0.04550080746412277,-0.042686209082603455,-0.03987161070108414,-0.03705701231956482,-0.0342424139380455,-0.031427815556526184,-0.028613217175006866,-0.02579861879348755,-0.02298402041196823,-0.020169422030448914,-0.017354823648929596,-0.014540225267410278,-0.01172562688589096,-0.008911028504371643,-0.0060964301228523254,-0.003281831741333008,-0.0004672333598136902,0.0023473650217056274,0.005161963403224945,0.007976561784744263,0.010791152715682983,0.013605751097202301,0.01642034947872162,0.019234947860240936,0.022049546241760254,0.02486414462327957,0.02767874300479889,0.030493341386318207,0.033307939767837524,0.03612253814935684,0.03893713653087616,0.04175173491239548,0.044566333293914795,0.04738093167543411,0.05019553005695343,0.05301012843847275,0.055824726819992065,0.05863932520151138,0.0614539235830307,0.06426852196455002,0.06708312034606934,0.06989771872758865,0.07271231710910797,0.07552691549062729,0.0783415138721466,0.08115611225366592,0.08397071063518524,0.08678530901670456,0.08959990739822388,0.0924145057797432,0.09522910416126251,0.09804370254278183,0.10085830092430115],"_type":"histogram","values":[3,2,4,3,3,2,3,7,6,7,7,3,8,7,9,8,13,20,18,16,8,18,12,14,17,10,15,16,18,23,17,15,24,14,16,13,12,22,21,17,5,13,15,7,14,14,14,14,11,8,10,7,6,6,6,4,6,3,2,0,1,1,0,2]},"Training Accuracy":0.10540614983974358,"ROC-AUC Curve":{"sha256":"3e8fe184c446b773c5f23aa412cf93fd2b08ae46a2e51756f7c75638c41314c8","size":145210,"path":"media/images/ROC-AUC Curve_35_3e8fe184c446b773c5f2.png","format":"png","width":800,"height":600,"_type":"image-file"},"_step":35}