{"gradients/conv3.linear.weight":{"values":[1,0,0,0,1,1,2,0,0,0,1,3,5,0,1,1,0,5,4,4,11,12,18,32,33,52,48,76,147,172,267,542,992,2507,52885,4770,1298,623,341,216,138,99,62,47,34,19,12,8,9,7,2,2,4,5,2,2,2,4,1,3,0,0,1,2],"bins":[-1817.455078125,-1765.0538330078125,-1712.652587890625,-1660.2513427734375,-1607.85009765625,-1555.4488525390625,-1503.047607421875,-1450.6463623046875,-1398.2451171875,-1345.8438720703125,-1293.442626953125,-1241.0413818359375,-1188.64013671875,-1136.2388916015625,-1083.837646484375,-1031.4364013671875,-979.03515625,-926.6339111328125,-874.232666015625,-821.8314208984375,-769.43017578125,-717.0289306640625,-664.627685546875,-612.2264404296875,-559.8251953125,-507.4239501953125,-455.022705078125,-402.6214599609375,-350.22021484375,-297.8189697265625,-245.417724609375,-193.0164794921875,-140.6151123046875,-88.2138671875,-35.8126220703125,16.588623046875,68.9898681640625,121.39111328125,173.7923583984375,226.193603515625,278.5948486328125,330.99609375,383.3973388671875,435.798583984375,488.1998291015625,540.60107421875,593.0023193359375,645.403564453125,697.8048095703125,750.2060546875,802.6072998046875,855.008544921875,907.4097900390625,959.81103515625,1012.2122802734375,1064.613525390625,1117.0147705078125,1169.416015625,1221.8172607421875,1274.218505859375,1326.6197509765625,1379.02099609375,1431.4222412109375,1483.823486328125,1536.2247314453125],"_type":"histogram"},"parameters/conv3.linear.weight":{"_type":"histogram","values":[4,0,7,5,8,11,33,40,57,70,123,126,179,235,308,387,513,661,772,1047,1327,1566,1857,2128,2353,2521,2690,2842,2867,2848,3015,2998,3057,3081,2911,2783,2720,2593,2382,2169,1978,1766,1399,1149,971,720,567,421,313,255,188,167,111,75,54,37,26,14,18,5,7,0,0,1],"bins":[-0.09253999590873718,-0.08964782953262329,-0.08675567060709,-0.0838635042309761,-0.08097133785486221,-0.07807917892932892,-0.07518701255321503,-0.07229484617710114,-0.06940267980098724,-0.06651052087545395,-0.06361835449934006,-0.060726191848516464,-0.05783402919769287,-0.05494186282157898,-0.052049700170755386,-0.049157533794641495,-0.0462653711438179,-0.04337320849299431,-0.04048104211688042,-0.037588879466056824,-0.03469671308994293,-0.03180455043911934,-0.028912387788295746,-0.026020223274827003,-0.02312805876135826,-0.02023589424788952,-0.017343729734420776,-0.014451567083597183,-0.01155940257012844,-0.008667238056659698,-0.005775074474513531,-0.0028829104267060757,9.24617052078247e-06,0.0029014102183282375,0.005793574266135693,0.00868573784828186,0.011577902361750603,0.014470066875219345,0.017362229526042938,0.02025439403951168,0.023146558552980423,0.026038723066449165,0.028930887579917908,0.0318230502307415,0.034715212881565094,0.037607379257678986,0.04049954190850258,0.04339170828461647,0.046283870935440063,0.04917603358626366,0.05206819996237755,0.05496036261320114,0.05785252898931503,0.060744691640138626,0.06363685429096222,0.06652902066707611,0.06942118704319,0.0723133459687233,0.07520551234483719,0.07809767872095108,0.08098983764648438,0.08388200402259827,0.08677417039871216,0.08966632932424545,0.09255849570035934]},"Validation Loss":1529.0696105957031,"gradients/conv3.linear.bias":{"bins":[-0.0028869323432445526,-0.0027266237884759903,-0.0025663154665380716,-0.002406007144600153,-0.0022456985898315907,-0.0020853900350630283,-0.0019250817131251097,-0.0017647732747718692,-0.0016044648364186287,-0.0014441563980653882,-0.0012838479597121477,-0.0011235395213589072,-0.0009632310830056667,-0.0008029226446524262,-0.0006426142062991858,-0.00048230576794594526,-0.0003219973295927048,-0.00016168889123946428,-1.380452886223793e-06,0.0001589279854670167,0.0003192364238202572,0.0004795448621734977,0.0006398533005267382,0.0008001617388799787,0.0009604701772332191,0.0011207786155864596,0.0012810870539397001,0.0014413954922929406,0.001601703930646181,0.0017620123689994216,0.001922320807352662,0.0020826291292905807,0.002242937684059143,0.0024032462388277054,0.002563554560765624,0.0027238628827035427,0.002884171437472105,0.0030444799922406673,0.003204788314178586,0.0033650966361165047,0.003525405190885067,0.0036857137456536293,0.003846022067591548,0.004006330389529467,0.004166638944298029,0.004326947499066591,0.004487255588173866,0.004647564142942429,0.004807872697710991,0.004968181252479553,0.0051284898072481155,0.0052887978963553905,0.005449106451123953,0.005609415005892515,0.00576972309499979,0.0059300316497683525,0.006090340204536915,0.006250648759305477,0.0064109573140740395,0.0065712654031813145,0.006731573957949877,0.006891882512718439,0.007052190601825714,0.007212499156594276,0.007372807711362839],"_type":"histogram","values":[1,0,0,0,1,2,0,0,0,0,1,1,0,5,3,4,7,6,8,4,4,3,1,2,2,2,0,0,1,1,1,1,0,0,0,0,0,0,0,0,0,0,1,0,0,0,0,0,1,0,0,0,0,0,0,0,0,0,0,0,0,0,0,1]},"parameters/fc.weight":{"bins":[-0.1152138039469719,-0.11152330785989761,-0.10783281177282333,-0.10414231568574905,-0.10045181214809418,-0.0967613160610199,-0.09307081997394562,-0.08938032388687134,-0.08568982779979706,-0.08199933171272278,-0.0783088356256485,-0.07461833953857422,-0.07092784345149994,-0.06723733991384506,-0.06354684382677078,-0.0598563477396965,-0.05616585165262222,-0.05247535556554794,-0.04878485947847366,-0.045094359666109085,-0.041403863579034805,-0.037713367491960526,-0.03402286767959595,-0.030332371592521667,-0.026641875505447388,-0.022951379418373108,-0.01926088146865368,-0.015570384450256824,-0.01187988743185997,-0.008189390413463116,-0.004498893395066261,-0.0008083963766694069,0.0028820931911468506,0.006572590209543705,0.01026308722794056,0.013953584246337414,0.017644081264734268,0.021334577351808548,0.025025075301527977,0.028715573251247406,0.032406069338321686,0.036096565425395966,0.039787061512470245,0.043477561324834824,0.0471680574119091,0.05085855349898338,0.05454905331134796,0.05823954939842224,0.06193004548549652,0.0656205415725708,0.06931103765964508,0.07300153374671936,0.07669202983379364,0.08038253337144852,0.0840730294585228,0.08776352554559708,0.09145402163267136,0.09514451771974564,0.09883501380681992,0.1025255098938942,0.10621601343154907,0.10990650951862335,0.11359700560569763,0.11728750169277191,0.12097799777984619],"_type":"histogram","values":[3,1,2,6,7,10,12,16,15,17,7,6,15,14,9,13,7,10,12,6,11,7,6,13,14,10,15,12,12,9,14,18,16,11,12,6,11,16,17,14,7,20,11,5,8,8,12,8,13,17,6,13,7,7,12,5,8,10,10,4,6,5,4,2]},"Training Accuracy":0.11289576480263158,"gradients/conv1.linear.bias":{"bins":[-0.14095473289489746,-0.13455088436603546,-0.12814703583717346,-0.12174317985773087,-0.11533933132886887,-0.10893548280000687,-0.10253163427114487,-0.09612778574228287,-0.08972392976284027,-0.08332008123397827,-0.07691623270511627,-0.07051238417625427,-0.06410853564739227,-0.057704683393239975,-0.051300834864377975,-0.04489698261022568,-0.03849313408136368,-0.03208928555250168,-0.02568543329834938,-0.01928158476948738,-0.012877734377980232,-0.006473884452134371,-7.003452628850937e-05,0.006333815399557352,0.012737665325403214,0.019141515716910362,0.02554536610841751,0.03194921463727951,0.03835306316614151,0.04475691542029381,0.05116076394915581,0.057564616203308105,0.0639684647321701,0.0703723132610321,0.0767761617898941,0.0831800177693367,0.0895838662981987,0.0959877148270607,0.1023915633559227,0.1087954118847847,0.1151992678642273,0.1216031163930893,0.1280069649219513,0.1344108134508133,0.1408146619796753,0.1472185105085373,0.1536223590373993,0.1600262075662613,0.1664300560951233,0.17283391952514648,0.17923776805400848,0.18564161658287048,0.19204546511173248,0.19844931364059448,0.20485316216945648,0.21125701069831848,0.21766085922718048,0.22406470775604248,0.23046855628490448,0.23687241971492767,0.24327626824378967,0.24968011677265167,0.25608396530151367,0.2624877989292145,0.26889166235923767],"_type":"histogram","values":[1,0,2,1,1,0,2,0,1,0,1,0,1,0,1,1,1,3,1,1,0,1,2,1,2,1,3,2,0,1,2,2,2,1,2,0,1,2,0,1,5,0,2,0,1,0,1,1,1,2,0,0,0,0,1,0,0,1,1,3,0,0,0,1]},"Gradient Norm":15303.545852431516,"parameters/conv2.linear.weight":{"_type":"histogram","values":[2,1,4,11,21,34,43,73,107,161,172,215,260,308,339,339,365,373,391,441,492,592,908,1439,2224,3090,4024,4659,4943,5066,5105,5018,4840,4525,3887,2882,1897,1184,688,448,311,304,316,323,302,318,313,315,281,235,243,208,150,116,64,61,34,40,14,10,4,0,1,2],"bins":[-0.16739685833454132,-0.16190485656261444,-0.15641285479068756,-0.15092085301876068,-0.145428866147995,-0.13993686437606812,-0.13444486260414124,-0.12895286083221436,-0.12346085906028748,-0.1179688572883606,-0.11247685551643372,-0.10698486119508743,-0.10149285942316055,-0.09600085765123367,-0.09050886332988739,-0.08501686155796051,-0.07952485978603363,-0.07403285801410675,-0.06854085624217987,-0.06304886192083359,-0.05755686014890671,-0.05206485837697983,-0.046572860330343246,-0.041080862283706665,-0.035588860511779785,-0.030096860602498055,-0.024604860693216324,-0.019112860783934593,-0.013620860874652863,-0.008128860965371132,-0.0026368610560894012,0.0028551388531923294,0.008347123861312866,0.013839123770594597,0.019331123679876328,0.024823123589158058,0.03031512349843979,0.03580712527036667,0.04129912331700325,0.04679112136363983,0.05228312313556671,0.05777512490749359,0.06326712667942047,0.06875912100076675,0.07425112277269363,0.07974312454462051,0.0852351188659668,0.09072712063789368,0.09621912240982056,0.10171112418174744,0.10720312595367432,0.1126951202750206,0.11818712204694748,0.12367912381887436,0.12917111814022064,0.13466311991214752,0.1401551216840744,0.14564712345600128,0.15113912522792816,0.15663112699985504,0.16212311387062073,0.1676151156425476,0.1731071174144745,0.17859911918640137,0.18409112095832825]},"parameters/conv2.linear.bias":{"_type":"histogram","values":[1,0,0,0,0,0,0,0,0,1,0,1,0,0,1,1,0,1,1,1,1,2,1,2,0,2,3,0,2,5,2,1,2,2,1,5,3,0,1,2,0,3,0,1,1,1,1,1,2,1,0,2,1,1,0,1,0,0,0,0,1,0,1,1],"bins":[-0.5359058976173401,-0.5297629833221436,-0.523620069026947,-0.5174770951271057,-0.5113341808319092,-0.5051912665367126,-0.4990483522415161,-0.4929054379463196,-0.48676249384880066,-0.4806195795536041,-0.4744766652584076,-0.46833372116088867,-0.46219080686569214,-0.4560478925704956,-0.4499049484729767,-0.44376203417778015,-0.43761909008026123,-0.4314761757850647,-0.42533326148986816,-0.41919031739234924,-0.4130474030971527,-0.4069044888019562,-0.40076154470443726,-0.3946186304092407,-0.3884757161140442,-0.38233277201652527,-0.37618985772132874,-0.3700469434261322,-0.3639039993286133,-0.35776108503341675,-0.3516181707382202,-0.3454752266407013,-0.33933231234550476,-0.3331893980503082,-0.3270464539527893,-0.3209035396575928,-0.31476062536239624,-0.3086176812648773,-0.3024747669696808,-0.29633185267448425,-0.29018890857696533,-0.2840459942817688,-0.27790307998657227,-0.27176013588905334,-0.2656172215938568,-0.2594743072986603,-0.25333136320114136,-0.24718844890594482,-0.2410455197095871,-0.23490259051322937,-0.22875967621803284,-0.2226167470216751,-0.21647381782531738,-0.21033090353012085,-0.20418797433376312,-0.1980450451374054,-0.19190213084220886,-0.18575920164585114,-0.1796162724494934,-0.17347334325313568,-0.16733042895793915,-0.16118749976158142,-0.1550445705652237,-0.14890165627002716,-0.14275872707366943]},"parameters/conv1.linear.weight":{"bins":[-0.1896502524614334,-0.18340954184532166,-0.1771688461303711,-0.17092813551425934,-0.16468742489814758,-0.15844672918319702,-0.15220601856708527,-0.1459653079509735,-0.13972461223602295,-0.1334839016199112,-0.12724319100379944,-0.12100248783826828,-0.11476178467273712,-0.10852107405662537,-0.10228037089109421,-0.09603966027498245,-0.0897989571094513,-0.08355825394392014,-0.07731754332780838,-0.07107684016227722,-0.06483612954616547,-0.05859542638063431,-0.05235472321510315,-0.04611401632428169,-0.039873309433460236,-0.03363260254263878,-0.02739189751446247,-0.021151192486286163,-0.014910485595464706,-0.008669779635965824,-0.002429073676466942,0.0038116322830319405,0.010052323341369629,0.016293030232191086,0.022533735260367393,0.0287744402885437,0.03501514717936516,0.041255854070186615,0.04749655723571777,0.05373726412653923,0.05997797101736069,0.06621867418289185,0.0724593847990036,0.07870008796453476,0.08494079113006592,0.09118150174617767,0.09742220491170883,0.10366291552782059,0.10990361869335175,0.1161443218588829,0.12238503247499466,0.12862573564052582,0.13486644625663757,0.14110714197158813,0.1473478525876999,0.15358856320381165,0.1598292589187622,0.16606996953487396,0.17231068015098572,0.17855139076709747,0.18479208648204803,0.1910327970981598,0.19727350771427155,0.2035142034292221,0.20975491404533386],"_type":"histogram","values":[1,2,2,0,3,4,4,5,8,14,16,33,40,39,67,87,122,164,227,318,402,510,574,653,683,739,720,819,762,840,854,845,803,807,757,735,698,614,569,428,371,269,203,156,105,89,60,36,37,23,24,10,7,6,4,8,4,0,3,0,0,0,0,1]},"_timestamp":1.74503760311984e+09,"Confusion Matrix":{"path":"media/images/Confusion Matrix_69_3aee5fe27c6a5baaefcd.png","format":"png","width":1500,"height":1500,"_type":"image-file","sha256":"3aee5fe27c6a5baaefcdb3301a0c550b6c4ee4538eae645b023e30b7a8c07568","size":101370},"ROC-AUC Curve":{"_type":"image-file","sha256":"977e31e6df59e873295dd8753dc757c98d383e4cc96edf6fb88a7c653a64f149","size":129343,"path":"media/images/ROC-AUC Curve_69_977e31e6df59e873295d.png","format":"png","width":800,"height":600},"Validation Accuracy":0.1109619140625,"gradients/fc.weight":{"bins":[-3113.108642578125,-3015.53271484375,-2917.95654296875,-2820.38037109375,-2722.804443359375,-2625.228515625,-2527.65234375,-2430.076171875,-2332.500244140625,-2234.92431640625,-2137.34814453125,-2039.7720947265625,-1942.196044921875,-1844.6199951171875,-1747.0439453125,-1649.4678955078125,-1551.891845703125,-1454.3157958984375,-1356.73974609375,-1259.1636962890625,-1161.587646484375,-1064.0115966796875,-966.435546875,-868.8594970703125,-771.283447265625,-673.7073974609375,-576.13134765625,-478.5552978515625,-380.979248046875,-283.4031982421875,-185.8271484375,-88.2510986328125,9.3251953125,106.9012451171875,204.477294921875,302.0533447265625,399.62939453125,497.2054443359375,594.781494140625,692.3575439453125,789.93359375,887.5096435546875,985.085693359375,1082.6617431640625,1180.23779296875,1277.8138427734375,1375.389892578125,1472.9659423828125,1570.5419921875,1668.1180419921875,1765.694091796875,1863.2701416015625,1960.84619140625,2058.42236328125,2155.998291015625,2253.57421875,2351.150390625,2448.7265625,2546.302490234375,2643.87841796875,2741.45458984375,2839.03076171875,2936.606689453125,3034.1826171875,3131.7587890625],"_type":"histogram","values":[1,1,0,0,0,1,0,2,1,1,3,1,1,5,8,4,5,2,5,2,5,3,4,2,4,2,2,5,8,37,112,131,102,42,39,18,11,5,4,2,4,6,3,4,5,3,3,6,4,7,2,0,5,1,0,1,1,1,0,1,0,0,0,2]},"GPU Memory Used (MB)":3778,"Epoch":69,"parameters/conv1.linear.bias":{"bins":[-0.20066502690315247,-0.1975863128900528,-0.19450759887695312,-0.19142886996269226,-0.1883501559495926,-0.18527144193649292,-0.18219272792339325,-0.17911399900913239,-0.17603528499603271,-0.17295657098293304,-0.16987785696983337,-0.1667991280555725,-0.16372041404247284,-0.16064170002937317,-0.1575629860162735,-0.15448425710201263,-0.15140554308891296,-0.1483268290758133,-0.14524811506271362,-0.14216940104961395,-0.1390906721353531,-0.13601195812225342,-0.13293324410915375,-0.12985453009605408,-0.1267758011817932,-0.12369708716869354,-0.12061837315559387,-0.1175396516919136,-0.11446093767881393,-0.11138221621513367,-0.108303502202034,-0.10522478073835373,-0.10214606672525406,-0.09906734526157379,-0.09598863124847412,-0.09290990978479385,-0.08983119577169418,-0.08675247430801392,-0.08367376029491425,-0.08059503883123398,-0.07751632481813431,-0.07443760335445404,-0.07135888934135437,-0.0682801753282547,-0.06520145386457443,-0.062122736126184464,-0.059044018387794495,-0.055965300649404526,-0.05288658291101456,-0.049807868897914886,-0.04672915115952492,-0.04365043342113495,-0.04057171568274498,-0.03749299794435501,-0.03441428020596504,-0.03133556246757507,-0.028256844729185104,-0.025178126990795135,-0.022099409252405167,-0.019020691514015198,-0.01594197377562523,-0.012863256968557835,-0.009784539230167866,-0.006705821957439184,-0.003627104451879859],"_type":"histogram","values":[1,0,1,3,0,3,1,0,2,1,1,0,2,5,1,0,1,3,1,1,1,3,2,2,2,2,0,2,0,0,2,1,2,1,2,0,0,2,1,1,0,3,1,1,0,0,1,1,0,0,0,1,0,0,0,1,0,0,0,1,0,0,0,1]},"_step":69,"_runtime":299.231337972,"Confusion Matrix Table":{"_latest_artifact_path":"wandb-client-artifact://00ow8rufr8l0hjjp3hyrwjpz2q6478tu3j22egjz0xd6x7trv1cx3ye9dyjn8if7z2a0kdccs1j78guaio6jxtu0mn4rc4n2zkvn1o2f6f1tnqylhx6rq2xsudjxyhp7:latest/Confusion Matrix Table.table.json","path":"media/table/Confusion Matrix Table_69_6b1e85185dc2b012bbf9.table.json","ncols":5,"nrows":12,"_type":"table-file","sha256":"6b1e85185dc2b012bbf95507917b581c2e766365c9e85919f003ffae916d743f","size":1231,"artifact_path":"wandb-client-artifact://poubnko68o4cn1t38j1irmidccc7augteomf7au3rij0m61dkblnb4glifdxtzwhk4jwwf9tj8gqtbw50364ey31qn9syxurzvgqyqphwgr4ga1lcp1d58zu4hvyjbz1/Confusion Matrix Table.table.json"},"parameters/fc.bias":{"_type":"histogram","values":[1,0,0,0,1,0,1,0,0,0,2,0,0,0,0,0,1,0,0,0,0,0,0,0,1,0,0,0,0,0,1,0,0,0,0,0,0,0,0,0,0,0,0,0,0,0,0,1,0,0,0,0,0,0,0,0,0,0,0,0,0,0,0,1],"bins":[-0.05889242887496948,-0.05666331201791763,-0.054434195160865784,-0.052205078303813934,-0.049975961446762085,-0.047746844589710236,-0.045517727732658386,-0.04328861087560654,-0.04105949401855469,-0.03883037716150284,-0.03660126030445099,-0.03437214344739914,-0.03214302659034729,-0.02991390973329544,-0.02768479287624359,-0.025455676019191742,-0.023226559162139893,-0.020997442305088043,-0.018768325448036194,-0.016539208590984344,-0.014310091733932495,-0.012080974876880646,-0.009851858019828796,-0.007622741162776947,-0.005393624305725098,-0.0031645074486732483,-0.0009353905916213989,0.0012937262654304504,0.0035228431224823,0.005751959979534149,0.007981076836585999,0.010210193693637848,0.0124393031001091,0.01466841995716095,0.0168975368142128,0.01912665367126465,0.021355770528316498,0.023584887385368347,0.025814004242420197,0.028043121099472046,0.030272237956523895,0.032501354813575745,0.034730471670627594,0.03695958852767944,0.03918870538473129,0.04141782224178314,0.04364693909883499,0.04587605595588684,0.04810517281293869,0.05033428966999054,0.05256340652704239,0.05479252338409424,0.05702164024114609,0.05925075709819794,0.061479873955249786,0.06370899081230164,0.06593810766935349,0.06816722452640533,0.07039634138345718,0.07262545824050903,0.07485457509756088,0.07708369195461273,0.07931280881166458,0.08154192566871643,0.08377104252576828]},"parameters/conv3.linear.bias":{"bins":[-0.3696999251842499,-0.35812562704086304,-0.3465512990951538,-0.33497700095176697,-0.3234027028083801,-0.3118283748626709,-0.30025407671928406,-0.2886797785758972,-0.277105450630188,-0.26553115248680115,-0.2539568543434143,-0.24238254129886627,-0.23080822825431824,-0.2192339301109314,-0.20765961706638336,-0.19608531892299652,-0.1845110058784485,-0.17293669283390045,-0.1613623946905136,-0.14978808164596558,-0.13821378350257874,-0.1266394704580307,-0.11506515741348267,-0.10349085181951523,-0.09191654622554779,-0.08034224063158035,-0.06876793503761292,-0.05719362199306488,-0.04561931639909744,-0.034045010805130005,-0.02247070148587227,-0.010896394029259682,0.0006779134273529053,0.012252220883965492,0.02382652834057808,0.035400837659835815,0.04697514325380325,0.05854944884777069,0.07012376189231873,0.08169806748628616,0.0932723730802536,0.10484667867422104,0.11642098426818848,0.1279952973127365,0.13956961035728455,0.1511439085006714,0.16271822154521942,0.17429251968860626,0.1858668327331543,0.19744114577770233,0.20901544392108917,0.2205897569656372,0.23216405510902405,0.24373836815357208,0.2553126811981201,0.26688697934150696,0.2784612774848938,0.290035605430603,0.30160990357398987,0.3131842017173767,0.32475852966308594,0.3363328278064728,0.3479071259498596,0.35948145389556885,0.3710557520389557],"_type":"histogram","values":[3,1,2,1,0,0,0,2,1,1,1,1,0,0,0,2,0,1,1,1,0,4,1,1,0,1,0,1,0,0,1,18,8,2,0,1,0,0,0,0,0,0,1,0,0,2,2,0,0,0,2,0,0,0,0,0,0,0,0,0,0,0,0,1]},"_wandb":{"runtime":299},"Training Loss":947.6292066072162,"gradients/conv1.linear.weight":{"values":[2,2,0,0,0,2,0,1,2,0,1,2,1,3,6,4,4,7,11,10,9,22,22,16,31,45,44,70,128,356,14638,489,169,95,43,31,22,19,14,12,9,6,2,4,8,3,1,2,3,3,2,2,1,1,1,1,0,0,0,0,1,0,0,1],"bins":[-2653.04931640625,-2566.34619140625,-2479.64306640625,-2392.939697265625,-2306.236572265625,-2219.533447265625,-2132.830322265625,-2046.1270751953125,-1959.4239501953125,-1872.7208251953125,-1786.017578125,-1699.314453125,-1612.611328125,-1525.9080810546875,-1439.2049560546875,-1352.501708984375,-1265.798583984375,-1179.095458984375,-1092.3922119140625,-1005.6890869140625,-918.9859008789062,-832.28271484375,-745.57958984375,-658.8764038085938,-572.1732177734375,-485.47003173828125,-398.7668762207031,-312.063720703125,-225.36053466796875,-138.65736389160156,-51.954193115234375,34.74897766113281,121.452392578125,208.1555633544922,294.8587341308594,381.5618896484375,468.26507568359375,554.96826171875,641.67138671875,728.3745727539062,815.0777587890625,901.7809448242188,988.484130859375,1075.187255859375,1161.890380859375,1248.5936279296875,1335.2967529296875,1422,1508.703125,1595.40625,1682.1094970703125,1768.8126220703125,1855.515869140625,1942.218994140625,2028.922119140625,2115.625244140625,2202.32861328125,2289.03173828125,2375.73486328125,2462.43798828125,2549.14111328125,2635.84423828125,2722.547607421875,2809.250732421875,2895.953857421875],"_type":"histogram"},"gradients/conv2.linear.bias":{"_type":"histogram","values":[2,0,0,0,0,0,4,1,1,0,4,1,1,0,0,1,1,0,3,7,1,1,0,0,3,3,1,2,1,3,0,0,0,3,0,0,1,1,1,2,0,2,0,1,0,2,1,0,1,1,0,0,0,0,0,1,1,0,1,0,1,0,1,2],"bins":[-0.0005552591755986214,-0.0005035180365666747,-0.0004517768684308976,-0.0004000357002951205,-0.0003482945612631738,-0.00029655342223122716,-0.00024481225409545004,-0.00019307110051158816,-0.00014132994692772627,-8.958879334386438e-05,-3.7847639760002494e-05,1.3893513823859394e-05,6.563466740772128e-05,0.00011737582099158317,0.00016911697457544506,0.00022085812815930694,0.00027259928174316883,0.0003243404207751155,0.0003760815889108926,0.0004278227570466697,0.0004795638960786164,0.000531305035110563,0.0005830462323501706,0.0006347873713821173,0.0006865285104140639,0.0007382696494460106,0.0007900107884779572,0.0008417519857175648,0.0008934931247495115,0.0009452342637814581,0.0009969754610210657,0.0010487166000530124,0.001100457739084959,0.0011521988781169057,0.0012039400171488523,0.001255681156180799,0.0013074222952127457,0.0013591635506600142,0.0014109046896919608,0.0014626458287239075,0.0015143869677558541,0.0015661281067878008,0.0016178692458197474,0.001669610384851694,0.0017213516402989626,0.0017730927793309093,0.001824833918362856,0.0018765750573948026,0.0019283161964267492,0.0019800574518740177,0.0020317984744906425,0.002083539729937911,0.002135280752554536,0.0021870220080018044,0.002238763030618429,0.0022905042860656977,0.002342245541512966,0.002393986564129591,0.0024457278195768595,0.0024974688421934843,0.002549210097640753,0.0026009511202573776,0.002652692375704646,0.002704433398321271,0.0027561746537685394]},"gradients/fc.bias":{"values":[1,0,0,0,0,0,0,0,0,0,2,0,0,0,0,0,0,1,0,0,0,0,0,0,0,0,0,0,2,1,0,0,0,0,0,0,1,0,0,0,0,0,0,0,0,0,0,0,0,0,0,0,1,0,0,0,0,0,0,0,0,0,0,1],"bins":[-0.031408973038196564,-0.030277147889137268,-0.029145320877432823,-0.028013495728373528,-0.026881670579314232,-0.025749843567609787,-0.02461801841855049,-0.023486193269491196,-0.0223543681204319,-0.021222541108727455,-0.02009071595966816,-0.018958890810608864,-0.01782706379890442,-0.016695238649845123,-0.015563412569463253,-0.014431587420403957,-0.013299761340022087,-0.012167935259640217,-0.011036110110580921,-0.009904284030199051,-0.008772458881139755,-0.007640632800757885,-0.006508806720376015,-0.005376981105655432,-0.004245155490934849,-0.003113329876214266,-0.001981504028663039,-0.0008496782975271344,0.00028214743360877037,0.0014139731647446752,0.00254579889588058,0.0036776247434318066,0.0048094503581523895,0.0059412759728729725,0.0070731015875935555,0.008204927667975426,0.009336752817034721,0.010468578897416592,0.011600404977798462,0.012732230126857758,0.013864056207239628,0.014995882287621498,0.016127707436680794,0.01725953258574009,0.018391359597444534,0.01952318474650383,0.020655009895563126,0.02178683690726757,0.022918662056326866,0.024050487205386162,0.025182314217090607,0.026314139366149902,0.027445964515209198,0.028577791526913643,0.02970961667597294,0.030841441825032234,0.03197326883673668,0.033105093985795975,0.03423691913485527,0.035368744283914566,0.03650056943297386,0.037632398307323456,0.03876422345638275,0.03989604860544205,0.04102787375450134],"_type":"histogram"},"gradients/conv2.linear.weight":{"_type":"histogram","values":[1,0,0,0,0,0,0,0,0,0,0,0,0,1,0,5,1,1,4,3,2,6,7,15,19,14,32,34,53,79,114,179,285,521,968,2572,52061,5386,1433,616,370,241,125,116,68,50,29,31,21,8,13,6,11,8,7,5,5,3,2,1,1,2,0,1],"bins":[-1427.4530029296875,-1388.59326171875,-1349.7333984375,-1310.87353515625,-1272.0137939453125,-1233.154052734375,-1194.294189453125,-1155.434326171875,-1116.5745849609375,-1077.71484375,-1038.85498046875,-999.9951782226562,-961.1353759765625,-922.2755737304688,-883.415771484375,-844.5559692382812,-805.6961669921875,-766.8363647460938,-727.9765625,-689.1167602539062,-650.2569580078125,-611.3971557617188,-572.537353515625,-533.6775512695312,-494.8177490234375,-455.95794677734375,-417.09814453125,-378.23834228515625,-339.3785400390625,-300.51873779296875,-261.658935546875,-222.79913330078125,-183.939208984375,-145.07940673828125,-106.2196044921875,-67.35980224609375,-28.5,10.35980224609375,49.2196044921875,88.07940673828125,126.939208984375,165.79901123046875,204.6588134765625,243.51861572265625,282.37841796875,321.23822021484375,360.0980224609375,398.95782470703125,437.817626953125,476.67742919921875,515.5372314453125,554.3970336914062,593.2568359375,632.1166381835938,670.9764404296875,709.8362426757812,748.696044921875,787.5558471679688,826.4156494140625,865.2754516601562,904.13525390625,942.9950561523438,981.8548583984375,1020.7146606445312,1059.574462890625]}}